tree
version=v4
num_class=1
num_tree_per_iteration=1
label_index=0
max_feature_idx=361
objective=binary sigmoid:1
feature_names=numero_de_cliente foto_mes cliente_edad cliente_antiguedad mrentabilidad mrentabilidad_annual mactivos_margen mpasivos_margen cproductos mcuenta_corriente ccaja_ahorro mcaja_ahorro mdescubierto_preacordado mcuentas_saldo mautoservicio ctarjeta_visa_trx mtarjeta_visa_consumo cprestamos_personales mprestamos_personales mprestamos_prendarios mplazo_fijo_dolares ccaja_seguridad cpayroll_trx mpayroll mcuenta_debitos_automaticos mpagomiscuentas mcomisiones_mantenimiento mtransferencias_recibidas ccallcenter_trx thomebanking chomebanking_trx ctrx_quarter Master_mfinanciacion_limite Master_Fvencimiento Master_fultimo_cierre Master_fechaalta Visa_mfinanciacion_limite Visa_Fvencimiento Visa_Finiciomora Visa_msaldopesos Visa_mconsumospesos Visa_mpagospesos Visa_fechaalta mes ctrx_quarter_normalizado mpayroll_sobre_edad mv_status01 mv_status07 mv_Fvencimiento mv_Finiciomora mv_msaldopesos mv_fultimo_cierre mv_mpagominimo mvr_msaldototal mvr_mpagominimo cliente_edad_avg6 mrentabilidad_tend6 mrentabilidad_avg6 mrentabilidad_annual_tend6 mrentabilidad_annual_avg6 mcomisiones_tend6 mcomisiones_avg6 mactivos_margen_tend6 mactivos_margen_avg6 mpasivos_margen_tend6 mpasivos_margen_avg6 cproductos_tend6 cproductos_avg6 mcuenta_corriente_tend6 mcuenta_corriente_avg6 ccaja_ahorro_tend6 ccaja_ahorro_avg6 mcaja_ahorro_tend6 mcaja_ahorro_avg6 mcaja_ahorro_dolares_tend6 mcaja_ahorro_dolares_avg6 mdescubierto_preacordado_tend6 mcuentas_saldo_tend6 mcuentas_saldo_avg6 ctarjeta_debito_avg6 ctarjeta_visa_trx_tend6 mtarjeta_visa_consumo_tend6 cprestamos_personales_tend6 mprestamos_personales_tend6 mprestamos_hipotecarios_avg6 mplazo_fijo_dolares_tend6 mpayroll_tend6 mpayroll_avg6 ccuenta_debitos_automaticos_tend6 mcuenta_debitos_automaticos_tend6 ctarjeta_visa_debitos_automaticos_tend6 ctarjeta_visa_debitos_automaticos_avg6 mtarjeta_visa_debitos_automaticos_tend6 mpagomiscuentas_tend6 ccomisiones_mantenimiento_tend6 ccomisiones_mantenimiento_avg6 mcomisiones_mantenimiento_tend6 mcomisiones_mantenimiento_avg6 ccomisiones_otras_tend6 ccomisiones_otras_avg6 mcomisiones_otras_tend6 mforex_sell_avg6 ctransferencias_recibidas_tend6 ctransferencias_recibidas_avg6 mtransferencias_recibidas_avg6 ctransferencias_emitidas_avg6 mtransferencias_emitidas_tend6 mtransferencias_emitidas_avg6 tcallcenter_tend6 ccallcenter_trx_tend6 thomebanking_tend6 thomebanking_avg6 chomebanking_trx_tend6 chomebanking_trx_avg6 ccajas_trx_avg6 ccajas_consultas_tend6 ccajas_consultas_avg6 ccajas_extracciones_avg6 ctrx_quarter_tend6 cmobile_app_trx_tend6 cmobile_app_trx_avg6 Master_mfinanciacion_limite_avg6 Master_Fvencimiento_tend6 Master_Fvencimiento_avg6 Master_msaldopesos_tend6 Master_mlimitecompra_tend6 Master_fultimo_cierre_avg6 Master_mpagospesos_tend6 Master_fechaalta_tend6 Master_fechaalta_avg6 Master_cconsumos_avg6 Master_mpagominimo_avg6 Visa_Fvencimiento_avg6 Visa_msaldototal_tend6 Visa_mconsumospesos_avg6 Visa_mconsumosdolares_avg6 Visa_fultimo_cierre_tend6 Visa_fultimo_cierre_avg6 Visa_mpagado_tend6 Visa_mpagado_avg6 Visa_mpagospesos_tend6 Visa_mpagospesos_avg6 Visa_fechaalta_tend6 Visa_fechaalta_avg6 Visa_cconsumos_tend6 Visa_cconsumos_avg6 Visa_mpagominimo_avg6 ctrx_quarter_normalizado_tend6 mpayroll_sobre_edad_tend6 mv_status01_avg6 mv_status06_tend6 mv_status07_tend6 mv_mfinanciacion_limite_tend6 mv_Fvencimiento_avg6 mv_Finiciomora_avg6 mv_msaldototal_tend6 mv_mlimitecompra_avg6 mv_fultimo_cierre_tend6 mv_fultimo_cierre_avg6 mv_mpagospesos_tend6 mv_fechaalta_tend6 mv_cconsumos_tend6 mv_cconsumos_avg6 mv_mpagominimo_avg6 mvr_Visa_mlimitecompra_tend6 mvr_msaldototal_tend6 mvr_msaldopesos2_tend6 mvr_msaldopesos2_avg6 mvr_msaldodolares_avg6 mvr_mconsumosdolares_avg6 mvr_mpagominimo_avg6 sb_call_hombk_tend6 sb_call_hombk_avg6 cliente_edad_min3 cliente_edad_avg3 mrentabilidad_tend3 mrentabilidad_min3 mrentabilidad_avg3 mrentabilidad_annual_tend3 mrentabilidad_annual_min3 mrentabilidad_annual_avg3 mcomisiones_tend3 mcomisiones_min3 mactivos_margen_tend3 mactivos_margen_min3 mactivos_margen_avg3 mpasivos_margen_min3 mpasivos_margen_avg3 cproductos_tend3 cproductos_avg3 mcuenta_corriente_tend3 mcuenta_corriente_min3 mcuenta_corriente_avg3 ccaja_ahorro_avg3 mcaja_ahorro_tend3 mcaja_ahorro_avg3 mcuentas_saldo_tend3 mcuentas_saldo_min3 ctarjeta_visa_trx_min3 mtarjeta_visa_consumo_tend3 mtarjeta_visa_consumo_min3 mtarjeta_visa_consumo_avg3 mtarjeta_master_consumo_min3 mprestamos_personales_tend3 mprestamos_personales_min3 cpayroll_trx_min3 cpayroll_trx_avg3 mtarjeta_visa_debitos_automaticos_tend3 ccomisiones_mantenimiento_tend3 ccomisiones_otras_min3 ccomisiones_otras_avg3 mcomisiones_otras_avg3 ctransferencias_recibidas_avg3 mtransferencias_recibidas_min3 mtransferencias_recibidas_avg3 mtransferencias_emitidas_avg3 ccallcenter_trx_avg3 chomebanking_trx_tend3 chomebanking_trx_min3 chomebanking_trx_avg3 ccajas_consultas_tend3 ctrx_quarter_tend3 cmobile_app_trx_avg3 Master_Fvencimiento_min3 Master_fultimo_cierre_min3 Visa_mpagospesos_min3 Visa_fechaalta_tend3 Visa_fechaalta_min3 Visa_cconsumos_min3 Visa_mpagominimo_tend3 Visa_mpagominimo_min3 ctrx_quarter_normalizado_min3 mpayroll_sobre_edad_min3 mv_Finiciomora_min3 mv_Finiciomora_avg3 mv_msaldopesos_avg3 mv_fultimo_cierre_min3 mv_fechaalta_tend3 mv_mpagominimo_min3 mvr_mconsumospesos_avg3 sb_call_hombk_tend3 mrentabilidad_lag1 mrentabilidad_annual_lag1 mcomisiones_lag1 mactivos_margen_lag1 mpasivos_margen_lag1 mcaja_ahorro_lag1 mcuentas_saldo_lag1 ctarjeta_visa_trx_lag1 mpayroll_lag1 cmobile_app_trx_lag1 Master_Fvencimiento_lag1 Visa_mpagominimo_lag1 mv_Fvencimiento_lag1 mv_Finiciomora_lag1 mrentabilidad_delta1 mrentabilidad_annual_delta1 mactivos_margen_delta1 cproductos_delta1 mcuenta_corriente_delta1 ccaja_ahorro_delta1 mcaja_ahorro_delta1 mcaja_ahorro_dolares_delta1 mdescubierto_preacordado_delta1 mcuentas_saldo_delta1 mtarjeta_visa_consumo_delta1 mprestamos_personales_delta1 mpayroll_delta1 mtransferencias_emitidas_delta1 chomebanking_trx_delta1 ctrx_quarter_delta1 ctrx_quarter_normalizado_delta1 mpayroll_sobre_edad_delta1 mv_Finiciomora_delta1 mv_mpagominimo_delta1 cliente_edad_lag2 cliente_antiguedad_lag2 mrentabilidad_lag2 mrentabilidad_annual_lag2 mcomisiones_lag2 mactivos_margen_lag2 mcuenta_corriente_lag2 mcaja_ahorro_lag2 mcaja_ahorro_dolares_lag2 mcuentas_saldo_lag2 mprestamos_personales_lag2 ccaja_seguridad_lag2 mtransferencias_emitidas_lag2 chomebanking_trx_lag2 Master_mfinanciacion_limite_lag2 Master_Fvencimiento_lag2 Master_fechaalta_lag2 Visa_mfinanciacion_limite_lag2 Visa_Fvencimiento_lag2 Visa_mconsumospesos_lag2 Visa_mpagospesos_lag2 Visa_fechaalta_lag2 Visa_cconsumos_lag2 mv_Fvencimiento_lag2 mvr_msaldototal_lag2 mvr_msaldopesos2_lag2 mrentabilidad_delta2 mrentabilidad_annual_delta2 mactivos_margen_delta2 mpasivos_margen_delta2 cproductos_delta2 mcuenta_corriente_delta2 mcaja_ahorro_delta2 mcaja_ahorro_dolares_delta2 mdescubierto_preacordado_delta2 mcuentas_saldo_delta2 mtarjeta_visa_consumo_delta2 cprestamos_personales_delta2 mprestamos_personales_delta2 mcomisiones_mantenimiento_delta2 chomebanking_trx_delta2 ctrx_quarter_delta2 cmobile_app_trx_delta2 Visa_mconsumospesos_delta2 Visa_fechaalta_delta2 Visa_cconsumos_delta2 mpayroll_sobre_edad_delta2 mv_status06_delta2 mv_mpagominimo_delta2 sb_call_hombk_delta2 rf_001_063 rf_001_067 rf_001_085 rf_002_119 rf_003_087 rf_004_085 rf_004_086 rf_006_083 rf_007_088 rf_008_077 rf_009_097 rf_014_063 rf_015_085 rf_017_091 rf_018_104 rf_019_120 rf_022_103 rf_024_083 rf_024_060 rf_027_089 rf_028_107 rf_029_089 rf_030_071 rf_032_068 rf_034_059 rf_036_075 rf_037_111 rf_039_065 rf_040_112 rf_040_063 rf_041_119 rf_042_098 rf_043_117 rf_046_111 rf_047_085 rf_047_093 rf_049_071
feature_infos=[4572300:61067350] [202001:202011] [18:96] [1:371] [-104844.87:524049.01000000001] [-691722.33999999997:4785218.1500000004] [-139015.23999999999:248978.29000000001] [-61985.120000000003:433960.98999999999] [3:18] [-3948329.9399999999:17160905.27] [2:10] [-17888.560000000001:21212170.289999999] [0:1.1699999999999999] [-4004179.6000000001:102836987.34] [0:1274326.3600000001] [0:261] [0:2235062.4399999999] [0:369] [0:5215367.3899999997] [-555744.91000000003:8656365.8800000008] [0:45860116.740000002] [0:7] [0:43] [-76099.139999999999:23670157.68] [0:39325004.759999998] [0:53787215.479999997] [-15716.65:9038] [0:210767804.31999999] [0:409] [0:1] [0:10817] [0:3356] [0:94280432.719999999] [-2914603:6607] [0:4891] [1:7481] [0:94280432.719999999] [-2914603:5694] [0:145] [-1067805.22:4815952.4699999997] [-27481.52:1443509.8899999999] [-1826082.2:159883.47] [1:12426] [1:11] [0:3356] [-2306.03454545455:487500] [0:9] [0:10] [-2914603:4931] [0:145] [-1313942.95:6148079.8300000001] [0:4954] [0:4033867.5] [-148.64436340573999:4.90648005698006] [0:4.8404166666666697] [13.5:96] [-58743.624857142902:76887.221000000005] [-62459:509834.55499999999] [-585141.47127907001:358920.234] [-601639.84400000004:5920157.54] [-37874.205999999998:58361.805] [-22395.401999999998:130606.338] [-45391.936999999998:34786.5143243243] [-125411.448333333:255823.64000000001] [-54292.943142857002:60491.737000000001] [-35603.205000000002:465213.22166666703] [-3:3] [3:18] [-2257398.3291428601:3756546.42857143] [-1223574.7450000001:24197088.059999999] [-2:2] [2:10] [-2863787.0902857101:4362867.38857143] [-4896.0066666666698:11956004.689999999] [-6715222.2482857201:7809744.4225714402] [-100774.131666667:41360157.479999997] [-1.1699999999999999:1.1699999999999999] [-45963648.745714299:13942348.1677143] [-1704808.5883333299:98546515.890000001] [0:301.16666666666703] [-69:60] [-689538.22100000002:330887.96399999998] [-8.7714285714285705:48.600000000000001] [-323217.44057142799:717316.72657142906] [0:23332951.586666699] [-5826600:8055882.5657142904] [-3267642.8571428601:3458600.09771429] [-12683.190000000001:9499958.5199999996] [-14.4857142857143:14.199999999999999] [-852428.57142857194:5617857.8228571499] [-11:8] [0:49.1666666666667] [-76935.713142857101:120214.69] [-1280824.90828571:9548980.3588571399] [-15.5:18.742857142857101] [0:31] [-8203.0300000000007:2978.1599999999999] [-4815.2033333333302:4819.21] [-53:32] [0:230.19999999999999] [-37874.205999999998:58362.529000000002] [0:45847.048333333303] [-166.142857142857:173.228571428571] [0:1142.1666666666699] [0:122136955.283333] [0:221.333333333333] [-5685418.1797142904:7199743.0291428501] [0:42786719.418333299] [-1:1] [-35:33.1142857142857] [-1:1] [0:1] [-1433.6756756756799:1926.5135135135099] [0:6670.6000000000004] [0:1] [-5.2571428571428598:10] [0:32.6666666666667] [0:28] [-374.28571428571399:435.67441860465101] [-638:380] [0:1661] [0:18176434.461666699] [-711414.96511627897:1855] [-2914619:6530.5] [-3758998.2999999998:654484.97499999998] [-1380934.70257143:461205.17485714599] [0:4814.8333333333303] [-690818.11999999895:360617.37] [-1504.7714285714301:264.17142857142898] [16:7404.8333333333303] [0:95.5] [0:1879493.8500000001] [-2914847.8333333302:5617.8333333333303] [-1041278.09:646563.35028571403] [-3976.8299999999999:1708097.575] [0:21658.334999999999] [-1303.8:1400.5999999999999] [0:4877.8333333333303] [-154135.41:289250.08928571403] [0:1283989.6416666701] [-565861.83000000101:676071.38] [-1926434.8183333301:15934.43] [-3192:1589.8] [16:12349.666666666701] [-71:54] [0:174.5] [0:933529.34999999998] [-374.28571428571399:435.67441860465101] [-74383.399999999994:76454.053241131798] [0:9] [-10:9] [-10:9] [-12747775.664000001:26787071.9348571] [-2914847.8333333302:4854.5] [0:85] [-1690557.6540000001:1264311.28428571] [0:32844614.399999999] [-1303.8:1400.5999999999999] [0:4877.8333333333303] [-386301.38657142798:328505.90399999998] [-3192:3614] [-30:54] [0:228.833333333333] [0:1803241.05] [-0.5:0.5] [-35.391515096604699:11.188392182177999] [-298.06455563148:215.000044750147] [-562.64937478839499:349.55132989830702] [-1.0675216642925001:3.3388975873368198] [0:0.074976216901855103] [0:2.36133333333333] [-20:30.067441860465099] [0:156.58000000000001] [0:96] [13.5:96] [-382299.39000000001:270306.78000000003] [-167531.17000000001:337955.98999999999] [-81537.419999999998:441511.31] [-632093.54000000295:346192.84999999899] [-691722.33999999997:4785218.1500000004] [-651799.65000000002:5401428.5366666699] [-142588.45999999999:145163.69] [-44857.709999999999:119795.5] [-326773.29499999998:189782.16] [-164920.16:231504.5] [-122120.77666666701:237337.006666667] [-64648.57:277794.04999999999] [-58473.303333333301:397890.03000000003] [-3.5:3] [3:18] [-6007271.7350000003:7082010.8749999898] [-3948329.9399999999:12738238.109999999] [-2444843.0166666699:21762559.443333302] [2:10] [-5346404.8699999899:7372328.5499999998] [-9632.7333333333299:19863718.596666701] [-36960572.119999997:85253302.499999896] [-4004179.6000000001:101961292.17] [0:207] [-1242396.4099999999:1429310.46] [0:1365631.49] [0:1810858.0600000001] [0:598793.69999999995] [-451339.79499999998:1482871.9199999999] [0:5215367.3899999997] [0:27] [0:29.3333333333333] [-80539.054999999993:123214.78] [-41:41] [0:232] [0:233.333333333333] [-15998.02:196066.79333333299] [0:1150.6666666666699] [0:111072482.62] [0:143989438.98333299] [0:41367351.206666701] [0:185.333333333333] [-1678:4587] [0:9967] [0:10392] [-14:12] [-690.5:605] [0:1961.6666666666699] [-2914665:6546] [-1:4830] [-2546704.2999999998:0] [-3626.5:2872] [1:12365] [0:160] [-631780.10999999999:684724.950000001] [0:1593598.5] [0:3039] [-2483.364:82659.313703703694] [-1:87] [1:114] [-847480.07333333301:5569996.4833333297] [-1:4893] [-3626.5:3614] [0:2576796.2999999998] [-0.0278020470613063:57.730778632207603] [-52.494949494949502:201.55000000000001] [-142674.31:537054.43999999994] [-646491.56000000006:5442028.0599999996] [-27048.73:262383.96000000002] [-129464.95:242498.81] [-64648.57:459342.08000000002] [-10585.059999999999:21689558.870000001] [-3571814.6400000001:104925298.90000001] [0:222] [-74500.919999999998:33462000] [0:2132] [-2914634:6576] [0:1873673.1000000001] [-2914848:4900] [-1:118] [-244327.51000000001:379991.21000000002] [-656809.90999999898:387590.40000000002] [-157153.45000000001:275944.17999999999] [-5:4] [-15058420.529999999:8767596.5] [-2:4] [-8229788.4100000001:13974172.01] [-22598209.109999999:23961256.09] [-1.1699999999999999:1.1699999999999999] [-41651425.259999998:85253302.5] [-2299922.04:1429310.46] [-902054.76000000001:1170000] [-30022492.5:23185298.34] [-32058000:76761265.049999997] [-946:2429] [-1435:865] [-1435:865] [-652662.88043478294:483027.04875000002] [-87:58] [-2348821.7999999998:2669191.2000000002] [0:96] [1:369] [-167531.17000000001:690534.31000000006] [-617185.05000000005:5977039.4000000004] [-25964.619999999999:264272.34000000003] [-164920.16:587094.51000000001] [-1513717.25:24752781.579999998] [-8922.8199999999997:16689426.630000001] [-277516.03999999998:41887096.460000001] [-3170986.0600000001:102836987.34] [0:5215367.3899999997] [0:7] [0:74011096.109999999] [0:10817] [0:78686026.700000003] [-2914665:6546] [1:7420] [0:78249709.810000002] [-2914879:5633] [-34136.440000000002:2501804.0899999999] [-1556995.95:196167.07000000001] [1:12365] [0:243] [-2914879:4872] [-148.53918265419401:4.4137258626147498] [-872.67040358743702:2083.2441016333901] [-764598.78000000003:378937.44] [-1191821.25:692385.69999999995] [-653546.58999999997:228567.39999999999] [-286543.09000000003:228339.62] [-7:5] [-12014543.470000001:14164021.75] [-10692809.74:14744657.1] [-22181735.07:31283006.109999999] [-1.1699999999999999:1.1699999999999999] [-73921144.239999995:61218602.93] [-2484792.8199999998:1419596.6599999999] [-36:103] [-902679.58999999997:2965743.8399999999] [-18336.09:14829.040000000001] [-3356:9174] [-1381:1210] [-2131:2576] [-2333746.77:1424476.3899999999] [-7253:5744] [-154:189] [-652662.88043478294:481045.08255319198] [-10:10] [-2348821.7999999998:2669191.2000000002] [-104.989898989899:403.10000000000002] [0:1] [0:1] [0:1] [0:1] [0:1] [0:1] [0:1] [0:1] [0:1] [0:1] [0:1] [0:1] [0:1] [0:1] [0:1] [0:1] [0:1] [0:1] [0:1] [0:1] [0:1] [0:1] [0:1] [0:1] [0:1] [0:1] [0:1] [0:1] [0:1] [0:1] [0:1] [0:1] [0:1] [0:1] [0:1] [0:1] [0:1]
tree_sizes=3476 3522 3517 3513 3538 3540 3574 3535 3562 3545 3531 3554 3595 3544 3541 3564 3581 3557 3565 3580 3577 3592 3582 3574 3577 3592 3582 3606 3574 3593 3576 3580 3595 3591 3576 3569 3578 3575 3582 3596 3571 3612 3605 3609 3593 3619 3567 3589 3631 3617 3602 3564 3624 3602 3581 3586 3598 3611 3592 3602 3613 3637 3611 3608 3590 3611 3594 3588 3583 3592 3602 3603 3628 3600 3579 3641 3613 3616 3598 3594 3622 3618 3586 3582 3602 3591 3611 3599 3597 3576 3599 3597 3615 3605 3593 3609 3623 3588 3588 3594 3616 3617 3605 3585 3583 3593 3563 3602 3599 3606 3604 3615 3607 3577 3622 3592 3597 3640 3599 3597 3609 3614 3598 3585 3617 3601 3582 3577 3584 3625 3601 3572 3589 3612 3614 3591 3602 3595 3574 3579 3609 3593 3573 3626 3599 3601 3594 3596 3599 3590 3575 3653 3584 3593 3572 3573 3571 3585 3603 3582 3551 3618 3578 3595 3582 3574 3594 3600 3588 3602 3589 3582 3593 3611 3624 3594 3574 3566 3590 3610 3565 3565 3604 3596 3617 3570 3606 3552 3584 3577 3581 3578 3593 3570 3607 3607 3605 3582 3577 3618 3575 3589 3571 3605 3593 3606 3596 3609 3579 3598 3582 3599 3571 3579 3580 3560 3623 3603 3608 3566 3603 3583 3595 3612 3575 3584

Tree=0
num_leaves=31
num_cat=0
split_feature=76 11 44 197 43 149 17 349 83 197 151 44 184 187 188 100 187 83 204 66 43 66 326 128 321 188 226 198 257 208
split_gain=49328.6 32158.4 20047.6 7342.85 4948.2 4767.35 3855.21 3281.4 2974.08 2880.44 2234.43 1811.75 1664.21 1643.51 1589.05 1267.94 1059.43 1008.51 739.213 724.827 669.722 630.293 571.546 562.982 436.015 400.85 381.43 342.783 309.362 275.224
threshold=-0.15042857142857149 1.0000000180025095e-35 19.500000000000004 -880.18499999999983 6.0000000000000009 1.4500000000000002 1.0000000180025095e-35 1.0000000180025095e-35 1304.3759999999952 1.0000000180025095e-35 1.0142857142857153 34.500000000000007 1.0000000180025095e-35 60.350000000000009 -0.74999999999999989 138.94033940917652 60.350000000000009 -6656.4812857142788 24875.755000000005 -0.12857142857142848 3.5000000000000004 -0.24285714285714297 1.0000000180025095e-35 30.506756756756754 1.0000000180025095e-35 -1.0000000180025095e-35 30.250000000000004 1.5000000000000002 27.635000000000002 1.0000000180025095e-35
decision_type=8 2 2 8 2 8 2 2 8 8 10 2 10 8 10 10 8 8 8 10 2 8 2 8 8 10 10 10 8 10
left_child=1 4 3 5 -1 7 12 -2 9 -3 11 16 -7 17 -12 26 25 -5 19 -19 -17 -15 -13 -21 27 -4 -9 -25 -14 -27
right_child=2 8 10 13 -6 6 -8 15 -10 -11 14 22 28 21 -16 20 -18 18 -20 23 -22 -23 -24 24 -26 29 -28 -29 -30 -31
leaf_value=-2.8232761408046101 -4.9417401959883787 -4.0358372970504455 -4.7603892538800565 -4.5823182870928294 -3.7786001336019135 -3.9125075715072724 -4.88004284839056 -4.9138318527795848 -5.0205258601859635 -4.8404000736274639 -4.5433153972940676 -5.0821013472407106 -4.5611709785437737 -4.7597627539702811 -4.9781184415738817 -4.717758539359699 -5.0513672597251826 -4.6940408915981848 -5.0590859711988143 -4.9922406377454474 -4.373255831113112 -5.0285664239280337 -5.0112901156235363 -4.8455546676830643 -5.0614462100941777 -4.984713275505583 -4.7173047045449419 -5.0140305102291221 -4.2978770379223699 -4.8150265268260313
leaf_weight=11.738932123873385 99.003343038260937 7.6441015619784576 7.988995387684553 7.6252891747280955 7.8761210651136926 8.5470963702537137 12.566677190363405 11.118123082909731 15.532764154952021 7.832225454505533 10.917457594070582 7953.8538218084723 7.4873316311277449 7.7946006790734828 22.098288619425148 7.4685192424803999 504.84305359702557 13.143590533174573 31.686337208375335 62.557470843661577 14.297417230438439 280.1980221462436 100.34529353072867 93.91772674722597 10.754416842944918 141.26851476728916 37.693760835565627 11.820452339015899 8.0517033855430764 8.8292821818031353
leaf_count=1872 15788 1219 1274 1216 1256 1363 2004 1773 2477 1249 1741 1268396 1194 1243 3524 1191 80507 2096 5053 9976 2280 44683 16002 14977 1715 22528 6011 1885 1284 1408
internal_value=-5.05919 -4.14125 -5.06409 -4.91518 -3.20687 -4.76632 -4.4614 -4.83223 -4.73229 -4.44301 -5.07645 -5.07736 -4.24297 -4.97427 -4.83434 -4.67862 -5.03051 -4.91578 -4.92713 -4.90538 -4.49146 -5.02129 -5.08122 -4.92089 -4.88258 -4.9639 -4.76207 -4.86439 -4.42474 -4.97473
internal_weight=0 50.6241 9475.88 725.732 19.6151 206.234 36.6528 169.581 31.0091 15.4763 8750.14 8717.13 24.0861 519.498 33.0157 70.5778 662.93 231.505 223.88 192.194 21.7659 287.993 8054.2 179.05 116.493 158.087 48.8119 105.738 15.539 150.098
internal_count=1519185 8073 1511112 115732 3128 32888 5845 27043 4945 2468 1395380 1390115 3841 82844 5265 11255 105717 36918 35702 30649 3471 45926 1284398 28553 18577 25210 7784 16862 2478 23936
is_linear=0
shrinkage=1


Tree=1
num_leaves=31
num_cat=0
split_feature=31 197 47 349 322 18 195 326 241 94 43 66 200 18 83 206 43 51 171 22 322 22 339 83 296 66 18 94 76 94
split_gain=22986.5 7318.37 3955.21 2814.22 2693.36 2670.94 1170.47 1029.09 1000.66 847.848 818.54 638.459 576.875 718.598 779.408 579.758 590.046 500.638 499.152 435.144 418.668 401.085 517.675 381.922 327.852 313.99 309.233 271.091 263.412 243.73
threshold=27.500000000000004 -1.0000000180025095e-35 1.0000000180025095e-35 1.0000000180025095e-35 1.5000000000000002 11013.885000000002 5667.5666666666666 1.0000000180025095e-35 -1150.5399999999997 0.12857142857142853 2.5000000000000004 -0.107142857142857 2386.6900000000005 39066.665000000008 -4102.6339999999991 1.0000000180025095e-35 4.5000000000000009 1.5000000000000002 1.0000000180025095e-35 1.0000000180025095e-35 6.5000000000000009 1.0000000180025095e-35 1.0000000180025095e-35 -723.34257142855984 943.50000000000011 -0.24285714285714297 21836.645000000004 0.092857142857142874 -0.15042857142857149 1.0000000180025095e-35
decision_type=2 8 2 2 10 2 8 2 10 10 2 10 8 2 8 10 2 10 10 2 8 2 2 10 10 8 2 10 10 10
left_child=1 2 3 27 7 8 12 21 -4 11 -6 -5 13 14 -3 16 -16 -7 -18 -12 23 22 28 -10 -11 -8 29 -1 -2 -9
right_child=4 6 5 9 10 17 25 26 20 24 19 -13 -14 -15 15 -17 18 -19 -20 -21 -22 -23 -24 -25 -26 -27 -28 -29 -30 -31
leaf_value=0.066198800266524041 0.14781989830916215 0.37579002501111308 0.55582616146229802 0.37805312553573583 0.35499880651471633 0.0877267190814362 0.17322442212968359 0.065794508908469287 0.40793638202055205 0.26743978627339132 0.19277798781425975 0.16839716885378586 0.015959950105594874 -0.0011585073857574922 0.067798896233505573 -0.0086309709953524757 0.15219662040535631 0.28215639833303663 0.3694426018234509 0.005587968681610188 0.45985931140739561 -0.027392779838974368 -0.019741859873224715 0.26673717400166358 0.42858254107388571 0.0093331681307218493 -0.011675772546469078 0.1442639883487653 0.0061017730316100917 0.18990761432342934
leaf_weight=212.39001814462245 11.592226598411797 10.32385392859578 23.641855381894857 14.528123147320001 16.441693597007543 42.271136535331607 10.459413442760704 85.841882527805865 24.194959737360477 21.72187128663063 24.738998631946743 96.533969975542277 78.160751559305936 46.450669169425964 81.628002202603966 29.401736690662801 129.34621651470661 15.823182764463125 9.8982606092467886 19.156071019358933 20.744202954228967 4508.6357811060734 2866.2542513748631 53.432860685512424 22.188917611725628 358.26294306339696 39.25350102968514 47.28217649878934 695.66998975444585 16.380483140237629
leaf_count=30272 878 1210 1269 1519 1013 4138 1354 12913 980 2041 2498 11131 11947 6856 11593 4367 17714 601 1354 2407 1143 734361 466723 3666 2103 55795 5860 6654 112396 2429
internal_value=0 0.112537 0.189867 0.139755 -0.018725 0.305237 0.0515328 -0.0201651 0.383585 0.239187 0.177553 0.195822 0.0874762 0.105681 0.124725 0.114368 0.130741 0.140684 0.16764 0.111087 0.34219 -0.0215451 -0.0141672 0.310746 0.348868 0.0139822 0.05867 0.0804132 0.00842457 0.0856828
internal_weight=0 1348.69 594.753 414.645 8283.96 180.108 753.932 8223.63 122.014 154.973 60.3368 111.062 385.209 307.049 260.598 250.274 220.872 58.0943 139.244 43.8951 98.372 8082.15 3573.52 77.6278 43.9108 368.722 141.476 259.672 707.262 102.222
internal_count=1519185 177707 65517 53720 1341478 11797 112190 1335560 7058 16794 5918 12650 55041 43094 36238 35028 30661 4739 19068 4905 5789 1314358 579997 4646 4144 57149 21202 36926 113274 15342
is_linear=0
shrinkage=0.0294851


Tree=2
num_leaves=31
num_cat=0
split_feature=195 16 16 22 305 204 9 47 7 204 266 309 94 244 94 154 319 16 58 1 136 305 1 10 9 22 7 111 352 111
split_gain=16126.2 8025.65 2564.67 2694.93 2220.14 1925.57 1419.73 943.059 939.202 884.051 737.873 613.16 583.184 533.444 419.397 377.242 358.671 322.347 310.259 306.485 292.25 278.726 221.886 220.724 264.972 209.774 263.288 209.206 210.594 208.739
threshold=872.27333333333365 821.86500000000012 1929.2250000000001 1.0000000180025095e-35 -1.4999999999999998 24875.755000000005 -1.0000000180025095e-35 1.0000000180025095e-35 153.07500000000002 24875.755000000005 -3778.8049999999994 -1.0000000180025095e-35 1.0000000180025095e-35 397.42500000000001 0.12857142857142853 22.583333333333353 60.500000000000007 4136.3200000000006 -1464.9684999999947 202004.50000000003 0.20810810810810804 -1.0000000180025095e-35 202003.50000000003 3.5000000000000004 -80.884999999999977 1.0000000180025095e-35 193.44500000000002 1.0000000180025095e-35 1.0000000180025095e-35 0.18333333333333354
decision_type=8 2 2 2 8 8 2 2 2 8 10 8 10 10 10 10 10 2 8 2 8 8 2 2 2 2 2 8 2 10
left_child=1 5 3 4 -2 6 7 12 9 10 -6 -7 16 18 21 17 -1 -3 -9 -8 -20 -12 -16 -5 -25 26 -4 -14 -29 -21
right_child=2 15 25 23 8 11 19 13 -10 -11 14 -13 27 -15 22 -17 -18 -19 20 29 -22 -23 -24 24 -26 -27 -28 28 -30 -31
leaf_value=0.077378151882629781 0.33011636139319928 0.055779956736331085 0.00074278272848453798 -0.023447320624811214 0.35340510427454958 0.18056348465316899 0.048251418039338141 0.38765074407873468 0.015237102683425379 0.0082560558092831769 0.21951578501139221 0.02959189399532397 0.1898364650788629 0.19215689248568707 0.083659661331729113 0.20984137351137228 0.17046291948749029 0.0009148150488652566 0.34285274467671956 0.083679041602152254 0.23452317455904192 0.076572055367298039 0.24609308151737425 0.18421861638291639 0.0011585201145949027 -0.028353778782906444 -0.021948230686308204 0.2205331933945463 0.35584053723562897 0.17422932064412891
leaf_weight=48.635927744209766 24.872598397079855 116.20118137635291 541.8673192714341 776.91588326916099 10.232648655306546 29.76517581846565 54.020366868935525 26.004832565784454 395.81445824261755 107.94073145836592 12.530400296673179 109.15719942841679 33.402455062605441 64.015332267154008 10.654340222477911 8.4855077932588738 138.37154222093523 468.22691431827843 33.429065633565187 37.688652297947556 61.446343960240483 221.36497266544029 23.299505439586937 9.647802235092966 23.910758845508099 3691.7915879087523 2475.5318859135732 19.539280647411942 20.483747728168964 53.621446916367859
leaf_count=5367 1837 16113 86407 127184 1185 693 6800 1095 61980 15851 1455 14179 2455 2214 1291 1090 14914 73330 1131 4296 3575 30501 2808 1450 3907 617656 408763 1825 1576 6257
internal_value=0 0.0952301 -0.0156062 0.0177246 0.0558758 0.160709 0.18394 0.210054 0.0471514 0.0798751 0.107675 0.0619387 0.173901 0.260978 0.0982873 0.0146575 0.146254 0.0118236 0.297424 0.10392 0.272693 0.0842299 0.195123 -0.0202494 0.0537867 -0.0236403 -0.0178734 0.244316 0.289783 0.136854
internal_weight=0 1322.49 8326.37 1617.18 806.71 729.581 590.659 445.329 781.837 386.023 278.082 138.922 260.433 184.896 267.849 592.914 187.007 584.428 120.88 145.33 94.8754 233.895 33.9538 810.474 33.5586 6709.19 3017.4 73.4255 40.023 91.3101
internal_count=1519185 156910 1362275 249449 116908 66377 51505 34152 115071 53091 37240 14872 26137 8015 36055 90533 20281 89443 5801 17353 4706 31956 4099 132541 5357 1112826 495170 5856 3401 10553
is_linear=0
shrinkage=0.0294851


Tree=3
num_leaves=31
num_cat=0
split_feature=44 13 151 336 338 200 326 18 83 108 354 18 313 338 94 31 28 13 206 322 160 11 18 7 7 234 227 270 192 11
split_gain=17433.5 3800.49 2048.46 1113.7 1108.92 1011.48 847.233 765.271 989.747 663.748 520.9 480.702 710.151 415.865 399.976 389.121 335.083 318.71 293.419 287.686 275.431 233.545 221.767 214.945 182.793 175.87 149.184 148.533 144.575 136.213
threshold=27.500000000000004 -1.0000000180025095e-35 0.7857142857142857 1.0000000180025095e-35 1.0000000180025095e-35 1485.0300000000002 1.0000000180025095e-35 34481.015000000007 -3689.0581428571495 0.089368770764119615 1.0000000180025095e-35 21836.645000000004 -7805.0599999999986 1.0000000180025095e-35 1.0000000180025095e-35 54.500000000000007 1.0000000180025095e-35 -9906.5749999999989 0.41666666666666657 5.0000000000000009 30.557142857142853 3716.0400000000004 21836.645000000004 77.695000000000007 43.995000000000012 21.250000000000004 225.50000000000003 -17.499999999999996 -1292.6899999999998 1551.7000000000003
decision_type=2 2 10 2 2 8 2 2 10 10 2 2 8 2 10 2 2 2 8 10 8 2 2 2 2 10 8 10 10 2
left_child=1 5 6 4 18 7 15 8 -1 10 14 12 -5 17 26 21 20 -4 23 -9 -14 -2 24 -3 28 -17 -10 -19 -8 -22
right_child=2 3 13 11 -6 -7 22 19 9 -11 -12 -13 16 -15 -16 25 -18 27 -20 -21 29 -23 -24 -25 -26 -27 -28 -29 -30 -31
leaf_value=0.26858005253781603 0.012173169877949728 0.056270289793265343 0.17377246781575817 0.34242817534808545 0.25628726611182912 0.056464751264760908 0.051977085774105584 0.039680256481655934 0.044011802746660028 0.30929911789560027 0.21411264409198466 0.012998941801526399 0.056685112810988876 0.24103118308490817 0.17338690393121123 -0.024381370599011635 0.24942350327234425 0.12102877202472119 -0.017584327812324455 0.16036432423339358 0.13925837145196837 -0.01519849048673134 -0.013311136879595221 0.012611918414876747 0.036071761610902017 0.11737200048961637 0.11452049512607282 0.015060750754107692 0.15259901781621524 0.078381519785621453
leaf_weight=72.538044273853302 406.43989507155493 160.65533206658438 24.848797721322626 10.689235128462313 17.277457762043923 109.42099706083536 21.646299730986357 62.640477132517844 29.956355197820812 21.8791519459337 73.17582342820242 57.305266884155571 116.32900224905461 18.567032888997346 111.40953920921311 6539.8676601508632 12.036325241904704 16.363104053772986 158.42609127284959 23.657626070547849 91.556065583135933 813.26541419653222 39.589938995428383 251.53672514623031 69.470751520711929 7.6179073634557417 202.03432113863528 38.6885452917777 29.106509165838361 49.084367154631764
leaf_count=2135 64319 19442 903 795 1037 14364 2617 6829 3013 1355 1589 8129 14383 1103 6437 1113271 1244 1510 24407 797 9080 135868 5865 37023 9243 1167 16995 4545 3567 6153
internal_value=0 0.0873991 -0.0183251 0.0480631 0.0235665 0.138879 -0.0199853 0.153977 0.167693 0.151002 0.142688 0.0907973 0.106737 0.115331 0.127468 -0.021368 0.0973716 0.0861212 0.0165201 0.0727644 0.0902496 -0.00607749 0.0472155 0.0296281 0.0671471 -0.0242164 0.105416 0.0465578 0.109683 0.118012
internal_weight=0 1631.61 8025.47 924.896 587.896 706.712 7927 597.291 510.993 438.455 416.576 337 279.695 98.4675 343.4 7767.19 269.006 79.9004 570.618 86.2981 256.969 1219.71 159.813 412.192 120.224 6547.49 231.991 55.0516 50.7528 140.64
internal_count=1519185 175207 1343978 121693 81909 53514 1335917 39150 31524 29389 28034 39784 31655 8061 26445 1314625 30860 6958 80872 7626 29616 200187 21292 56465 15427 1114438 20008 6055 6184 15233
is_linear=0
shrinkage=0.0294851


Tree=4
num_leaves=31
num_cat=0
split_feature=44 9 151 16 332 204 83 44 76 338 7 105 227 324 22 205 50 57 92 22 309 68 204 322 16 22 13 204 204 208
split_gain=15321.2 2793.82 1791.54 1187.47 763.765 721.276 701.302 658.02 485.678 466.61 424.519 403.452 370.094 316.867 256.751 253.346 250.317 242.107 238.567 232.109 231.662 217.132 189.377 177.325 174.797 249.246 171.53 197.718 170.616 161.72
threshold=27.500000000000004 -1.0000000180025095e-35 0.7857142857142857 821.86500000000012 1.0000000180025095e-35 33568.780000000006 -1951.3165714285799 54.500000000000007 -0.20057142857142848 1.0000000180025095e-35 153.07500000000002 1.0000000180025095e-35 225.50000000000003 1.0000000180025095e-35 1.0000000180025095e-35 1.0000000180025095e-35 2299.9850000000001 2334.2230000000004 -42.621857142857195 1.0000000180025095e-35 -1.0000000180025095e-35 -589.02114285714242 42895.755000000012 1.0000000180025095e-35 1929.2250000000001 1.0000000180025095e-35 12136.01 13803.655000000001 10490.280000000002 1.0000000180025095e-35
decision_type=2 2 10 2 2 8 10 2 10 2 2 10 8 10 2 10 2 10 8 2 8 10 8 10 2 2 2 8 10 10
left_child=1 3 7 5 9 6 8 10 -1 19 14 22 -8 17 16 28 18 21 -2 -3 -7 -14 -6 29 25 26 27 -9 -4 -23
right_child=2 4 15 -5 11 20 12 24 -10 -11 -12 -13 13 -15 -16 -17 -18 -19 -20 -21 -22 23 -24 -25 -26 -27 -28 -29 -30 -31
leaf_value=0.13409388198838756 0.18049416436710544 0.023961985269884651 0.17322333031358908 0.047959379103149458 0.075429508483136579 0.1330979578859495 0.051605349102451466 0.071939836603028717 0.25583391256421872 0.20018228736339277 -0.013361083269327858 0.1670203892111812 0.16530312884156634 0.22960339161471516 -0.020265400469636225 0.035524643284966947 0.015468224051665586 0.074541533539730892 0.052135880211533744 -0.022033967279695921 0.034088975022044922 0.10056150963323242 -0.008896084519636506 0.20039485053519396 -0.025408483832043357 -0.022808623520944302 -0.005811357741445043 -0.016241248312501455 0.083571758955282113 0.16003210757422714
leaf_weight=49.216825403273106 14.16505314549431 419.59617865364999 39.418199317529798 207.11112399725243 164.99175763921812 27.113813419826329 53.814910818822682 67.584861978888512 67.648813317064196 11.895808395929633 835.46616644831374 39.547620982397348 141.03790848935023 27.864648358430713 100.37095526047051 35.571596805006266 245.51513724261895 65.213464776519686 113.09216397255659 123.43999098148197 84.807342350482941 193.28717984072864 26.932932984549552 21.895953759085387 5712.9116898989305 486.54571965383366 164.35431590210646 32.849984363187104 34.70137751288712 50.045048733241856
leaf_count=515 1814 57304 2152 25496 16310 442 4596 9488 3042 689 140322 4165 6473 1294 16777 4016 37803 3601 15002 19422 9755 15013 3900 705 998228 84892 26510 5081 1893 2485
internal_value=0 0.0777544 -0.0181204 0.110735 0.0362749 0.127362 0.138936 -0.0197902 0.204564 0.0175081 -0.000723087 0.0812663 0.125071 0.132988 0.0215928 0.100207 0.0328634 0.127278 0.0664235 0.0135064 0.0580747 0.135743 0.063596 0.120025 -0.0236502 -0.0102804 0.0127399 0.0430978 0.13125 0.112793
internal_weight=0 1775.46 7882.55 989.057 786.404 781.946 670.025 7772.86 116.866 554.932 1308.61 231.472 553.159 499.344 473.143 109.691 372.772 471.48 127.257 543.036 111.921 406.266 191.925 265.228 6464.25 751.335 264.789 100.435 74.1196 243.332
internal_count=1519185 175207 1343978 73417 101790 47921 37724 1335917 3557 77415 211718 24375 34167 29571 71396 8061 54619 28277 16816 76726 10197 24676 20210 18203 1124199 125971 41079 14569 4045 17498
is_linear=0
shrinkage=0.0294851


Tree=5
num_leaves=31
num_cat=0
split_feature=44 306 150 197 16 44 16 285 23 43 23 16 269 29 136 356 346 8 197 204 356 204 42 310 42 196 80 358 49 242
split_gain=13609.8 2062.59 1599.22 729.5 681.346 648.723 503.969 450.564 418.364 409.421 327.785 402.486 326.885 297.93 258.766 246.669 236.73 201.097 178.198 213.989 177.147 258.652 172.636 156.013 154.413 154.312 144.905 136.386 151.903 131.713
threshold=27.500000000000004 -1.0000000180025095e-35 0.61428571428571466 3994.2400000000002 821.86500000000012 54.500000000000007 3046.6300000000006 57585.535000000011 1.0000000180025095e-35 4.5000000000000009 1.0000000180025095e-35 3046.6300000000006 12.500000000000002 1.0000000180025095e-35 0.61428571428571466 1.0000000180025095e-35 1.0000000180025095e-35 6.5000000000000009 6604.6350000000011 24875.755000000005 1.0000000180025095e-35 29077.815000000006 711.50000000000011 1.0000000180025095e-35 425.50000000000006 224.37249999999804 -0.86847894406033943 1.0000000180025095e-35 23.500000000000004 27017.220000000005
decision_type=2 8 10 8 2 2 2 8 2 2 2 2 8 2 8 2 2 2 8 10 2 10 8 8 8 10 10 2 10 8
left_child=1 4 5 6 12 10 7 8 9 -3 11 18 20 -11 15 -4 27 -14 19 25 21 24 -15 -24 -1 26 -2 28 -7 -25
right_child=2 3 14 -5 -6 16 -8 -9 -10 13 -12 -13 17 22 -16 -17 -18 -19 -20 -21 -22 -23 23 29 -26 -27 -28 -29 -30 -31
leaf_value=0.065766828413002729 0.20021142141158416 0.052932820371603323 0.079689177162172761 0.0074488243427485896 0.049278387854993215 -0.019823634156596544 0.0085552481328749017 0.015548989548762854 -0.014740966562753852 0.085709528978593699 -0.023708108048973029 -0.0048972853664758145 0.20320211955087469 0.077232114825767861 0.010836468319502626 0.18339576258319956 0.032845198413195435 0.11698819532545598 0.0067393687521378563 -0.0025061806557577647 0.15653496416795026 0.04520432612141477 0.21273604911827632 0.16328971536034675 0.11740254448392011 0.034046255761294747 0.08171780741070768 -0.028214207077867579 0.11412800246481158 0.071550548509255255
leaf_weight=57.51992671424523 10.124585745856164 162.24653444997966 64.373463263735175 342.79746172437444 156.62989588826895 2935.7539756684564 137.07676351070404 104.24108823249117 35.330324620939791 169.52277110517025 381.62792379362509 620.05849737254903 56.966687921434641 25.597989669535309 28.901791381649673 28.886665289755911 64.107523102778941 40.062310909386724 111.74001906160265 45.504316347185522 61.336664424743503 58.602841814048588 35.470957056619227 45.455177793744951 403.85198578517884 60.099204531870782 78.826344857458025 3306.2096646889113 7.3784809913486233 19.418112791609019
leaf_count=4124 1229 13704 4627 48972 18561 515210 18288 11845 5028 12748 66431 102202 2640 2290 3135 867 9439 2854 17748 6559 939 5539 2882 3603 19742 7737 9724 597952 1118 1448
internal_value=0 0.0699255 -0.0179144 0.0429638 0.104707 -0.0196108 0.0595421 0.0712436 0.0830188 0.0905648 -0.000711431 0.00876247 0.117506 0.111229 0.0879223 0.111812 -0.0235262 0.167605 0.0364151 0.053459 0.109144 0.103554 0.14558 0.163016 0.110965 0.0705449 0.095205 -0.0241045 -0.0194878 0.13583
internal_weight=0 1912.13 7743.59 1077.16 834.97 7621.43 734.36 597.283 493.042 457.712 1307.98 926.353 678.34 295.465 122.162 93.2601 6313.45 97.029 306.294 194.554 581.311 519.975 125.942 100.344 461.372 149.05 88.9509 6249.34 2943.13 64.8733
internal_count=1519185 175207 1343978 120808 54399 1335349 71836 53548 41703 36675 211630 145199 35838 22971 8629 5494 1123719 5494 42997 25249 30344 29405 10223 7933 23866 18690 10953 1114280 516328 5051
is_linear=0
shrinkage=0.0294851


Tree=6
num_leaves=31
num_cat=0
split_feature=31 11 309 77 329 11 305 83 200 305 200 286 203 240 240 196 291 249 231 94 76 160 184 13 305 94 94 249 226 269
split_gain=12112.1 1897.98 1268.08 825.353 752.098 498.345 394.73 333.512 328.245 249.631 243.828 241.517 250.029 240.161 225.952 215.75 212.997 208.444 192.605 180.079 172.769 164.403 159.391 171.346 156.431 129.429 129.18 127.576 106.792 102.64
threshold=27.500000000000004 1551.7000000000003 -1.0000000180025095e-35 -1.0000000180025095e-35 1.0000000180025095e-35 3716.0400000000004 -1.0000000180025095e-35 -5067.5007142857094 4976.3450000000012 -1.0000000180025095e-35 1485.0300000000002 1.0000000180025095e-35 1.0000000180025095e-35 0.0060260592712983009 0.0060260592712983009 800.31250000000171 242.50000000000003 1.0000000180025095e-35 10.500000000000002 0.042857142857142858 -0.20057142857142848 30.517441860465102 -305.60499999999996 34616.60500000001 -1.4999999999999998 0.12857142857142853 0.12857142857142853 1.0000000180025095e-35 30.250000000000004 9.5000000000000018
decision_type=2 2 8 8 2 2 8 8 8 8 8 8 10 10 10 10 8 8 10 10 10 10 10 2 8 10 10 10 8 8
left_child=1 3 -2 7 5 8 15 20 9 -4 14 12 13 16 21 -3 -9 22 29 27 -1 -5 -8 26 -7 -26 -24 -11 -20 -18
right_child=2 6 4 10 -6 24 17 11 -10 19 -12 -13 -14 -15 -16 -17 18 -19 28 -21 -22 -23 23 -25 25 -27 -28 -29 -30 -31
leaf_value=0.10512298099118147 0.1229746050590106 0.19447744566410086 0.088392738231232962 0.036898501337534549 -0.024917519305718561 0.064442011624199422 -0.0071740093264195766 0.04895991685777059 -0.0061701312274768999 0.02600571737359331 0.011614559793269056 0.022068412609062237 0.020353818090023682 0.16530678171339666 0.14989985385140095 0.04981539895132793 0.10660158820588012 -0.017525609914574081 0.039015267341042312 0.079894649267261433 0.17634710063513853 0.077028788143282817 0.038542036560796036 0.00013229643369128469 -0.018245607976951142 0.021368877813341711 0.10263778077308139 -0.015248639132647304 0.088974706092614861 0.14964660465461538
leaf_weight=54.335220376029611 55.276334900874645 16.274332283996046 57.439868924673647 187.52232891367748 5248.0291420235299 21.237551022786647 108.46876683551818 79.408183061052114 386.49590974720195 251.74834195710719 108.35183289088309 41.711626285687089 37.248243255540729 44.178778444416821 23.707424723077565 19.950178170576692 334.64823532337323 135.85018186597154 46.920696469955146 42.219365795142949 65.062484247144312 168.49590175226331 223.14468918647617 95.83509535016492 1366.7217923775315 75.671469588764012 31.152765964623541 87.930181299336255 179.48937320942059 56.254093628842384
leaf_count=466 1745 1208 5304 14783 961907 1943 14667 6338 64934 34423 14135 2991 3176 2246 1393 1933 15417 21270 3595 5260 2598 12620 26007 13141 238638 12313 3124 15011 13962 2637
internal_value=0 0.0629097 -0.0177339 0.0817317 -0.0187658 -0.00466456 0.0203121 0.0978943 0.0136489 0.0310842 0.0506283 0.0911893 0.0948945 0.098642 0.0617606 0.114807 0.0944148 0.0145539 0.100262 0.0224646 0.143935 0.0558913 0.0240567 0.0337317 -0.0149977 -0.0161673 0.0463941 0.0153265 0.0786212 0.112796
internal_weight=0 2058.01 7592.77 1427.33 7537.49 2289.46 630.676 939.257 825.834 439.338 488.077 819.859 778.148 740.899 379.726 36.2245 696.721 594.451 617.312 381.898 119.398 356.018 458.601 350.133 1463.63 1442.39 254.297 339.679 226.41 390.902
internal_count=1519185 177707 1341478 96357 1339733 377826 81350 53426 124932 59998 42931 50362 47371 44195 28796 3141 41949 78209 35611 54694 3064 27403 56939 42272 252894 250951 29131 49434 17557 18054
is_linear=0
shrinkage=0.0294851


Tree=7
num_leaves=31
num_cat=0
split_feature=44 11 150 326 77 305 22 16 22 16 16 177 269 11 233 77 271 184 35 285 108 87 203 285 155 157 44 229 319 219
split_gain=10994.5 1510.69 1323.72 694.506 480.843 446.378 404.864 490.521 337.079 285.806 238.398 228.063 225.52 208.309 197.465 191.601 175.438 156.586 160.506 156.456 147.836 147.718 144.39 176.809 129.79 128.91 123.417 111.595 108.22 103.634
threshold=27.500000000000004 196.44000000000003 0.61428571428571466 1.0000000180025095e-35 -1.0000000180025095e-35 -1.0000000180025095e-35 1.0000000180025095e-35 4136.3200000000006 1.0000000180025095e-35 3046.6300000000006 1929.2250000000001 2034.0808333333352 12.500000000000002 9778.9250000000011 11.500000000000002 510.9168571428566 -9.4999999999999982 456.01500000000004 341.50000000000006 27386.185000000005 0.12109634551495001 24744.720000000005 -5915.3300000000136 27386.185000000005 86.577714285715174 0.61428571428571466 54.500000000000007 -3369.5999999999894 60.500000000000007 6.8333333333333357
decision_type=2 2 10 2 8 8 2 2 2 2 2 8 8 2 10 10 10 10 8 8 10 10 10 8 8 10 2 10 8 10
left_child=1 4 3 6 10 15 7 13 9 11 12 22 17 21 26 -3 27 18 -1 -5 24 -2 -7 25 -6 -24 -9 -4 -20 -27
right_child=2 5 16 19 20 8 -8 14 -10 -11 -12 -13 -14 -15 -16 -17 -18 -19 28 -21 -22 -23 23 -25 -26 29 -28 -29 -30 -31
leaf_value=0.050094194381842087 0.026237746992418175 0.14996039654402557 0.058432082665570748 0.052960580845670416 0.055909172584132895 0.12480905105194411 -0.027093696186399591 -0.0063280938975434752 -0.019069899091001746 8.3169138561088861e-05 0.047300684712339253 0.00579830163335311 0.13502941290431769 -0.0044098174599910278 0.13777272965309101 0.045811907910062684 0.036178764986432174 0.05639538743289986 0.066616007721345405 -0.011292864045794429 0.13144455533875768 0.12419193376283393 0.049699212529277136 -0.0011056585674827063 0.01194838708170168 0.068553287693611534 -0.021854095728293787 0.13130728801272581 0.10687708536156569 0.16750545358005639
leaf_weight=58.97226598020643 242.42325546685606 35.964936587959528 30.267796333413571 138.62216431973502 270.40434669237584 22.647513691801578 3886.0284643825144 562.15666478779167 133.3087905915454 184.06527977855876 95.913667073938996 116.04057153314352 113.24091723095626 304.76510089961812 7.0369627857580772 26.799956229049712 63.82789044175297 101.96842744806781 66.964392270892859 43.21771445684135 18.743466942105442 14.166327483952044 318.61835113028064 54.546099915169179 74.46602445282042 23.957299318164587 2137.6577232638374 46.078363571781665 435.60308068338782 14.939291561022399
leaf_count=3587 35549 2039 1840 15174 19499 1736 734434 94342 20715 24937 9753 13876 4399 52136 944 2224 4936 4055 3123 6060 1055 1994 29592 6559 8457 2090 394716 1853 16108 1403
internal_value=0 0.0579254 -0.0174999 -0.0192149 0.0792871 0.0295558 -0.0206612 -0.0130128 0.0240658 0.0318915 0.0911569 0.0425221 0.0965723 0.0120708 -0.0182147 0.10549 0.0722548 0.0900088 0.0961126 0.0376895 0.0507999 0.0316458 0.0523251 0.0483412 0.046417 0.0558853 -0.0186213 0.102416 0.101513 0.106559
internal_weight=0 2167.16 7476.25 7336.07 1236.28 930.888 7154.23 3268.21 868.123 734.814 872.663 550.749 776.749 561.355 2706.85 62.7649 140.174 663.508 561.54 181.84 363.614 256.59 434.709 412.061 344.87 357.515 2699.81 76.3462 502.567 38.8966
internal_count=1519185 175207 1343978 1335349 70036 105171 1314115 579681 100908 80193 41025 55256 31272 89679 490002 4263 8629 26873 22818 21234 29011 37543 41380 39644 27956 33085 489058 3693 19231 3493
is_linear=0
shrinkage=0.0294851


Tree=8
num_leaves=31
num_cat=0
split_feature=44 7 47 309 77 16 232 82 312 108 188 234 354 285 128 177 185 249 111 232 327 5 184 321 314 163 136 163 7 5
split_gain=10002.7 1525.66 769.661 760.493 573.505 545.028 557.641 320.623 250.368 248.882 235.91 216.542 203.835 187.719 174.591 165.169 175.191 165.879 175.674 164.6 153.35 138.984 132.734 121.665 124.122 120.411 117.956 117.874 116.823 116.023
threshold=34.500000000000007 77.695000000000007 1.0000000180025095e-35 -1.0000000180025095e-35 -1.0000000180025095e-35 1929.2250000000001 1.0000000180025095e-35 -0.12857142857142848 1.0000000180025095e-35 0.089368770764119615 -1.0000000180025095e-35 22.166666666666654 1.0000000180025095e-35 41113.895000000011 30.506756756756754 3317.6075000000005 -190.31499999999997 1.0000000180025095e-35 0.18333333333333354 1.0000000180025095e-35 1.0000000180025095e-35 29391.090000000004 -305.60499999999996 -1310.0915263605448 343.86500000000007 410.47500000000008 1.0142857142857153 1557.075 323.54500000000007 18282.180000000004
decision_type=2 2 2 8 8 2 8 8 8 10 10 10 2 8 8 8 10 10 10 8 2 2 10 8 10 10 8 10 2 2
left_child=1 4 19 -2 7 6 10 25 9 12 -5 20 15 14 -6 16 -9 18 -18 22 28 23 -3 -12 -25 -1 -4 29 -7 -20
right_child=3 2 26 5 13 11 -8 8 -10 -11 21 -13 -14 -15 -16 -17 17 -19 27 -21 -22 -23 -24 24 -26 -27 -28 -29 -30 -31
leaf_value=0.1404431786253732 0.095194284013623953 -0.0055784853062794508 0.10880530405266889 0.074762120703391929 0.023317017760985034 -0.0092837663157452777 -0.02013807883740457 0.023155006636345215 0.0079096553218953782 0.13435970559747329 0.12984349461601252 0.1275331047676489 0.10619466648523666 0.01008323139803574 0.06128275126337375 -0.0035017554902433494 0.05724429260968595 -0.010944949226433881 0.1028574136672212 -0.023627490891906477 -0.0281912685001562 -0.0083767411913018442 0.022472575252786488 0.016595976810922092 0.084613263617400652 0.088810010847889281 0.050062333607727841 0.033597063016920885 -0.022556090007824273 0.058511497203245069
leaf_weight=81.868621015455574 50.274663299322128 233.19654360739514 73.463963135611266 64.906480287201703 151.16205681255087 819.18020541174337 585.77536463178694 70.822311720345169 52.854335505049676 55.615642638411373 9.6103564384393376 8.2465911745093745 117.11985285021365 130.86002205777913 347.10902766510844 29.927218331489712 279.57738359179348 20.310073642991483 254.617148142308 136.8024437869899 3078.2204295881093 150.6172159393318 395.1626656614244 244.49026278732345 25.784646028652787 75.456207412760705 49.905251367948949 30.885199694894254 1946.6194658912718 64.230088875629008
leaf_count=2230 1523 32690 1850 5936 13274 144840 108992 6559 4638 2554 1448 1030 1512 14649 25311 2260 14953 2593 15752 23281 601367 23466 50364 34943 3348 1150 4423 2188 365295 4766
internal_value=0 0.0482032 0.0167004 -0.019069 0.0640855 -0.0198976 -0.000664462 0.0766175 0.0703208 0.0738942 0.0223613 -0.0234508 0.0700177 0.0415111 0.049765 0.0643711 0.0671906 0.0719914 0.074668 0.00568134 -0.0236639 0.0144609 0.0120623 0.0267507 0.0230849 0.115679 0.0850426 0.0885966 -0.0186251 0.0939242
internal_weight=0 2650.95 888.531 6983.73 1762.42 6933.45 1081.18 1133.28 975.959 923.105 495.409 5852.27 867.489 629.131 498.271 750.369 720.442 649.62 629.31 765.162 5844.02 430.502 628.359 279.885 270.275 157.325 123.369 349.732 2765.8 318.847
internal_count=1519185 226997 112608 1292188 114389 1290665 178133 61155 57775 53137 69141 1112532 50583 53234 38585 49071 46811 40252 37659 106335 1111502 63205 83054 39739 38291 3380 6273 22706 510135 20518
is_linear=0
shrinkage=0.0294851


Tree=9
num_leaves=31
num_cat=0
split_feature=11 15 15 45 313 356 204 258 319 197 143 38 263 70 50 204 313 92 313 28 45 15 1 5 26 1 26 195 178 208
split_gain=8156.99 2553.15 980.783 803.216 672.388 440.271 444.79 410.88 337.983 273.811 266.141 261.112 215.673 197.257 180.514 177.55 327.375 188.666 175.347 178.355 171.124 160.422 159.642 154.502 131.95 120.72 112.517 100.639 95.5038 87.564
threshold=1551.7000000000003 2.5000000000000004 1.5000000000000002 1.0000000180025095e-35 1.0000000180025095e-35 1.0000000180025095e-35 13803.655000000001 -1.4999999999999998 60.500000000000007 32527.965000000004 212.91666666666703 26.500000000000004 -1.0000000180025095e-35 0.15714285714285703 7738.2100000000009 24875.755000000005 -11847.484999999999 -234.03842857142948 -3707.2299999999946 1.5000000000000002 1.0000000180025095e-35 3.5000000000000004 202004.50000000003 16603.580000000005 1311.3150000000003 202004.50000000003 1209.9100000000001 1.0000000180025095e-35 -119.46749999999399 1.0000000180025095e-35
decision_type=2 2 2 2 8 2 10 8 8 8 8 10 10 10 2 8 8 10 10 2 2 2 2 2 2 2 2 8 10 10
left_child=1 4 3 7 5 6 8 -2 -1 15 -10 14 -12 26 -3 16 -9 -18 22 23 21 -4 -14 24 28 -19 -5 -16 -20 -27
right_child=2 11 20 13 -6 -7 -8 9 10 -11 12 -13 18 -15 27 -17 17 25 19 -21 -22 -23 -24 -25 -26 29 -28 -29 -30 -31
leaf_value=0.027939044271424147 0.17175043249018576 0.025149722869477337 0.0016273297866277463 -0.02221003597092153 0.0022959260204139121 0.11794312443396532 0.021601550673373354 0.17788632945592509 0.034373324615685992 -0.0062969474980419078 0.15210260118235128 0.17306698059465847 0.077081870019321749 0.14202638600082818 0.01493150777171256 -0.0019806414319043612 0.11964852573211096 0.0094813355715823826 0.080037878630970338 0.13086047733444539 -0.028059256705128145 -0.020495480485165859 0.15047144041790361 0.049413027068373673 0.094684847253548976 0.039325721737528893 0.100416693080786 -0.013925915751311382 0.052510870077854974 0.10663552699321925
leaf_weight=157.65286879986525 16.298422176390886 177.70199099881575 327.70804866496474 645.82331486232579 151.82381893694401 135.96363924257457 200.43256086437032 14.861511372961102 132.8481699260883 210.45258746854961 33.605061498470604 7.5360263367183498 52.988636404741555 6.5189015087671569 130.58337468281388 98.711714291013777 22.652545830234885 133.6456340001896 237.04560460662469 43.211600131355226 2976.889425068628 2184.7523731607944 50.161613743752241 243.18654703628272 234.60980299673975 229.45136812794954 6.5713076665997496 537.62750994740054 203.76379464007914 18.130178820807487
leaf_count=12041 548 22653 52423 120261 15164 1711 18650 893 9824 32180 388 696 985 917 18949 12725 2077 15799 12955 1951 596236 410256 1585 13351 9069 25849 1033 93760 12662 1594
internal_value=0 0.042561 -0.0176534 0.00434626 0.061784 0.0670184 0.0626624 0.0253376 0.0685871 0.0220593 0.0737911 0.000276811 0.0785578 -0.0193622 -0.00126253 0.033592 0.0419777 0.0369767 0.0762371 0.072319 -0.0232766 -0.0176099 0.112771 0.0695652 0.0768211 0.0320643 -0.0209749 -0.00828653 0.0673135 0.0442548
internal_weight=0 2730.74 6892.47 1403.12 1877.29 1725.47 1589.51 744.204 1389.07 727.906 1231.42 853.449 1098.57 658.914 845.913 517.453 418.741 403.88 1064.97 961.817 5489.35 2512.46 103.15 918.606 675.419 381.227 652.395 668.211 440.809 247.582
internal_count=1519185 246394 1272791 213876 110336 95172 93461 91665 74811 91117 62770 136058 52946 122211 135362 58937 46212 45319 52558 49988 1058915 462679 2570 48037 34686 43242 121294 112709 25617 27443
is_linear=0
shrinkage=0.0294851


Tree=10
num_leaves=31
num_cat=0
split_feature=231 13 151 81 18 22 15 108 12 13 45 266 18 90 233 22 52 15 52 265 105 227 57 271 77 145 110 171 69 219
split_gain=8394.93 1437.54 812.041 527.435 500.785 399.943 485.051 380.51 359.37 307.239 267.73 243.148 237.226 297.14 203.755 200.348 184.77 173.882 172.984 146.204 145.972 143.67 147.23 124.524 119.04 118.895 96.8712 94.0009 93.9214 129.802
threshold=32.500000000000007 2780.3850000000007 0.7857142857142857 221.85799999999952 25751.385000000006 1.0000000180025095e-35 3.5000000000000004 0.089368770764119615 1.0000000180025095e-35 12136.01 1.0000000180025095e-35 -3778.8049999999994 21836.645000000004 -0.2142857142857145 13.500000000000002 1.0000000180025095e-35 310.05000000000001 1.0000000180025095e-35 13800.150000000001 -2456.9099999999994 1.0000000180025095e-35 225.50000000000003 2334.2230000000004 -7.4999999999999991 -576.31101930501893 1.5500000000000003 0.034555984555984555 0.0047883083151551006 -319.02083333333343 1.4166666666666652
decision_type=8 2 10 10 2 2 2 10 2 2 2 8 2 8 10 2 2 2 2 10 10 8 10 10 10 10 10 10 10 10
left_child=1 3 5 4 7 6 9 8 19 12 11 -10 13 -2 -8 17 21 25 -6 -1 -9 -13 24 -4 28 -3 -26 -15 -23 -30
right_child=2 15 23 -5 18 -7 14 20 10 -11 -12 16 -14 27 -16 -17 -18 -19 -20 -21 -22 22 -24 -25 26 -27 -28 -29 29 -31
leaf_value=0.1250895771809504 0.15398276876318986 0.025915500829947133 0.075997418317958657 0.01093588365392368 0.01202587402130709 -0.027004624981029762 -0.019148921626545176 0.096807316570495863 0.14058715512334555 -0.0088613391761784704 -0.01610885347360376 0.028513837891739842 -0.014768466603437445 0.029287910059572445 0.14539443176889863 -0.021461225994612795 0.024176573342247033 0.0008997491644580555 0.089170731247870061 0.077054803772998601 0.17210634860356375 0.071866067812907608 0.017801439129695933 0.015544923168497541 0.050843623108196248 0.093294532601241362 0.088978676345522076 0.096614911248840404 0.063259046761789159 0.1437605645491683
leaf_weight=65.527230500243604 20.053320630453527 282.1740724472329 83.077083760872483 221.15961564611644 226.41840389091522 3513.7661737194285 2362.9494729219005 82.805624124594033 28.409006279427558 362.81163145601749 47.436112326569855 119.46334809996188 74.968895098660141 198.80872673215345 6.5607922906056038 161.80871974490583 161.38914445927367 347.63346528820693 28.444024777505547 345.76643057493493 30.672325759194791 200.76794776786119 57.018346758559346 46.039463274180889 347.72746736602858 24.766091203317046 69.480927303433418 19.826385436579585 29.314692041836679 42.890409847255796
leaf_count=1205 2338 28603 3429 26333 19899 718631 453025 3301 1169 61312 6427 8430 11161 25725 692 28573 15778 48507 696 7229 1141 7367 3172 3755 19313 1651 3697 2369 1588 2669
internal_value=0 0.0411287 -0.0187848 0.054011 0.0590688 -0.0202261 -0.0124066 0.065083 0.0611828 0.0096145 0.0524178 0.0554947 0.0309857 0.0453565 -0.0186933 0.00791711 0.0531432 0.0151794 0.0206357 0.0847077 0.11716 0.0585374 0.0633376 0.0544417 0.0670995 0.0313521 0.0571945 0.0353933 0.0822381 0.111078
internal_weight=0 2921.07 6688.86 2104.69 1883.53 6559.75 3045.98 1628.67 1515.19 676.469 1103.9 1056.46 313.657 238.688 2369.51 816.382 1028.05 654.574 254.862 411.294 113.478 866.663 747.2 129.117 690.181 306.94 417.208 218.635 272.973 72.2051
internal_count=1519185 236748 1282437 129414 103081 1275253 556622 82486 78044 102905 69610 63183 41593 30432 453717 107334 62014 78761 20595 8434 4442 46236 37806 7184 34634 30254 23010 28094 11624 4257
is_linear=0
shrinkage=0.0294851


Tree=11
num_leaves=31
num_cat=0
split_feature=44 11 150 80 327 7 18 23 263 15 15 18 207 83 94 66 334 237 171 146 12 43 43 233 83 270 314 197 7 148
split_gain=7866.02 1127.53 727.201 419.293 406.617 372.356 292.003 254.052 242.777 212.106 204.991 237.14 261.277 201.5 179.088 161.386 151.686 126.838 125.537 123.535 123.137 111.129 106.493 99.7265 98.5014 98.0242 89.3328 84.9678 78.2314 72.8647
threshold=34.500000000000007 1551.7000000000003 0.61428571428571466 1.0000000180025095e-35 1.0000000180025095e-35 323.54500000000007 67335.750000000015 1.0000000180025095e-35 -1.0000000180025095e-35 1.0000000180025095e-35 4.5000000000000009 18034.085000000003 -1451.6474999999998 -3689.0581428571495 0.12857142857142853 -0.12857142857142848 1.0000000180025095e-35 30.250000000000004 1.0000000180025095e-35 2079.1875000000005 1.0000000180025095e-35 4.5000000000000009 1.5000000000000002 9.5000000000000018 1.0000000180025095e-35 -17.499999999999996 680.72500000000014 819.84000000000003 193.44500000000002 -187.06167729468547
decision_type=2 2 10 8 2 2 2 2 10 2 2 2 8 8 10 8 2 8 10 8 2 2 2 10 10 10 10 8 2 8
left_child=1 3 4 6 5 10 8 9 -1 15 11 12 -2 21 17 -3 20 -15 -19 -20 -14 -10 -8 -12 25 -4 29 -17 -11 -22
right_child=2 7 24 -5 -6 -7 22 -9 13 28 23 -13 16 14 -16 27 -18 18 19 -21 26 -23 -24 -25 -26 -27 -28 -29 -30 -31
leaf_value=0.1057831944710762 0.18725491936820882 0.078110557571347008 0.092828459026280633 0.015590826393743927 -0.027623218363584397 -0.020155946568104828 0.073469138780933169 -0.020462406778427041 0.062184528780754887 0.017882286907444714 -0.012364179010597541 -0.018272244361826211 0.10077342499885721 0.022187426410369776 0.072696372953315769 0.047653578546532752 -0.020734534850365968 0.047496154834703826 0.1058999745582714 0.033046352540438167 0.075512503886730642 0.1049499216137635 0.0062569690686326172 0.1019781953604338 0.0051735672998916848 0.035681160445010109 0.077245697165629526 0.014388199884221384 -0.0091208345030337739 0.016324195524322339
leaf_weight=93.594247728586197 8.4237709962762874 63.783062669448555 48.89705079421401 253.16353532252833 3105.872331308201 2163.6262785429135 24.399678432382643 172.99169041635469 104.97512013884261 178.83018155163154 632.85487369960174 152.49808522919193 19.624402270652354 152.69049730943516 304.70417970046401 104.05087698670104 62.931423894129694 815.61419942462817 65.403232459444553 29.299263611901551 19.334337547887117 106.33689181134105 128.03540271054953 6.70156649313867 34.948651601094753 55.955725312232971 25.897073025815189 186.22745929099619 194.96003679325804 279.20482272887602
leaf_count=801 1101 3739 1595 25761 655776 422808 1206 30279 2125 21152 117929 26001 2298 10582 10016 8640 12546 45504 3070 1361 2741 2461 9993 664 2484 3781 3109 20894 29413 39355
internal_value=0 0.0392073 -0.0184905 0.0511501 -0.0199265 -0.0128354 0.0560828 0.0116556 0.0596432 0.0192892 0.000282055 0.0131743 0.0247183 0.0569083 0.0527682 0.0356435 0.0213542 0.0470559 0.0512272 0.0833604 0.0290525 0.083705 0.0170154 -0.011166 0.0480425 0.0623312 0.0247143 0.0263122 0.0037981 0.0201574
internal_weight=0 2979.06 6616.77 2078.22 6476.97 3371.1 1825.05 900.843 1672.62 727.852 1207.47 567.914 415.416 1579.02 1367.71 354.061 406.992 1063.01 910.317 94.7025 344.061 211.312 152.435 639.556 139.801 104.853 324.436 290.278 373.79 298.539
internal_count=1519185 226997 1292188 112880 1284328 628552 87119 114117 75920 83838 205744 87151 61150 75119 70533 33273 60049 60517 49935 4431 47503 4586 11199 118593 7860 5376 45205 29534 50565 42096
is_linear=0
shrinkage=0.0294851


Tree=12
num_leaves=31
num_cat=0
split_feature=231 11 151 358 354 357 53 43 206 185 29 81 49 326 150 83 240 306 314 347 206 38 328 43 227 295 92 304 197 262
split_gain=7192.12 1081.84 710.856 382.298 318.83 289.166 284.144 246.932 218.917 208.882 195.514 190.287 164.417 151.87 136.583 131.051 122.351 114.473 112.795 110.701 103.411 97.5936 96.6095 94.9187 92.5008 90.2203 80.0501 79.8404 76.9074 88.9857
threshold=32.500000000000007 1551.7000000000003 0.7857142857142857 1.0000000180025095e-35 1.0000000180025095e-35 1.0000000180025095e-35 0.0092480101719189262 4.5000000000000009 0.83333333333333359 480.41500000000002 1.0000000180025095e-35 87.550921926911514 23.500000000000004 1.0000000180025095e-35 0.099999999999999867 -4102.6339999999991 1.0000000180025095e-35 -1.0000000180025095e-35 1310.2050000000002 1.0000000180025095e-35 0.83333333333333359 115.50000000000001 1.0000000180025095e-35 4.5000000000000009 225.50000000000003 1.0000000180025095e-35 -1099.4127142857149 -153.47999999999999 32527.965000000004 -1.0000000180025095e-35
decision_type=8 2 10 2 2 2 2 2 10 8 2 10 10 2 10 10 10 8 10 2 10 8 2 2 8 8 8 10 10 10
left_child=1 4 3 5 6 12 7 17 11 10 15 14 13 19 18 -9 24 -1 23 20 26 -8 27 -3 -12 -21 -2 -4 29 -25
right_child=2 8 22 -5 -6 -7 21 9 -10 -11 16 -13 -14 -15 -16 -17 -18 -19 -20 25 -22 -23 -24 28 -26 -27 -28 -29 -30 -31
leaf_value=0.044344077613108934 0.051113311118828039 -0.0004138075477969065 0.089677498377119427 -0.027647784033020571 0.073655307321112834 -0.020894701927676753 0.065473316148526722 0.10616594350334632 -0.019259181779070381 0.020579150744446773 0.022531721621376118 -0.0080122776954783884 0.11238821675515344 0.027044677852100046 0.078549621147694065 0.047385441689060552 0.12707754070865529 0.01638162484179486 0.068311277581540542 0.1211261794224298 -0.020300336884795874 0.014392843236357214 0.0077372381511435174 0.10286506343339707 0.079610171407571886 0.0062464308023687546 -0.0041662860102271247 0.037320727790173168 -0.00010916681260055243 0.029722267568510364
leaf_weight=295.376266120933 23.355567330960184 168.47919870587066 48.577918618917465 2926.6499323770404 345.490983590018 1859.0339993783273 36.097436368931085 35.476704359985888 178.57828996889293 115.62789505952969 27.479785005562007 199.8007484972477 10.557897924911229 122.88701029727235 39.055692832916975 467.55034042382613 43.515261595603079 223.65364541159943 41.408702496439219 10.360503531061111 426.55586742097512 327.87983895419165 38.905371838249266 15.328503912780432 242.56998972268775 13.939569030422719 914.46466065803543 52.889656208921224 73.701734977308661 255.3587380819954
leaf_count=13384 3924 19389 1378 635201 3200 374615 2389 996 32591 6833 1901 29415 1041 12716 1703 21244 1293 15456 3962 1519 87369 32861 3635 1580 12048 1948 156920 2171 10147 26356
internal_value=0 0.0360736 -0.0183853 -0.0198457 0.0476938 -0.0130924 0.0427525 0.0485947 0.0102347 0.0576699 0.0629219 0.0168754 -0.00356302 -0.00437291 0.0252562 0.051531 0.0811953 0.0322949 0.021501 -0.00715312 -0.00826412 0.0194587 0.0472402 0.0177216 0.073802 0.0552262 -0.0027896 0.0623867 0.0265937 0.0338642
internal_weight=0 3132.43 6448.18 6307.81 2160.72 3381.16 1815.23 1451.25 971.712 932.22 816.592 793.133 1522.12 1511.56 593.333 503.027 313.565 519.03 554.277 1388.68 1364.38 363.977 140.373 512.868 270.05 24.3001 937.82 101.468 344.389 270.687
internal_count=1519185 236748 1282437 1275253 111605 640052 108405 73155 125143 44315 37482 92552 265437 264396 63137 22240 15242 28840 61434 251680 248213 35250 7184 57472 13949 3467 160844 3549 38083 27936
is_linear=0
shrinkage=0.0294851


Tree=13
num_leaves=31
num_cat=0
split_feature=31 13 16 205 16 83 13 188 1 358 17 233 23 144 227 71 47 184 200 11 7 29 94 83 295 1 184 94 8 306
split_gain=6743.51 910.385 689.571 516.684 391.606 291.84 270.678 269.137 219.925 181.463 172.59 167.64 166.8 165.619 165.354 157.17 156.734 140.395 139.169 135.113 118.409 114.179 106.518 100.138 98.9254 96.3685 94.5958 94.2599 88.3077 83.9749
threshold=34.500000000000007 2780.3850000000007 1929.2250000000001 1.0000000180025095e-35 3046.6300000000006 1.0000000180025095e-35 12136.01 -1.0000000180025095e-35 202003.50000000003 1.0000000180025095e-35 1.0000000180025095e-35 19.500000000000004 1.0000000180025095e-35 -0.19883720930232548 225.50000000000003 2.0833333333333353 1.0000000180025095e-35 456.01500000000004 4976.3450000000012 1.0000000180025095e-35 323.54500000000007 1.0000000180025095e-35 0.092857142857142874 -6656.4812857142788 -5165.0199999999995 202001.50000000003 -479.05499999999995 0.12857142857142853 7.5000000000000009 -1470.7249999999997
decision_type=2 2 2 8 2 8 2 10 2 2 2 10 2 8 8 10 2 10 8 2 2 2 10 10 8 2 8 10 2 8
left_child=1 4 3 6 5 7 10 19 25 11 13 20 18 24 -10 -5 -17 21 27 -1 -4 23 -6 -16 -2 29 -23 -3 -28 -9
right_child=2 12 9 15 22 -7 -8 8 14 -11 -12 -13 -14 -15 17 16 -18 -19 -20 -21 -22 26 -24 -25 -26 -27 28 -29 -30 -31
leaf_value=0.063320269202721768 0.14272274818064654 0.015259603682471111 -0.0079890286746244852 -0.02210575444036925 0.0073288839962177763 0.002520846053918883 -0.00033523326662114519 0.087608794264008083 0.021111820782121427 -0.028050163221160641 0.012637060899839053 0.12458913427062264 -0.021625573933603107 0.038551130251130335 0.091125715694483828 0.0014024925939936947 0.13484121853108616 0.020871250968080179 -0.014818487716147369 0.1042793776454507 -0.021630004920465715 0.024936513672553531 0.054513707377980204 0.048015629632456015 0.067662647456261063 0.016317712318595402 0.085401318439304499 0.052428205649527819 0.043494371911859342 0.033727085582759712
leaf_weight=290.35546365380287 24.430604356806725 469.52570579992607 794.77093952288851 501.9338239072822 289.65096740378067 114.10906823910773 254.58928303886205 33.238228351809084 132.45572909433395 2632.7178034987301 121.36234967736527 7.240359474439173 143.16557297250256 134.69558925693855 51.255027807783335 25.64371749246493 10.907522989436982 89.630572826135904 122.9464100911282 92.265416411682963 1820.2495887605473 32.019637621473521 48.567708116024733 544.22494532400742 40.687929484527558 263.24786699702963 254.16344938939437 67.894514898769557 52.795857195742428 103.28884204430506
leaf_count=3815 1612 48988 147289 102092 33316 9921 39525 1091 9198 589437 11623 601 26193 13576 938 5046 1302 5218 18882 2515 374924 1429 4648 21732 2807 15288 11309 5880 3028 5962
internal_value=0 0.0343784 -0.0181145 0.00295442 0.0435023 0.0483453 0.0223717 0.0510421 0.0455953 -0.0225819 0.0403709 -0.0170919 0.00722615 0.0572158 0.0521119 -0.0178071 0.0412229 0.0561214 0.0134811 0.0731972 -0.0174842 0.0595025 0.0141046 0.0517263 0.095823 0.026743 0.0731629 0.0199553 0.0781935 0.0468449
internal_weight=0 3194.8 6369.23 1114.25 2391.27 2053.05 575.766 1938.94 1556.32 5254.98 321.176 2622.26 803.532 199.814 1156.55 538.485 36.5512 1024.09 660.367 382.621 2615.02 934.459 338.219 595.48 65.1185 399.775 338.979 537.42 306.959 136.527
internal_count=1519185 229351 1289834 177583 129408 91444 69143 81523 75193 1112251 29618 522814 99943 17995 52852 108440 6348 43654 73750 6330 522213 38436 37964 22670 4419 22341 15766 54868 14337 7053
is_linear=0
shrinkage=0.0294851


Tree=14
num_leaves=31
num_cat=0
split_feature=31 13 200 22 70 313 206 13 263 50 22 81 7 262 82 17 90 1 233 90 94 118 146 240 50 10 8 31 8 300
split_gain=6267.46 801.277 588.074 472.915 291.283 263.732 255.155 232.231 225.081 221.548 188.142 181.49 159.725 135.966 133.808 131.294 151.338 115.501 107.944 105.681 103.233 96.6556 94.7063 89.8874 85.5067 80.5882 74.5134 68.184 67.881 66.5355
threshold=34.500000000000007 258.54500000000007 1485.0300000000002 1.0000000180025095e-35 0.27142857142857152 1.0000000180025095e-35 0.41666666666666657 12136.01 -1.0000000180025095e-35 2299.9850000000001 1.0000000180025095e-35 221.85799999999952 323.54500000000007 -1.0000000180025095e-35 -0.12857142857142848 1.0000000180025095e-35 -0.12857142857142848 202008.50000000003 16.500000000000004 -0.107142857142857 0.12857142857142853 -3.7986486486486495 2305.8750000000005 1.0000000180025095e-35 9139.9550000000017 2.5000000000000004 6.5000000000000009 10.500000000000002 5.5000000000000009 1.1349107471810653
decision_type=2 2 8 2 10 8 8 2 10 2 2 10 2 10 10 2 10 2 10 10 10 8 8 10 2 2 2 2 2 10
left_child=1 5 3 7 -5 8 9 15 -1 17 12 13 18 -10 -15 16 29 21 24 22 23 -3 -16 27 -4 28 -23 -21 -18 -2
right_child=2 6 10 4 -6 -7 -8 -9 11 -11 -12 -13 -14 14 19 -17 25 -19 -20 20 -22 26 -24 -25 -26 -27 -28 -29 -30 -31
leaf_value=0.08306388116630857 0.06194202012848244 0.048221490576059643 0.011022029924925389 -0.020378459233160933 0.16641645596365168 0.0033980183775062724 -0.019137965448638508 -0.0014920276518573376 0.09610751198562921 -0.0011915643069599908 -0.02781556388100144 0.012568630816260831 -0.021422972562274205 0.064673033977348887 0.080784039505725158 0.010820810364839657 0.074120214549314944 0.046206332863620254 0.10844874061934968 0.038082530382458402 0.052976123302584922 0.028109658817691324 0.036698561071914854 0.07232031471285752 -0.012043940680481667 0.10101613532990726 0.001793120703068302 0.021332619616186932 0.020995119720690375 0.13248046727130991
leaf_weight=132.91040358133614 24.09293591696769 86.447128257714212 188.37404242157936 592.46724868891761 7.3475641435943535 134.91372157167643 181.9907410624437 273.45795820467174 46.017261078115553 325.76425188034773 2621.4667361769825 152.86716504674405 1685.1100092711858 247.91233168076724 102.67666384764016 123.90235233772546 24.945992440916598 215.7421491141431 7.2244603671133509 494.87176012806594 303.28206446114928 170.3600359344855 72.119740172289312 48.16184831596911 540.97272627009079 15.075713464990256 207.42306963168085 368.69319306686521 129.24226313503459 22.465464593376964
leaf_count=985 1222 6604 31714 122831 756 12799 32347 43638 1564 42858 601364 15743 354097 4296 4590 12101 1853 16396 521 20873 8805 12642 2230 1951 103304 1474 18782 25886 13672 1287
internal_value=0 0.0323511 -0.0179084 0.0005242 -0.0180903 0.0432792 0.0129886 0.0187329 0.0460111 0.0188019 -0.0223419 0.0433297 -0.0164166 0.0461225 0.044718 0.0350127 0.0489011 0.0283805 -0.00496313 0.0411585 0.0380746 0.0200963 0.0625947 0.0331176 -0.00608651 0.0359518 0.0136605 0.0309313 0.0295902 0.0959784
internal_weight=0 3292.15 6256.15 1213 599.815 2104.43 1187.73 613.183 1969.51 1005.74 5043.15 1836.6 2421.68 1683.73 1637.72 339.725 215.822 679.972 736.571 1389.81 1215.01 464.23 174.796 911.727 729.347 169.264 377.783 863.565 154.188 46.5584
internal_count=1519185 229351 1289834 198834 123587 99722 129629 75247 86923 97282 1091000 85938 489636 70195 68631 31609 19508 54424 135539 64335 57515 38028 6820 48710 135018 16999 31424 46759 15525 2509
is_linear=0
shrinkage=0.0294851


Tree=15
num_leaves=31
num_cat=0
split_feature=44 11 15 205 23 188 188 184 1 38 81 23 193 46 11 331 77 5 1 110 1 184 308 185 1 193 92 203 163 111
split_gain=5852.53 690.023 566.539 468.713 292.388 243.633 223.24 212.534 174.656 173.498 170.731 163.025 135.539 144.679 116.721 112.477 109.915 105.441 103.529 98.4813 93.8366 96.4853 87.9001 77.4554 74.2398 74.233 90.1899 69.6198 74.6162 99.5794
threshold=34.500000000000007 196.44000000000003 2.5000000000000004 1.0000000180025095e-35 1.0000000180025095e-35 -1.0000000180025095e-35 -1.0000000180025095e-35 -305.60499999999996 202004.50000000003 35.000000000000007 221.85799999999952 1.0000000180025095e-35 2.5833333333333353 1.0000000180025095e-35 8064.4150000000009 1.0000000180025095e-35 -1.0000000180025095e-35 20081.060000000005 202004.50000000003 0.14575289575289602 202001.50000000003 456.01500000000004 -1.0000000180025095e-35 480.41500000000002 202003.50000000003 2.8333333333333353 -86.809571428571033 -4310.747500000004 1557.075 1.0000000180025095e-35
decision_type=2 2 2 8 2 10 8 10 2 10 8 2 10 8 2 2 10 2 2 10 2 8 8 8 2 10 10 10 10 10
left_child=1 10 3 5 6 22 -3 -8 -9 11 16 15 -5 -14 23 -4 19 -10 -18 20 -1 24 -2 25 -22 26 -7 -26 29 -29
right_child=2 4 9 12 -6 14 7 8 17 -11 -12 -13 13 -15 -16 -17 18 -19 -20 -21 21 -23 -24 -25 27 -27 -28 28 -30 -31
leaf_value=0.070547676641199611 0.10428081627648383 0.060103441823668023 -0.0081944019456094645 -0.022460817603873601 -0.019262873710864985 0.085324693751040043 -0.0068888730925623174 0.0048400525831323177 0.04119072440495556 0.14042129385042398 0.012804551862786569 -0.027847784267930144 -0.0034077013630930378 0.11474488356296589 -0.0056311562291939165 -0.021672244082212005 0.012873929470457407 0.014045456761586627 0.042414318524348668 0.086414749987622635 0.032146292131910073 0.022870843237225793 0.041272171852058143 -0.006436138598813047 0.079128200187931652 0.085749027330291355 0.017848326031667087 0.040024852029897633 0.026221269015995419 0.064361442407804059
leaf_weight=135.09657237352803 23.384981063194573 111.55599910765886 821.71585557423532 589.38007266959175 186.68491545738652 19.191255724523216 262.20240817917511 293.48256982676685 400.02665188908577 5.6878732573240987 158.44990116450936 2457.486191614531 30.351555563975126 12.813834842294453 277.14576397370547 1560.7336304597557 156.83294467907399 180.54884426994249 301.27755011897534 58.642471667379141 203.58419892378151 154.16058558691293 108.8150951708667 65.192963033448905 75.146867684088647 19.135741403326392 167.746830644086 267.73575111432001 103.98075162479654 321.91954674664885
leaf_count=3515 1240 5249 158909 127102 32945 1828 33357 27407 29869 370 16279 579895 6203 1284 46565 332691 8814 18186 14745 1877 6766 5378 6147 8084 962 2251 19619 7556 3583 10509
internal_value=0 0.0306524 -0.017673 -0.000494463 0.0151525 0.0164877 0.0203014 0.0163937 0.023378 -0.0223284 0.0421323 -0.0225196 -0.0187671 0.0316664 0.00782644 -0.0170237 0.0447454 0.032749 0.0323012 0.0490633 0.0473271 0.0445424 0.0524178 0.0215757 0.0479783 0.0304374 0.0247755 0.0521708 0.0492503 0.0533113
internal_weight=0 3371.33 6158.78 1313.16 1434.5 680.613 1247.82 1136.26 874.058 4845.62 1936.83 4839.94 632.545 43.1654 548.413 2382.45 1778.38 580.575 458.11 1320.27 1261.62 1126.53 132.2 271.267 972.367 206.074 186.938 768.783 693.636 589.655
internal_count=1519185 226997 1292188 220323 147013 85734 114068 108819 75462 1071865 79984 1071495 134589 7487 78347 491600 63705 48055 23559 40146 38269 34754 7387 31782 29376 23698 21447 22610 21648 18065
is_linear=0
shrinkage=0.0294851


Tree=16
num_leaves=31
num_cat=0
split_feature=44 11 329 322 77 205 18 83 155 7 39 18 38 46 338 286 92 160 327 231 347 322 157 18 152 23 286 7 282 29
split_gain=5456.97 608.409 582.616 363.552 303.944 260.408 162.192 220.673 140.815 138.223 154.255 147.512 137.553 126.118 114.44 110.314 104.628 103.467 101.834 93.8999 87.3832 86.4294 79.7015 77.6009 77.11 74.9002 69.4413 68.978 67.8271 66.5977
threshold=34.500000000000007 5022.9500000000007 1.0000000180025095e-35 3.5000000000000004 -209.72487272155948 1.0000000180025095e-35 25751.385000000006 -4102.6339999999991 227.34628571428652 323.54500000000007 5876.9450000000006 21836.645000000004 23.500000000000004 8.0000000000000018 1.0000000180025095e-35 1.0000000180025095e-35 -234.03842857142948 30.517441860465102 1.0000000180025095e-35 10.500000000000002 1.0000000180025095e-35 1.0000000180025095e-35 0.61428571428571466 11013.885000000002 1.0000000180025095e-35 1.0000000180025095e-35 1.0000000180025095e-35 323.54500000000007 3676.2100000000005 1.0000000180025095e-35
decision_type=2 2 2 10 8 8 2 8 8 2 10 2 10 8 2 8 10 8 2 10 2 10 8 2 10 2 8 2 8 2
left_child=1 4 3 5 14 9 7 -6 17 10 11 16 -12 25 15 19 -2 21 20 24 27 -9 -18 -21 -1 -3 29 -4 -24 -19
right_child=2 13 18 -5 6 -7 -8 8 -10 -11 12 -13 -14 -15 -16 -17 22 26 -20 23 -22 -23 28 -25 -26 -27 -28 -29 -30 -31
leaf_value=0.052690366097135601 0.091171101283527858 0.0040062349591215365 -0.0082348417934143322 0.047494208761700837 0.074956344295759522 -0.022103845962767647 -0.0030820038539573825 0.011293517933387568 0.0023609464895608216 -0.010864883638560899 -0.0080752093104226805 -0.014650529984899251 0.1234919707196875 0.047102507878614579 0.075401804328826455 0.0038398471950896397 0.019152535042961775 0.030904177974326413 -0.027658522282957641 0.039780267400086181 0.083475952467936224 0.075544782842371719 0.095942177692558056 0.012537382486950351 0.01620129613661124 -0.02175540532436937 0.0014216323963847797 -0.021898574524915088 0.028776497811580204 0.05149872613515908
leaf_weight=721.50548317981884 24.655850642826408 430.37871954636648 415.72686074580997 112.91323369042948 81.918131965212524 638.97074059536681 163.26516666961834 277.70749765541404 199.23153040092438 462.3551748720929 300.54798662941903 70.146389971487224 7.0709802117198697 49.808069248218089 93.115685146767646 64.027742538135499 202.20197396632284 324.16574006853625 2344.550781685859 462.47241875901818 7.292641289997845 19.477966270875186 24.362655125558376 113.13815231481567 54.126061849296093 127.08981778519228 44.785111498087645 1412.6603272799402 28.202466228976846 235.81010921439156
leaf_count=17889 2019 53545 80454 3796 2070 143191 14031 19064 21052 86568 54993 9805 465 3619 1222 3506 23545 15213 569332 25656 1021 329 2344 7202 1892 24940 3054 311342 3313 12713
internal_value=0 0.028949 -0.0174651 -0.00379193 0.03465 -0.00708499 0.0244666 0.0282683 0.0247951 0.00148691 0.0101768 0.0235772 -0.00505098 0.00214959 0.0437395 0.0416563 0.0331739 0.0297506 -0.0235864 0.0434482 -0.0183855 0.0155046 0.0275611 0.0344256 0.050144 -0.00186682 0.0367512 -0.0187918 0.0599062 0.0395767
internal_weight=0 3462.02 6051.66 1871.43 2854.75 1758.51 1346.36 1183.1 1101.18 1119.54 657.188 349.569 307.619 607.277 1508.39 1415.27 279.423 901.946 4180.23 1351.24 1835.68 297.185 254.767 575.611 775.632 557.469 604.761 1828.39 52.5651 559.976
internal_count=1519185 226997 1292188 330039 144893 326243 87526 73495 71425 183052 96484 41026 55458 82104 57367 56145 31221 50373 962149 52639 392817 19393 29202 32858 19781 78485 30980 391796 5657 27926
is_linear=0
shrinkage=0.0294851


Tree=17
num_leaves=31
num_cat=0
split_feature=44 16 11 11 309 10 151 358 16 313 321 16 7 18 203 1 350 208 296 10 18 90 194 320 135 11 58 44 184 1
split_gain=5096.51 646.731 546.752 320.743 221.719 202.954 202.135 185.9 184.792 170.051 146.101 127.839 126.491 113.88 249.462 111.166 103.443 99.9929 96.7998 84.6669 82.5416 78.8998 97.4357 71.6888 71.3963 68.9934 67.9301 65.7832 65.1925 74.7003
threshold=34.500000000000007 1929.2250000000001 196.44000000000003 1551.7000000000003 -1.0000000180025095e-35 3.5000000000000004 0.15714285714285703 1.0000000180025095e-35 3046.6300000000006 1.0000000180025095e-35 1.0000000180025095e-35 3046.6300000000006 323.54500000000007 44164.630000000005 -5915.3300000000136 202003.50000000003 1.0000000180025095e-35 1.0000000180025095e-35 943.50000000000011 2.5000000000000004 21836.645000000004 -0.042857142857142844 -606.46249999999986 -4.4999999999999991 3.0473333333333357 42041.415000000008 -351.93191860464998 60.500000000000007 192.17000000000004 202004.50000000003
decision_type=2 2 2 2 8 2 10 2 2 8 8 2 2 2 10 2 2 10 8 2 2 10 10 8 10 2 10 2 10 2
left_child=2 3 9 19 -4 17 -7 12 10 11 13 16 27 14 -6 -16 18 23 -1 20 24 22 -17 -5 -2 26 -23 -3 29 -20
right_child=1 7 4 5 8 6 -8 -9 -10 -11 -12 -13 -14 -15 15 21 -18 -19 28 -21 -22 25 -24 -25 -26 -27 -28 -29 -30 -31
leaf_value=0.028481394990186617 0.027724820647264711 0.0037291156898668658 0.1108682408109504 0.043312254541959118 0.097599859250412244 0.024403347063884622 0.18062550747863432 -0.027856293774662647 -0.0056108215899691458 0.0037389819620837913 -0.014556289634433412 0.017632559564664585 -0.020820589134673009 -0.005419998046117056 0.0023164154410154855 0.10890854560190523 0.069525774995113629 0.047740753264865626 0.037296782817866324 0.076802702219623931 0.0015540396600513462 0.042288326394459654 0.034340727248246584 -0.013133404714656934 0.077861301746317349 -0.004796309589004755 0.019831389932305911 -0.013665199161286484 0.029794636557613979 0.054266479276093814
leaf_weight=451.71836177958176 127.75097048887983 322.95294329803437 20.142937819007784 20.085329025518149 40.002371029462665 43.069558624178171 8.6459108362905663 2361.5407312274911 370.66056473553181 124.22093662945554 105.08378894347697 210.64695773320273 1685.1587249836884 116.00034189550206 188.57585920207202 21.99012244772166 110.77002233546227 25.451443620957434 363.32730751624331 30.601582145318389 86.1539775300771 184.26562484027818 49.586837959941477 749.61479985015467 30.609496205579489 62.60736451856792 321.27853301819414 455.7794375102967 212.98827970027924 594.56086843041703
leaf_count=16626 11226 56194 402 2690 1255 7320 345 589588 52835 10446 17355 19314 375407 11804 16226 1377 955 3022 10726 2257 8492 12384 2811 142124 1816 8389 22175 91707 6612 15305
internal_value=0 -0.0172565 0.0273937 0.00290741 0.0137126 -0.00607801 0.0505209 -0.0219449 0.0123723 0.037185 0.0184909 0.0393222 -0.0162791 0.022019 0.0256847 0.0222116 0.041958 -0.00975912 0.040076 0.0305665 0.0247799 0.0280762 0.0572497 -0.0116605 0.0374157 0.0244009 0.0280167 -0.00645149 0.0445492 0.0478299
internal_weight=0 5947.41 3548.43 1121.98 1480.19 846.867 51.7155 4825.43 1460.05 2068.23 1089.39 1944.01 2463.89 984.307 868.307 828.304 1733.36 795.152 1622.59 275.116 244.514 639.728 71.577 769.7 158.36 568.152 505.544 778.732 1170.88 957.888
internal_count=1519185 1292188 226997 179292 147013 155501 7665 1112896 146611 79984 93776 69538 523308 76421 64617 63362 50224 147836 49269 23791 21534 47136 4188 144814 13042 42948 34559 147901 32643 26031
is_linear=0
shrinkage=0.0294851


Tree=18
num_leaves=31
num_cat=0
split_feature=31 11 16 205 80 354 22 46 80 22 170 1 16 193 29 92 149 77 154 57 244 7 66 227 1 109 244 256 60 1
split_gain=4775.51 702.788 520.666 332.213 255.704 176.974 171.127 157.307 147.458 145.936 143.758 146.456 140.605 136.535 117.187 102.783 99.3155 93.5156 88.4122 74.8676 74.8069 72.7835 70.1337 65.084 64.2411 69.23 57.6405 57.1906 54.8248 52.7668
threshold=41.500000000000007 2562.0900000000006 1929.2250000000001 1.0000000180025095e-35 1.0000000180025095e-35 1.0000000180025095e-35 1.0000000180025095e-35 8.0000000000000018 -1.0812382149591448 1.0000000180025095e-35 0.008486010950854701 202004.50000000003 3046.6300000000006 2.5833333333333353 1.0000000180025095e-35 -234.03842857142948 1.0000000180025095e-35 -1.0000000180025095e-35 21.583333333333353 962.71900000000016 397.42500000000001 323.54500000000007 -0.107142857142857 3620.5000000000005 202003.50000000003 0.10232558139534902 97.515000000000015 379.84500000000008 176.58692857142853 202001.50000000003
decision_type=2 2 2 8 8 2 2 10 8 2 10 2 2 10 2 8 10 10 10 8 8 2 10 10 2 10 10 10 10 2
left_child=1 4 3 8 5 7 12 10 -2 18 11 17 15 -5 23 -3 -15 -1 21 -10 22 -4 -16 -13 -17 28 -7 -24 -26 -12
right_child=2 6 9 13 -6 26 -8 -9 19 -11 29 14 -14 16 20 24 -18 -19 -20 -21 -22 -23 27 -25 25 -27 -28 -29 -30 -31
leaf_value=0.028945714178050339 0.051774048965282989 0.067276487612343547 -0.0089754825798561283 -0.021543528555441897 0.00815268842113623 0.065048802010407344 -0.020513206272170063 0.082924430617386455 0.028708981630681814 -0.027636756983579622 0.055256371427698757 0.027965455988159239 -0.0075436534597306693 0.0094737397532320307 0.086752154194475295 -0.0044177824914508213 0.12055649850043391 0.0046554545234924619 0.064433018797962122 0.0017338866140582836 0.030685922319777865 -0.020945448476585488 0.043212538787375639 0.055699477926176778 0.012744125841162841 0.06382901299637464 0.042943276293199301 0.071390332351843624 0.049577078897251672 0.0051607587444641367
leaf_weight=438.6398742464371 91.180106044746935 34.586944411508739 621.94162193778902 424.32325941417366 363.78430727496743 173.13728071888909 213.18761626724154 49.828984123189002 131.31852917699143 2370.7973476881161 19.832137578167021 641.99041445367038 285.06037345062941 27.882230400107801 56.482865602709353 116.76020799810067 9.341640417929737 200.90341588016599 11.518350998871027 280.54178709443659 132.48729055887088 1523.2243617428467 225.2483168207109 83.081949051935226 309.68353034649044 29.679243100807071 251.52956284303218 86.73275374667719 39.6282594576478 233.50285872258246
leaf_count=20137 5313 2105 121381 94998 36200 1302 43951 735 15200 606271 1085 25420 46208 5264 1694 12408 446 13992 1015 38016 6962 347777 11774 3892 29991 2186 1931 3702 3279 14550
internal_value=0 0.0240004 -0.0183974 0.00127115 0.0313024 0.0345496 0.00300724 0.0311413 0.0178459 -0.0225878 0.0299235 0.0327537 0.00915671 -0.0167937 0.0387204 0.0181333 0.0373509 0.0213153 -0.0170376 0.0103347 0.0496873 -0.017475 0.0565196 0.0311433 0.0147047 0.020596 0.0519557 0.0510461 0.0169227 0.00908246
internal_weight=0 3985.77 5492.07 964.588 2957.18 2593.4 1028.59 2168.73 503.04 4527.48 2118.9 1865.57 815.399 461.547 1226.02 530.338 37.2239 639.543 2156.68 411.86 500.951 2145.17 368.464 725.072 495.751 378.991 424.667 311.981 349.312 253.335
internal_count=1519185 283504 1235681 159237 143376 107176 140128 103943 58529 1076444 103208 87573 96177 100708 53444 49969 5710 34129 470173 53216 24132 469158 17170 29312 47864 35456 3233 15476 33270 15635
is_linear=0
shrinkage=0.0294851


Tree=19
num_leaves=31
num_cat=0
split_feature=31 13 150 327 66 331 204 53 206 208 286 45 10 200 217 313 347 157 207 204 187 237 74 45 252 208 279 207 43 254
split_gain=4484.99 666.528 466.162 301.087 271.832 222.234 197.27 159.623 149.134 149.125 132.122 134.452 121.582 111.367 99.0083 97.4794 93.0572 92.0055 79.0483 75.8882 87.032 75.6446 74.385 69.3655 67.0714 62.7842 62.224 60.7476 58.4648 54.1647
threshold=41.500000000000007 2780.3850000000007 0.042857142857142858 1.0000000180025095e-35 -0.107142857142857 1.0000000180025095e-35 24875.755000000005 0.0042101735105605506 0.41666666666666657 1.0000000180025095e-35 1.0000000180025095e-35 1.0000000180025095e-35 2.5000000000000004 4976.3450000000012 9.7500000000000018 -8637.7850000000035 1.0000000180025095e-35 0.21428571428571455 -644.67000000000189 24875.755000000005 240.42416666666654 30.250000000000004 -1.0000000180025095e-35 434.79065384615404 87.750000000000014 1.0000000180025095e-35 174.97500000000002 -1451.6474999999998 4.5000000000000009 11.500000000000002
decision_type=2 2 10 2 8 2 8 2 8 10 8 2 2 8 10 8 2 8 10 10 8 8 10 2 8 10 10 8 2 10
left_child=1 4 3 5 17 9 7 10 13 16 11 14 23 18 15 -6 19 24 -3 20 27 -17 -23 -4 -1 28 -11 -2 -20 -9
right_child=2 8 12 -5 6 -7 -8 29 -10 26 -12 -13 -14 -15 -16 21 -18 -19 25 -21 -22 22 -24 -25 -26 -27 -28 -29 -30 -31
leaf_value=0.0654527772188358 0.091274082271940504 0.066502177952385361 0.03411207892391549 -0.027225117539978701 0.072193515558791693 -0.020970120962917272 2.1892452884548317e-05 0.011718442081130216 -0.020600768749161499 0.072072529132166704 -0.0013636995443710364 -0.014169410050681517 0.088299778926325803 -0.013823285105619906 0.07410486757048057 0.011823246640699414 0.051265264811817896 0.030635262945434574 -0.0045654724314017313 -0.021748227541778308 -0.010253716676647722 0.065502676581819103 0.033645917740318269 -0.011484740607178606 0.043730245718860215 0.042290018348703079 0.015695547589210556 0.0066182900812068015 0.015089194444157497 0.073502447097938628
leaf_weight=184.39937682962045 7.5468545432668179 23.336789682973176 91.829265588195994 2459.2202515280806 58.20780499977991 1459.4154106446076 257.80791465751827 492.48732629884034 198.80945737054572 27.206403052899987 93.140196981839836 46.69291104702279 26.984029071638361 165.56245991028845 58.904739586170763 129.18081800825894 23.654873723629862 299.1267768451944 197.49202008917928 264.64751619310118 631.10574281332083 68.25729532726109 958.97263368219137 42.397179780295119 374.61570120044053 52.104487251024693 45.458050011424348 313.0821013560053 394.19455030141398 12.652798918541519
leaf_count=4112 1056 1608 3957 643253 1025 333892 26744 47614 40580 3785 5598 6058 1080 27937 2359 6587 2988 7103 21447 53498 129705 2141 32007 5077 8480 4106 7999 49391 37322 676
internal_value=0 0.0228194 -0.0181931 -0.019715 0.0297797 -0.0130525 0.0242381 0.0274923 0.00234381 -0.00424994 0.0325768 0.0349713 0.0311906 0.00782195 0.036773 0.0349625 -0.00665562 0.0438334 0.0131937 -0.00778201 -0.00389844 0.0330885 0.0357627 0.0197097 0.0508957 0.0112613 0.0368037 0.00861089 0.0085289 0.013266
internal_weight=0 4065.95 5392.55 5231.34 3034.45 2772.12 2176.3 1918.5 1031.5 1312.7 1413.36 1320.22 161.21 832.69 1273.52 1214.62 1240.04 858.142 667.128 1216.38 951.735 1156.41 1027.23 134.226 559.015 643.791 72.6645 320.629 591.687 505.14
internal_count=1519185 283504 1235681 1225567 150504 582314 130809 104065 133000 248422 55775 50177 10114 92420 44119 41760 236638 19695 64483 233650 180152 40735 34148 9034 12592 62875 11784 50447 58769 48290
is_linear=0
shrinkage=0.0294851


Tree=20
num_leaves=31
num_cat=0
split_feature=231 11 327 331 271 77 23 52 18 83 1 1 197 18 76 186 314 18 18 313 268 305 50 286 320 166 207 50 35 37
split_gain=4220.27 625.53 398.148 341.243 218.841 195.085 157.513 141.972 133.558 144.951 121.535 98.9179 95.2399 92.7986 103.57 87.0641 92.0201 85.7907 83.5768 115.746 79.2745 74.6771 71.4369 70.2888 63.0101 61.569 61.2313 60.418 64.9406 59.7703
threshold=39.500000000000007 2562.0900000000006 1.0000000180025095e-35 1.0000000180025095e-35 -17.499999999999996 -209.72487272155948 1.0000000180025095e-35 310.05000000000001 25751.385000000006 -2720.3829999999994 202004.50000000003 202001.50000000003 32527.965000000004 11013.885000000002 -0.15042857142857149 172.71500000000003 1089.5450000000003 156840.96500000003 21836.645000000004 -11847.484999999999 1.0000000180025095e-35 -1.4999999999999998 9139.9550000000017 1.0000000180025095e-35 -1.4999999999999998 2.7443092092279852e-05 -24.757500000000949 10603.375000000002 164.50000000000003 -2022.9999999999998
decision_type=8 2 2 2 8 10 2 2 2 8 2 2 10 2 8 10 10 2 2 8 10 8 2 8 8 8 10 2 8 10
left_child=1 5 3 4 11 17 7 12 9 -7 -11 -2 18 14 -6 16 22 21 19 -3 -21 -1 24 25 -16 -23 -13 28 -12 -22
right_child=2 6 -4 -5 13 8 -8 -9 -10 10 27 26 -14 -15 15 -17 -18 -19 -20 20 29 23 -24 -25 -26 -27 -28 -29 -30 -31
leaf_value=0.052395790744403974 0.074519121501721713 0.10894942662275763 -0.027030098328997609 -0.020977006885072688 0.076362329003145449 0.055321992905290662 -0.019897803432455431 -0.0081700250540691771 -0.004538981662290823 0.0061111770981111284 -0.00090759032060299056 0.045681969474267774 -0.0053048619396820406 -0.018795809594773758 0.062068355562847628 -0.010183230002001987 0.06426147668662531 -0.0021169293101380433 -0.0058783548454824485 0.019508395798059124 0.0092829979587797391 0.037481133481575522 -0.012747198972148911 0.0036513104761724869 0.0095716992854361534 0.018245445609248248 0.0073640044550128906 0.0040392709894301656 0.032645944155816745 0.077315375579262949
leaf_weight=214.55082168616354 32.706933182664216 15.105355943553148 2400.841981210513 1416.6515321589541 15.021497602574525 112.93714010715485 220.9911231987644 307.58229078096338 167.99283367418684 358.33142643678002 54.55856204777956 51.381341913249344 131.35192356444895 325.28317698836327 21.818269143579528 480.04437893419527 24.126435270067304 52.488843985600397 71.23459977703169 294.54481959342957 15.676950558554379 1199.638767747907 130.69749448960647 64.452168239280581 223.41075550206006 164.49751687492244 123.15736570418812 88.631365888519213 620.18073205742985 39.550824582576752
leaf_count=1943 3125 438 643405 330775 479 2912 47897 49229 14272 24745 3481 4846 16603 61861 2776 99024 2999 2985 7255 25633 1295 41317 24343 3502 32599 10448 18493 9927 26897 3681
internal_value=0 0.0214888 -0.0181881 -0.0107246 -0.000551147 0.0282614 0.00234435 0.00796155 0.0201265 0.0234827 0.020277 0.0274622 0.0167053 -0.00530831 -0.000406994 -0.00171729 0.00844143 0.0349905 0.0233346 0.0290377 0.0255867 0.0361759 0.00485898 0.0337399 0.0142424 0.0351616 0.0186442 0.0269265 0.0299328 0.0580037
internal_weight=0 4194.3 5245.14 2844.3 1427.65 3098.26 1096.04 875.047 1402.63 1234.64 1121.7 207.246 567.464 1220.4 895.119 880.097 400.053 1695.63 436.113 364.878 349.773 1643.14 375.927 1428.59 245.229 1364.14 174.539 763.371 674.739 55.2278
internal_count=1519185 294460 1224725 581320 250545 142429 152031 104134 82234 67962 65050 26464 54905 224081 162220 161741 62717 60195 38302 31047 30609 57210 59718 55267 35375 51765 23339 40305 30378 4976
is_linear=0
shrinkage=0.0294851


Tree=21
num_leaves=31
num_cat=0
split_feature=339 23 13 66 50 327 10 351 83 341 285 46 83 46 105 28 313 8 94 233 286 139 263 94 192 111 182 96 90 170
split_gain=3849.26 1162.5 392.816 265.191 220.551 219.93 206.566 174.44 166.93 143.797 143.285 140.961 127.817 117.623 111.861 110.115 107.205 103.934 101.864 84.9764 79.4176 75.8861 68.5997 63.9231 63.3099 65.1355 63.0956 55.1896 54.0362 52.7493
threshold=1.0000000180025095e-35 1.0000000180025095e-35 8252.0050000000028 -0.107142857142857 3677.7150000000006 1.0000000180025095e-35 3.5000000000000004 1.0000000180025095e-35 1304.3759999999952 1.0000000180025095e-35 51763.610000000008 1.0000000180025095e-35 -4102.6339999999991 8.0000000000000018 1.0000000180025095e-35 1.5000000000000002 -33802.734999999993 7.5000000000000009 0.12857142857142853 18.500000000000004 1.0000000180025095e-35 1.0000000180025095e-35 -1.0000000180025095e-35 0.12857142857142853 -2478.5899999999997 0.18333333333333354 197.13500000000002 88.116571428571362 -0.042857142857142844 0.00015771246255689503
decision_type=2 2 2 10 2 2 2 2 8 2 8 8 10 10 10 2 8 2 10 10 10 10 10 10 10 10 10 10 10 10
left_child=1 2 3 8 10 7 -3 9 13 26 12 -8 -5 22 20 21 -12 18 -4 23 24 27 -1 -6 29 -26 -2 -16 -27 -14
right_child=5 6 17 4 19 -7 11 -9 -10 -11 16 -13 14 -15 15 -17 -18 -19 -20 -21 -22 -23 -24 -25 25 28 -28 -29 -30 -31
leaf_value=0.060101420195151543 0.0051566573679862841 -0.020781227216633266 0.0065888276113459021 0.063920671032937137 -0.0001324868437762593 -0.027073027785792639 0.0033903132977684881 0.13566309587947162 -0.0036638862739468972 -0.021119248026129932 0.059450073867285451 0.11681254689973895 0.041401565269024304 0.077298961502118249 0.026440218309664837 0.10427435468566451 -0.0033013335760881282 -0.011700885327792272 0.048144166536536498 0.084988026259300894 -0.0081988408687639867 0.079665586679802336 0.036799226070201807 0.028904079596367167 0.012451892032859999 0.060640666732758738 -0.010891926528359196 0.059338954667769561 0.025618356153371928 0.012502600527552261
leaf_weight=129.43828770890832 294.81477564317174 685.87931328546256 408.18947011674754 90.832964481320232 456.4842489073053 2152.4437164450064 24.066143768373877 6.7490272894501677 69.917876832885668 1277.4835484989453 27.023017316125333 15.766831298358737 296.25769113656133 81.993811046238989 213.23945884872228 23.915419305674732 190.68020972283557 251.55406622844748 58.651795147918165 11.523616916965691 63.074973775073886 34.602669136598706 725.15619860519655 77.036817553918809 389.7518218876794 42.032867642119527 767.22539783315733 55.965386246331036 431.28581504151225 67.404040807858109
leaf_count=773 47569 152535 47594 2386 57125 592497 4751 442 2927 303135 599 1032 6694 1114 11920 939 18488 39143 5231 462 2855 2066 20503 7375 16025 1973 146851 2129 19171 2881
internal_value=0 0.0174667 0.0234262 0.0275265 0.0223301 -0.0202665 -0.0169903 -0.0140223 0.0402844 -0.0144541 0.027016 0.0482855 0.0298868 0.0435652 0.0279756 0.0433581 0.00448786 0.00357718 0.0118096 0.00577121 0.0240672 0.0385628 0.0403286 0.0040602 0.0257262 0.0213782 -0.00643695 0.0332796 0.0287285 0.0360452
internal_weight=0 4921.72 4196.01 3477.62 2471.11 4498.72 725.712 2346.27 1006.51 2339.52 1926.07 39.833 1708.36 936.588 1617.53 327.723 217.703 718.395 466.841 545.045 1289.81 303.808 854.594 533.521 1226.73 863.071 1062.04 269.205 473.319 363.662
internal_count=1519185 428691 270373 178405 153088 1090494 158318 497997 25317 497555 88126 5783 69039 22390 66653 17054 19087 91968 52825 64962 49599 16115 21276 64500 46744 37169 194420 14049 21144 9575
is_linear=0
shrinkage=0.0294851


Tree=22
num_leaves=31
num_cat=0
split_feature=231 11 200 23 66 351 70 53 23 258 23 52 38 203 35 5 331 217 8 262 262 321 23 31 43 60 136 43 193 68
split_gain=3759.35 515.372 391.385 258.582 204.677 153.165 150.828 137.948 137.501 123.347 117.121 113.339 102.228 99.1962 97.2349 94.8147 91.9319 76.1465 74.9683 72.4413 70.8225 69.8174 60.2104 58.9093 58.4503 58.002 57.1756 57.0592 51.4621 51.3593
threshold=39.500000000000007 3716.0400000000004 1485.0300000000002 19858.875000000004 -0.107142857142857 1.0000000180025095e-35 0.27142857142857152 0.0092480101719189262 1.0000000180025095e-35 -1.0000000180025095e-35 1.0000000180025095e-35 310.05000000000001 23.500000000000004 1.0000000180025095e-35 164.50000000000003 21945.960000000003 1.0000000180025095e-35 17.250000000000004 7.5000000000000009 1.5700000000000103 -1.0000000180025095e-35 -1310.0915263605448 1.0000000180025095e-35 107.50000000000001 3.5000000000000004 176.58692857142853 0.20810810810810804 10.500000000000002 2.1666666666666656 -937.12514285714292
decision_type=8 2 8 2 10 2 10 2 2 10 2 2 10 8 8 2 2 10 2 10 10 8 2 2 2 10 8 2 10 10
left_child=1 4 3 9 13 8 -5 14 16 -2 11 18 -9 19 -6 17 -4 22 20 26 -3 -11 29 27 -22 -26 -1 28 -23 -16
right_child=2 10 5 6 7 -7 -8 12 -10 21 -12 -13 -14 -15 15 -17 -18 -19 -20 -21 24 23 -24 -25 25 -27 -28 -29 -30 -31
leaf_value=0.047973889468727778 0.045261916320799844 0.071371057252396022 -0.0078623598778481737 -0.020501381277157144 1.038339078538373e-06 0.14214999734353972 0.097774892451627418 0.0048657404722903096 -0.027334296475563371 0.058302692694055816 -0.019608077325132093 -0.0097216905911630767 0.091518569827591045 -0.0018200369734872462 0.041967233251534952 0.0087713865702769272 -0.021078405125068041 0.070455974870288526 -0.0039464335512120873 0.015631055506932497 -0.0055523402418899501 0.0020188234025329136 -0.0098040977289067556 -0.0137108753722171 0.019750374980570994 0.065116385276094771 0.031626761681263736 0.04957837354988779 0.041147074003551623 0.026267183269930286
leaf_weight=502.20444926153868 85.213013679720461 23.202535828109831 698.30507032223977 424.14936165208928 135.22658806154504 4.9489164033439001 9.5851430478505772 502.61222973582335 2065.1796167676803 21.606627782108262 200.0431310730055 265.25156015367247 12.121557262260465 55.152576504275203 211.85714724333957 241.66953402152285 1327.3814638881013 36.948964984389022 140.1809223163873 102.8877067421563 71.169531392399222 248.59054043027572 36.485101186903194 118.4733185172081 223.85893836384639 27.512393521144986 295.43206701288 29.713458146667108 33.114819447277114 1249.4837686363608
leaf_count=9835 3890 2018 143851 101820 9277 440 574 51588 587169 2536 45645 44042 493 2374 4668 13807 324215 1787 15831 2870 7448 33945 4300 17985 20932 2172 5925 4001 4299 49448
internal_value=0 0.0196144 -0.0177932 -0.000956902 0.0250071 -0.0217823 -0.0178876 0.0204549 -0.0219806 0.0127253 0.000440769 0.00577991 0.00690634 0.0365648 0.024103 0.0259377 -0.0165225 0.0286407 0.0142418 0.0389157 0.0216161 0.00658459 0.0276092 0.00398521 0.0180369 0.0247156 0.0419192 0.0107173 0.0066184 0.0285433
internal_weight=0 4333.3 5066.26 970.446 3382.08 4095.82 433.735 2426.4 4090.87 536.712 951.219 751.176 514.734 955.677 1911.67 1776.44 2025.69 1534.77 485.924 900.524 345.743 451.499 1497.83 429.892 322.541 251.371 797.637 311.419 281.705 1461.34
internal_count=1519185 294460 1224725 169050 156372 1055675 102394 135368 1055235 66656 138088 92443 52081 21004 83287 74010 468066 60203 48401 18630 32570 62766 58416 60230 30552 23104 15760 42245 38244 54116
is_linear=0
shrinkage=0.0294851


Tree=23
num_leaves=31
num_cat=0
split_feature=231 13 358 200 199 263 18 199 232 232 203 107 6 263 46 273 354 57 13 334 109 13 18 29 6 142 173 52 235 308
split_gain=3543.4 487.294 386.774 306.142 203.689 194.193 211.313 149.909 114.624 105.668 104.777 113.785 98.7581 94.4045 86.2473 85.4478 83.4752 89.1021 78.013 77.6012 76.8645 70.1926 77.5657 64.2001 79.3245 63.1154 60.964 54.6756 54.3887 54.1187
threshold=39.500000000000007 2780.3850000000007 1.0000000180025095e-35 4104.8600000000015 -817.91999999999837 -1.0000000180025095e-35 25751.385000000006 136.57750000000001 1.0000000180025095e-35 1.0000000180025095e-35 -2892.6149999999993 1.0000000180025095e-35 -257.17999999999995 -1.0000000180025095e-35 8.0000000000000018 -13.999999999999998 1.0000000180025095e-35 2334.2230000000004 12136.01 1.0000000180025095e-35 0.14575289575289602 12136.01 18034.085000000003 1.0000000180025095e-35 -70.214999999999989 30.557142857142853 32.500000000000007 13800.150000000001 3842.6416666666655 -1.0000000180025095e-35
