tree
version=v4
num_class=1
num_tree_per_iteration=1
label_index=0
max_feature_idx=166
objective=binary sigmoid:1
feature_names=numero_de_cliente foto_mes internet cliente_edad mrentabilidad_annual mactivos_margen mpasivos_margen cproductos mcuenta_corriente ccaja_ahorro mcaja_ahorro mdescubierto_preacordado mcuentas_saldo ctarjeta_visa_trx mtarjeta_visa_consumo mprestamos_personales cpayroll_trx mpayroll mcuenta_debitos_automaticos mcomisiones_mantenimiento Master_mfinanciacion_limite Master_Fvencimiento Master_fechaalta Visa_Fvencimiento Visa_Finiciomora Visa_fechaalta Visa_mpagominimo mes ctrx_quarter_normalizado mpayroll_sobre_edad mv_status01 mv_mpagominimo mactivos_margen_lag1 mrentabilidad_annual_delta1 mcuenta_corriente_delta1 mcaja_ahorro_dolares_delta1 mdescubierto_preacordado_delta1 mcuentas_saldo_delta1 chomebanking_trx_delta1 ctrx_quarter_delta1 cliente_edad_lag2 mrentabilidad_annual_lag2 mcomisiones_lag2 mactivos_margen_lag2 mcuenta_corriente_lag2 mcuentas_saldo_lag2 Master_Fvencimiento_lag2 Master_fechaalta_lag2 Visa_fechaalta_lag2 mpayroll_sobre_edad_lag2 mactivos_margen_delta2 cproductos_delta2 mcuenta_corriente_delta2 mcuentas_saldo_delta2 mtarjeta_visa_consumo_delta2 mprestamos_personales_delta2 mtarjeta_visa_debitos_automaticos_delta2 mtransferencias_emitidas_delta2 ccallcenter_trx_delta2 chomebanking_trx_delta2 ctrx_quarter_delta2 Visa_fechaalta_delta2 mv_status06_delta2 internet_avg6 cliente_edad_avg6 mrentabilidad_tend6 mrentabilidad_avg6 mrentabilidad_annual_tend6 mactivos_margen_tend6 mactivos_margen_avg6 mpasivos_margen_tend6 cproductos_tend6 cproductos_avg6 mcuenta_corriente_tend6 mcuenta_corriente_avg6 mcaja_ahorro_tend6 mcaja_ahorro_avg6 mdescubierto_preacordado_tend6 mcuentas_saldo_tend6 ctarjeta_visa_trx_tend6 ctarjeta_visa_trx_avg6 mtarjeta_visa_consumo_tend6 cprestamos_personales_tend6 mprestamos_personales_tend6 mpayroll_avg6 ccomisiones_mantenimiento_tend6 mcomisiones_mantenimiento_tend6 mcomisiones_mantenimiento_avg6 mtransferencias_recibidas_tend6 mtransferencias_recibidas_avg6 tcallcenter_tend6 chomebanking_trx_tend6 chomebanking_trx_avg6 ctrx_quarter_tend6 tmobile_app_avg6 Master_mfinanciacion_limite_avg6 Master_Fvencimiento_tend6 Master_Fvencimiento_avg6 Master_fechaalta_tend6 Visa_Fvencimiento_tend6 Visa_Fvencimiento_avg6 Visa_fechaalta_tend6 Visa_fechaalta_avg6 Visa_mpagominimo_avg6 ctrx_quarter_normalizado_tend6 mv_status01_tend6 mv_status07_tend6 mv_Finiciomora_avg6 mv_mpagominimo_avg6 mrentabilidad_tend3 mrentabilidad_min3 mrentabilidad_annual_tend3 mrentabilidad_annual_min3 mactivos_margen_min3 mpasivos_margen_tend3 mpasivos_margen_min3 cproductos_tend3 mcuenta_corriente_min3 ccaja_ahorro_tend3 mcaja_ahorro_tend3 mdescubierto_preacordado_tend3 mcuentas_saldo_tend3 mcuentas_saldo_min3 ctarjeta_visa_trx_tend3 mprestamos_personales_min3 cpayroll_trx_min3 mpayroll_tend3 mcomisiones_mantenimiento_tend3 Master_mfinanciacion_limite_tend3 Master_fechaalta_min3 Visa_fechaalta_tend3 Visa_mpagominimo_tend3 Visa_mpagominimo_min3 mpayroll_sobre_edad_tend3 mpayroll_sobre_edad_min3 mv_msaldopesos_min3 mv_mpagominimo_tend3 internet_rank cliente_edad_rank mrentabilidad_annual_rank mactivos_margen_rank mpasivos_margen_rank cproductos_rank mcuenta_corriente_rank ccaja_ahorro_rank mcaja_ahorro_rank mdescubierto_preacordado_rank mcuentas_saldo_rank ctarjeta_visa_trx_rank mtarjeta_visa_consumo_rank mprestamos_personales_rank cpayroll_trx_rank mpayroll_rank mcuenta_debitos_automaticos_rank mcomisiones_mantenimiento_rank mtransferencias_recibidas_rank ctrx_quarter_rank tmobile_app_rank Master_mfinanciacion_limite_rank Visa_Finiciomora_rank Visa_mpagominimo_rank ctrx_quarter_normalizado_rank mpayroll_sobre_edad_rank mv_status01_rank mv_status07_rank mv_msaldopesos_rank mv_mpagominimo_rank
feature_infos=[4572973:61051692] [202001:202011] [0:3] [18:100] [-665150.17000000004:5541331.4299999997] [-177929.28:327458.08000000002] [-63476.099999999999:1473863.4399999999] [3:17] [-3573070.3300000001:27796658.640000001] [2:10] [-450.33999999999997:91519566.409999996] [0:1.1699999999999999] [-4150591.0499999998:104925298.90000001] [0:252] [0:2544748.79] [0:4564839.0099999998] [0:43] [-39975.389999999999:18030116.41] [0:39325004.759999998] [-13913.34:5894.46] [0:163743139.72999999] [-2914603:6425] [1:7481] [-2914603:5054] [0:174] [1:12396] [0:2122497] [1:11] [0:2934] [-701.32263157894704:444450] [0:9] [0:4111766.1000000001] [-164920.16:273997.48999999999] [-632093.54000000004:1722761.6599999999] [-6206622.7400000002:9467413.0199999996] [-18048612.989999998:16262112.220000001] [-1.1699999999999999:1.1699999999999999] [-53212306.119999997:24186428.809999999] [-9194:4120] [-548:657] [0:100] [-646491.56000000006:6368595.3099999996] [-97351.679999999993:194790.85000000001] [-149618.01999999999:325255.12] [-3454558.1899999999:20374146.780000001] [-3571814.6400000001:205746678.09999999] [-2914665:6363] [1:7420] [1:12334] [-1937.23130434783:652662.88043478294] [-239635.12:257979.79000000001] [-7:5] [-10160995.77:8851479.7400000002] [-152488259.37:91497360.129999995] [-3541209.8799999999:2370648.48] [-1474452.71:2965743.8399999999] [-189582.34:263376.53999999998] [-34348767.490000002:26031548.43] [-369:89] [-6866:5351] [-1206:1611] [-9196:5260] [-10:10] [0:1.5] [12.5:99.8333333333333] [-146821.432571429:260032.60214285701] [-73379.401666666701:492092.48499999999] [-583336.72657142906:347547.42657142802] [-84910.399142857103:90180.676999999996] [-133608.26999999999:233403.44333333301] [-133433.07757142899:222417.50628571399] [-2.5:4] [3:17.8333333333333] [-3538123.8877142901:2079035.72942857] [-1819055.8883333299:23721454.971666701] [-2278308.8268571398:13822858.8548571] [-11.16:16758767.560000001] [-1.1699999999999999:1.1699999999999999] [-24040979.574571401:20904873.7624286] [-42:54.542857142857201] [0:340.83333333333297] [-245362.21057142899:405570.88457142899] [-10.8571428571429:34.857142857142897] [-278040.67714285699:742877.09171428601] [-12792.389999999999:10660416.585000001] [-28:10.1428571428571] [-8738.0599999999995:3113.65942857143] [-5530.8900000000003:5041.3400000000001] [-18856640.399428599:15613155.2842857] [0:78975717.666666701] [-1:1] [-1003.54285714286:1178.9000000000001] [0:3202.5] [-235.28571428571399:557.11428571428598] [0:1] [0:29764357.664999999] [-711414.96511627897:1456800.5] [-2914619:6348.1666666666697] [-1414:400.857142857143] [-666025.68571428605:2913113] [-2915111.5:4977.3333333333303] [-3461:1329.5142857142901] [16:12319.166666666701] [0:1171836.8999999999] [-235.28571428571399:557.11428571428598] [-9:9] [-10:9] [0:98.5] [0:1326407.55] [-140552.64499999999:861607.17500000005] [-177667.95999999999:472364.65999999997] [-642843.29499999899:942200.84500000102] [-691722.33999999997:5541331.4299999997] [-177929.28:224359.97] [-83379.255000000005:736689.56000000006] [-75591.610000000001:424978.10999999999] [-3.5:4] [-3573070.3300000001:20374146.780000001] [-2:2] [-5524215.0800000001:45757823.375] [-1.1699999999999999:1.1699999999999999] [-76244129.685000002:45748680.064999998] [-4150591.0499999998:98051673.650000006] [-295.5:91.5] [0:4276589.6100000003] [0:28] [-15011246.25:8603678.5800000001] [-8738.0599999999995:7858.3249999999998] [-36636863.200000003:80349055.700000003] [1:7432] [-4598:2630] [-1377324:684724.950000001] [0:874481.40000000002] [-326331.44021739101:213212.876052632] [-3912.0753488372102:188429.603142857] [-963860.29000000004:6015857.4100000001] [-1221978.4199999999:2055883.05] [6.4226488288299896e-06:1] [6.2739980425126098e-06:1] [6.2739980425126098e-06:1] [6.2739980425126098e-06:1] [6.7633830441987099e-06:1] [6.3124936875063103e-06:0.99999325845726506] [6.6745871767831197e-06:1] [6.2739980425126098e-06:1] [2.0581919469809801e-05:1] [7.0113443551666598e-06:1] [6.6745871767831197e-06:1] [6.3124936875063103e-06:1] [6.8606398232699199e-06:1] [6.6745871767831197e-06:1] [6.3124936875063103e-06:0.99998726301242502] [6.7633830441987099e-06:1] [7.0113443551666598e-06:1] [1.3721279646539799e-05:0.99999368750631201] [6.2739980425126098e-06:0.99998665082564597] [6.7633830441987099e-06:1] [6.3124936875063103e-06:1] [1.4022688710333299e-05:1] [6.3124936875063103e-06:0.99999298865564501] [1.3349174353566201e-05:1] [1.2736987575068599e-05:1] [1.35267660883974e-05:1] [6.3124936875063103e-06:1] [1.3721279646539799e-05:1] [1.2547996085025199e-05:1] [1.2547996085025199e-05:1]
tree_sizes=3480 3514 3549 3537 3535 3540 3562 3580 3564 3572 3559 3581 3567 3562 3576 3569 3566 3588 3580 3568 3579 3579 3577 3569 3583 3587 3597 3583 3582 3601 3590 3590 3577 3601 3586 3580 3582 3605 3579 3584 3588 3587 3597 3590 3586 3594 3589 3607 3591 3599 3601 3583 3577 3582 3573 3587 3604 3590 3588 3588 3601 3581 3596 3596 3589 3603 3603 3596 3594 3581 3585 3617 3608

Tree=0
num_leaves=31
num_cat=0
split_feature=77 161 12 164 85 145 161 135 14 6 27 102 105 161 16 17 14 124 122 14 16 12 124 14 85 16 27 71 45 6
split_gain=49328.6 20123.1 8467.84 5142.18 2441.85 1520.4 1099.34 965.601 904.279 715.148 631.581 496.636 467.508 415.379 329.225 323.048 374.525 465.699 235.677 230.927 382.685 304.17 292.584 197.73 165.587 100.814 95.1803 89.3495 76.0168 72.9979
threshold=-0.15042857142857149 0.10039578554026853 -1.0000000180025095e-35 0.93450810029998965 0.12857142857142853 0.1668456873959295 0.20002093154294201 1751.9100000000001 848.07000000000005 77.605000000000004 4.5000000000000009 207.66666666666654 0.60769230769230764 0.033299185604135507 1.0000000180025095e-35 1.0000000180025095e-35 3054.8500000000008 4173.7200000000003 3960.8500000000004 1933.3900000000001 1.0000000180025095e-35 12149.110000000002 10219.860000000002 848.07000000000005 0.12857142857142853 1.0000000180025095e-35 4.5000000000000009 -0.12857142857142848 50523.750000000007 323.74500000000006
decision_type=8 2 2 2 10 2 2 8 2 2 2 10 10 2 2 2 2 8 8 2 2 2 8 2 10 2 2 8 8 2
left_child=-1 2 3 4 8 7 9 10 13 15 -4 -12 19 -2 18 16 17 -3 23 20 21 22 -8 -7 27 29 -20 -11 -28 -21
right_child=1 6 5 -5 -6 14 12 -9 -10 24 11 -13 -14 -15 -16 -17 -18 -19 26 25 -22 -23 -24 -25 -26 -27 28 -29 -30 -31
leaf_value=-2.4369192829434931 -4.2979284045153623 -4.6349520480116544 -4.8199517674462564 -3.5763126853274363 -3.9631368354046987 -4.7581549863377779 -4.8086969291726041 -4.9881198563688987 -4.8819784157456807 -4.9791837822174703 -4.7026127723125857 -4.3685901422219029 -4.8467776569156014 -4.6255349618215575 -5.117335113784911 -5.1115473285169326 -4.9914818307333713 -4.9873192611473645 -5.0843768996875989 -5.0964530260267162 -5.1256061748059949 -5.0755543201339499 -5.0853528148886555 -4.9808426992341026 -4.9300792325512059 -5.1405119645531494 -4.8882280494270924 -5.0932236429228599 -5.0318406416858048 -5.1273760866681384
leaf_weight=50.624144360423088 46.792687275446951 74.465714391786605 74.60994268162176 53.891229561064392 48.862050320953131 73.575261190067977 77.632466827053577 69.724991783965379 66.232157886959612 53.163816922809929 55.346054325811565 73.543907290324569 42.798189496155828 66.451635828241706 91.760572389233857 44.18403560994193 87.835053511895239 41.406072560697794 59.378176727797836 725.23021381767467 610.53106595948339 198.2575177368708 41.681987616233528 45.958671178668737 53.953937348909676 3767.4258540053852 59.616467054001987 586.08749935217202 46.579480072949082 2138.8998752837069
leaf_count=8073 7462 11875 11898 8594 7792 11733 12380 11119 10562 8478 8826 11728 6825 10597 14633 7046 14007 6603 9469 115652 97361 31616 6647 7329 8604 600789 9507 93463 7428 341089
internal_value=-5.05919 -5.0732 -4.70163 -4.31637 -4.49104 -4.86889 -5.11375 -4.71761 -4.63476 -5.02787 -4.62492 -4.51202 -5.12438 -4.49017 -4.97857 -4.90509 -4.86031 -4.76087 -4.9339 -5.12595 -5.0866 -5.01161 -4.90535 -4.84377 -5.07178 -5.13146 -4.99897 -5.08374 -4.95122 -5.11955
internal_weight=0 9475.88 932.323 282.23 228.339 650.094 8543.55 273.225 179.476 941.096 203.5 128.89 7602.46 113.244 376.869 247.891 203.707 115.872 285.108 7559.66 928.103 317.572 119.314 119.534 693.205 6631.56 165.574 639.251 106.196 2864.13
internal_count=1519185 1511112 148677 45007 36413 103670 1362435 43571 28621 150076 32452 20554 1212359 18059 60099 39531 32485 18478 45466 1205534 148004 50643 19027 19062 110545 1057530 26404 101941 16935 456741
is_linear=0
shrinkage=1


Tree=1
num_leaves=31
num_cat=0
split_feature=28 145 82 55 62 14 145 149 85 17 15 149 147 15 48 27 162 149 53 8 152 66 166 7 27 140 161 27 147 149
split_gain=14104.3 2782.64 1902.61 1282.41 1122.08 930.4 685.215 587.612 558.015 496.94 473.618 743.46 611.528 433.552 273.733 238.93 207.669 313.068 200.257 172.988 152.011 132.477 128.005 123.794 114.105 101.114 97.8158 91.0665 81.2993 66.3595
threshold=27.500000000000004 0.1001321455318495 -0.13571428571428598 1.0000000180025095e-35 5.0000000000000009 1933.3900000000001 0.1668456873959295 0.26620113575212706 0.12857142857142853 1.0000000180025095e-35 25817.065000000006 0.23295328625881154 0.33341187485397406 21817.475000000002 936.50000000000011 4.5000000000000009 0.50096253022431314 0.19987076649004654 -1.0000000180025095e-35 -4439.8999999999987 0.43388288948650955 2078.6895833333356 0.23299296224772953 6.5000000000000009 6.0000000000000009 0.59982753373237319 0.26661358249220807 8.5000000000000018 0.36715955727750654 0.39898758005333057
decision_type=2 2 8 8 10 2 2 2 10 2 2 2 2 2 10 2 2 2 8 2 2 8 2 2 2 2 2 2 2 2
left_child=1 2 -1 5 6 8 7 13 14 10 11 12 15 20 19 -3 17 21 -17 -4 22 28 -2 -16 -21 -7 -9 -14 -8 -19
right_child=4 9 3 -5 -6 25 16 26 -10 -11 -12 -13 27 -15 23 18 -18 29 -20 24 -22 -23 -24 -25 -26 -27 -28 -29 -30 -31
leaf_value=0.64723136327698461 0.28656798778958947 0.19612227903591756 0.32958622857775188 0.0039942774243177563 0.21948103166897309 0.037628544522276014 0.12974788142459462 0.0097976791079356588 0.48694799460489208 -0.056199382291814898 -0.014342150226147618 0.0096802263052179552 0.045005389914317552 -0.030222161865579664 0.42541194640986091 0.46616252297988814 -0.078431945793794006 -0.033521675731497863 0.26768044023457355 0.12987869811170683 0.062585563554881929 -0.031945526182299899 0.12244281574098784 0.30208664736331065 0.26031059011226082 0.17674970630977377 -0.056647554733214436 0.17934701358686511 0.02199004992335022 -0.066504792176612454
leaf_weight=97.772002697456628 88.697061688173562 90.828375686425716 108.21306288614869 123.61561354715377 105.48568004556 77.325363676063716 88.473986490629613 234.32521278876811 139.92434581369162 139.76092401426286 153.28756903484464 178.69568087952211 106.87847542995587 110.35116830235347 121.0652640410699 74.805546294897795 4151.1336680110544 547.92283731233329 69.635124885477126 93.558681549504399 58.053486765362322 168.39559647114947 54.385068282019347 110.41040419833735 96.834951997268945 71.185363260563463 477.46790522476658 53.828130144160241 113.26258820528165 2059.0113867898472
leaf_count=3458 10202 9098 4365 9572 5236 8669 11119 35943 6896 21135 12831 24762 15018 13067 7312 7072 698243 89053 6871 7386 8241 23933 7198 8867 7591 7197 79246 7107 17086 345411
internal_value=0 0.200641 0.293568 0.256865 -0.053472 0.295055 -0.0570042 0.00745008 0.337334 0.0892752 0.117205 0.152294 0.216652 0.103937 0.297841 0.303163 -0.0662569 -0.0492804 0.370474 0.244549 0.177542 0.0232092 0.224185 0.366588 0.196217 0.104313 -0.0347735 0.0900027 0.0692485 -0.0595724
internal_weight=0 1907.62 1039.91 942.133 8256.97 818.517 8151.48 1023.28 670.007 867.72 727.959 574.671 395.976 311.487 530.082 235.269 7128.2 2977.07 144.441 298.607 201.136 370.132 143.082 231.476 190.394 148.511 711.793 160.707 201.737 2606.93
internal_count=1519185 175207 71313 67855 1343978 58283 1338742 153897 42417 103894 82759 69928 45166 38708 35521 23041 1184845 486602 13943 19342 25641 52138 17400 16179 14977 15866 115189 22125 28205 434464
is_linear=0
shrinkage=0.0842295


Tree=2
num_leaves=31
num_cat=0
split_feature=161 10 124 149 16 14 116 16 116 78 113 66 113 25 147 124 1 16 9 1 6 73 67 140 156 78 67 12 85 135
split_gain=10213.2 1498.98 1004.2 715.919 821.437 696.372 515.149 436.387 382.34 351.504 307.295 269.593 261.552 229.665 226.041 236.082 172.719 168.655 163.653 162.463 131.422 125.387 101.897 94.334 73.7814 67.6188 57.7951 53.9572 46.9935 46.8974
threshold=0.13382770881287501 196.06000000000003 24899.660000000003 0.23295328625881154 1.0000000180025095e-35 848.07000000000005 -1.0000000180025095e-35 1.0000000180025095e-35 -1.0000000180025095e-35 -1.0000000180025095e-35 -303.66499999999996 2078.6895833333356 -1.0000000180025095e-35 921.50000000000011 0.36715955727750654 24899.660000000003 202004.50000000003 1.0000000180025095e-35 2.5000000000000004 202006.00000000003 323.74500000000006 -158.29828571428547 -352.48385714286047 0.63253986562972664 0.26666501814151661 -1.0000000180025095e-35 92.925214285715057 2731.1550000000007 0.042857142857142858 1.0000000180025095e-35
decision_type=2 2 8 2 2 2 8 2 8 10 10 10 10 10 2 8 2 2 2 2 2 8 10 2 2 10 10 2 10 8
left_child=1 2 5 4 6 9 -2 8 -3 12 29 16 -1 -14 15 26 25 20 -6 -11 24 -4 -18 -7 28 -12 -8 -24 -5 -10
right_child=3 7 21 17 18 23 14 -9 10 19 11 -13 13 -15 -16 -17 22 -19 -20 -21 -22 -23 27 -25 -26 -27 -28 -29 -30 -31
leaf_value=0.36872839606312396 0.23231525878062473 0.27469501333464819 0.10677899236436517 -0.005578011966046321 -0.069036490029336095 0.043458409088024633 0.17968230508304689 -0.056447693654507504 0.050376107126078054 0.10493233410347999 0.11857006089709562 0.0063485490053726747 0.20781043602613214 0.32878502993883219 -0.019004293124861175 -0.039681129433981888 0.22347697096707175 -0.080802731715497109 0.079755485405056364 0.23969009617885276 -0.064448351195557974 -0.012540265539138925 0.16636118493374033 0.15324294508622444 -0.044431061613644456 0.0097095905887502817 0.09036728427735384 0.081471373370428202 0.090163012966140973 -0.037056838120225179
leaf_weight=224.08401713473722 110.26584921171889 73.294897856190801 120.41762164607644 280.09476874954998 778.7719337544404 114.26849994622171 100.41095366189256 170.42510394705459 60.329457624815404 116.41410096688196 75.968302599154413 157.60855780215934 269.80398905370384 189.55767418397591 288.32158166309819 76.097358647733927 133.53871419699863 3259.2738477247767 56.230304743628949 139.56322048930451 2017.9884299221449 129.87101250188425 123.85358019825071 108.02030267193913 521.32779876980931 86.660030779894441 105.30902216490358 93.015645367559046 41.800260241609067 156.24339638603851
leaf_count=6458 7317 4579 4636 44619 122494 12304 10831 27279 5710 7535 7800 18024 10243 8404 44062 9778 12599 602422 7693 7927 359631 9088 9198 9184 89609 9912 11275 10663 6149 21762
internal_value=0 0.140024 0.1979 -0.054869 -0.00303746 0.23087 0.065661 0.0677649 0.0898041 0.262593 0.0745299 0.1027 0.294124 0.257731 0.0334297 0.0870739 0.132299 -0.0677023 -0.0590166 0.178405 -0.0527793 0.044866 0.165594 0.0968077 -0.0248531 0.0605614 0.133962 0.129952 0.00685461 -0.0127011
internal_weight=0 2542.94 1412 7635.89 1515.41 1161.71 680.405 1130.94 960.513 939.423 887.218 670.645 683.446 459.362 570.139 281.817 513.036 6120.49 835.002 255.977 2861.21 250.289 350.408 222.289 843.223 162.628 205.72 216.869 321.895 216.573
internal_count=1519185 203305 75779 1315880 213450 62055 83263 127526 100247 40567 95668 68196 25105 18647 75946 31884 50172 1102430 130187 15462 500008 13724 32460 21488 140377 17712 22106 19861 50768 27472
is_linear=0
shrinkage=0.0842295


Tree=3
num_leaves=31
num_cat=0
split_feature=161 52 149 16 82 16 15 7 12 15 165 150 149 61 9 147 16 71 86 6 74 92 59 56 5 156 45 21 6 66
split_gain=7876.99 902.615 677.176 682.568 468.704 411.182 453.952 465.53 396.87 290.995 284.942 250.777 249.244 202.678 191.93 173.94 173.787 134.066 139.171 127.438 116.341 102.355 111.703 93.5618 69.8145 65.9202 51.8612 48.0386 46.2055 43.6441
threshold=0.13382770881287501 -1.0000000180025095e-35 0.23295328625881154 1.0000000180025095e-35 -0.13571428571428598 1.0000000180025095e-35 43919.55000000001 5.5000000000000009 1109.3950000000002 10836.530000000002 0.23295863117987003 0.8655932165906971 0.16656948551266651 60.500000000000007 3.5000000000000004 0.40061881408888256 1.0000000180025095e-35 -0.12857142857142848 98.958857142857354 323.74500000000006 -1016.4758333333349 1.0000000180025095e-35 1.0000000180025095e-35 -1.0000000180025095e-35 -70.984999999999985 0.26666501814151661 -1415.0799999999997 -880.99999999999989 193.23500000000004 1873.8183333333352
decision_type=2 8 2 2 10 2 2 2 2 2 2 2 2 10 2 2 2 10 10 2 10 10 10 8 2 2 10 8 2 8
left_child=1 4 3 8 -1 6 7 -3 9 20 13 12 17 27 -5 21 19 -6 26 25 -2 -15 -23 -10 -14 -4 -19 -9 -12 -25
right_child=2 5 16 14 11 -7 -8 10 23 -11 28 -13 24 15 -16 -17 -18 18 -20 -21 -22 22 -24 29 -26 -27 -28 -29 -30 -31
leaf_value=0.28938125702303763 0.13526283649136289 0.2191829432037628 0.0061866895873248645 -0.067148276994497394 0.24005168818597919 -0.059072722857086674 -0.038772087830188089 -0.0018246734801043699 0.11064578968926617 0.024589911918735642 0.035745278429965922 0.040666843713287312 0.035446333536606575 0.096145925615154532 0.11960303295309373 0.042438944532065905 -0.080437558173930737 0.16312640332509837 0.217014026738681 -0.063078971489437377 0.27452338990809638 0.14810855619152005 0.25903625692455806 0.020479586306352267 0.12312931801814206 -0.04259614660907042 0.098871161309453587 0.083610826924938653 -0.033255427152593157 -0.035366684099559315
leaf_weight=176.26018219953403 86.883762699086219 198.14373250026256 324.21736121643335 747.8641772842966 203.63453578855842 163.77542327530682 190.41617274237797 116.45636616228148 54.5990967489779 103.84800346568227 158.78524916060269 150.77517265081406 110.07960308669135 126.86925467569381 41.193519714288414 116.81489390227944 3009.0237280451693 167.1280678329058 196.97148571629077 1893.5436374275014 83.42819414101541 182.57074712496251 99.506358742248267 202.14697121735662 155.32794151082635 498.97150256903842 190.91478974604979 77.941823567263782 121.56358058191836 195.10150507837534
leaf_count=3262 6337 9939 50768 125117 4464 26201 13149 11618 6268 9144 17613 7736 12177 7936 5070 13368 602422 5797 6342 359631 7273 11890 6754 25998 11716 89609 11137 5286 16920 28243
internal_value=0 0.110958 -0.0532441 -0.00316899 0.161301 0.067155 0.0820376 0.101229 0.0557704 0.135719 0.0778694 0.142085 0.157017 0.105915 -0.0573987 0.133086 -0.0664942 0.181596 0.160148 -0.0510507 0.20348 0.158979 0.18724 0.00726119 0.0867622 -0.0233828 0.128864 0.0324298 0.00582551 -0.00694831
internal_weight=0 2903.94 7240.82 1515.07 1351.09 1552.84 1389.07 1198.65 726.008 274.16 1000.51 1174.83 1024.06 720.159 789.058 525.761 5725.76 758.649 555.014 2716.73 170.312 408.946 282.077 451.848 265.408 823.189 358.043 194.398 280.349 397.248
internal_count=1519185 203305 1315880 213450 62631 140674 114473 101324 83263 22754 91385 59369 51633 56852 130187 39948 1102430 27740 23276 500008 13610 26580 18644 60509 23893 140377 16934 16904 34533 54241
is_linear=0
shrinkage=0.0842295


Tree=4
num_leaves=31
num_cat=0
split_feature=28 145 124 83 149 125 79 123 59 16 78 6 30 1 12 9 16 69 31 1 7 1 149 25 69 124 147 1 98 10
split_gain=6295.24 747.498 636.886 749.341 555.314 494.667 309.937 280.638 201.77 191.402 154.096 140.461 129.766 126.756 101.75 100.954 85.2658 85.133 80.3265 84.8274 80.0749 74.9766 71.0334 56.2478 52.9058 42.8065 55.0691 37.3754 35.3277 34.7922
threshold=34.500000000000007 0.23375748977749103 24899.660000000003 -3276.2445714285745 0.19987076649004654 1.0000000180025095e-35 1.0000000180025095e-35 -0.87499999999999989 1.0000000180025095e-35 1.0000000180025095e-35 -203.18242857143747 323.74500000000006 8.0000000000000018 202002.50000000003 1109.3950000000002 2.5000000000000004 1.0000000180025095e-35 218.34250000000003 310.05000000000001 202009.50000000003 6.5000000000000009 202004.50000000003 0.36588209551140255 1261.5000000000002 88.593333333333362 24899.660000000003 0.29979274422731406 202008.50000000003 30.555212355212351 1.0000000180025095e-35
decision_type=2 2 8 10 2 8 10 10 10 2 10 2 8 2 2 2 2 10 2 2 2 2 2 8 10 8 2 2 8 2
left_child=1 2 3 -1 5 7 8 -2 10 11 17 22 16 -4 24 -7 18 23 19 -3 -10 -12 25 -5 -9 26 28 -8 -6 -13
right_child=4 12 13 6 9 15 27 14 20 -11 21 29 -14 -15 -16 -17 -18 -19 -20 -21 -22 -23 -24 -25 -26 -27 -28 -29 -30 -31
leaf_value=0.27042819269028506 0.17095097668660778 0.01551349078447779 0.090531049795513477 0.11278813929177585 0.024079514595597408 -0.065867334663031851 0.0027002206726565421 0.12165222764111963 0.21908630707840873 -0.079815641474025312 0.034318419098526072 -0.0054784444072464491 0.12561796598581665 -0.014260317612234934 -0.0053287687166507711 0.054791579146545373 -0.062460782188734874 0.085569911847918567 -0.034423518403805128 0.12285847369331702 0.13784491878095351 0.096452885686875448 -0.036736159988152203 0.16758920736956492 0.030294182548317998 -0.052556165152922205 -0.011787579885317324 0.06808985691692844 0.11848225942786475 -0.063964327091840023
leaf_weight=226.10860349796712 115.18054862832651 246.27772302832454 110.44613295933232 201.8941902210936 53.975414720363915 553.30501442216337 178.57940478622913 87.500482975039631 177.02646088739857 2870.949102549348 199.29018835350871 75.303165178745985 60.63205832708627 316.77068877127022 301.47929209889844 53.997183374129236 135.73537321714684 202.51030141720548 164.60021069506183 66.284589861985296 167.52952426904812 446.40878819441423 556.89341674465686 388.71704356418923 92.525952104944736 52.069308713078499 103.69828641135246 95.008259804453701 58.71942339418456 1729.9247156260535
leaf_count=4645 8595 27587 6072 8219 7564 96495 16176 6450 8119 621512 12887 14406 4249 20616 40632 6233 26077 4778 24197 6520 10575 23847 99673 14144 7552 8821 17119 8289 8273 348863
internal_value=0 0.0874852 0.10722 0.124883 -0.0534377 -0.0016236 0.108884 0.0528441 0.12169 -0.064777 0.107826 -0.0483642 0.00807161 0.0128308 0.0245918 -0.0551392 -0.00355688 0.132697 0.0131991 0.038278 0.179585 0.0772755 -0.0195796 0.148856 0.0746981 0.0160097 0.0325082 0.025408 0.0732679 -0.0615247
internal_weight=0 3383.82 2710.29 2283.07 6705.52 1203.99 2056.96 596.686 1783.38 5501.53 1438.82 2630.58 673.53 427.217 481.506 607.302 612.898 793.122 477.163 312.562 344.556 645.699 825.356 590.611 180.026 268.462 216.393 273.588 112.695 1805.23
internal_count=1519185 226997 138367 111679 1292188 165957 107034 63229 82569 1126231 63875 504719 88630 26688 54634 102728 84381 27141 58304 34107 18694 36734 141450 22363 14002 41777 32956 24465 15837 363269
is_linear=0
shrinkage=0.0842295


Tree=5
num_leaves=31
num_cat=0
split_feature=156 145 149 125 83 51 130 85 51 69 17 149 152 54 15 71 9 12 48 33 112 145 93 2 98 15 165 15 101 113
split_gain=5161.13 631.499 471.371 402.289 374.431 308.548 246.474 226.056 218.703 186.302 171.291 145.023 140.104 138.172 129.882 181.303 108.35 99.3123 96.736 91.0908 83.9439 82.3914 66.7947 57.3017 54.2621 51.1259 57.4082 49.94 38.3735 35.5989
threshold=0.16684319011004203 0.13330606056473551 0.23295328625881154 1.0000000180025095e-35 1.0000000180025095e-35 -1.0000000180025095e-35 30.250000000000004 0.12857142857142853 -1.0000000180025095e-35 433.21375000000006 1.0000000180025095e-35 0.23295328625881154 0.50091112850085262 796.89499999999714 43919.55000000001 -0.107142857142857 3.5000000000000004 2731.1550000000007 464.50000000000006 939.29999999999961 24418.205000000005 0.26714538466595456 -2.0714285714285743 0.75000000000000011 30.555212355212351 4419.4650000000011 0.39988485092371057 4419.4650000000011 30.517441860465102 -303.66499999999996
decision_type=2 2 2 8 8 8 8 10 8 10 2 2 2 8 2 8 2 2 8 10 8 2 10 2 8 2 2 2 10 10
left_child=1 4 3 8 5 -1 -7 10 -2 13 11 14 17 18 15 -3 -5 25 -8 22 24 27 -20 -24 -17 26 -4 28 -10 -13
right_child=2 7 12 16 -6 6 9 -9 21 -11 -12 29 -14 -15 -16 20 -18 -19 19 -21 -22 -23 23 -25 -26 -27 -28 -29 -30 -31
leaf_value=0.169824050778905 0.13450876558226726 0.17989288848756471 0.060681236608231659 -0.066197633355903535 -0.024480708283571441 0.014122322294663751 0.072385183060553318 0.12314052056154902 0.033400709637249067 0.035309351495616988 -0.059698334842384654 -0.050523376519963636 -0.079521028830404031 0.038689176403890996 -0.038445878412146799 0.021233011279563275 0.071612943059142953 -0.061443306396800151 0.1594346544956329 0.18384484642486651 -0.019186029243043828 -0.016375352991111949 0.088362631056234917 0.14289591675836896 0.088713190425064953 -0.055524850872599681 -0.019959568102067126 -0.011737417381539295 0.11175766779115055 0.0090616373848821027
leaf_weight=415.18051058845595 129.62028493685648 81.088297645095736 76.961770346853882 598.61006716312841 172.98881522798911 263.65444470383227 224.12300327979028 142.1001702924259 88.23558365367353 254.68848519399762 202.93852767255157 161.56389711098745 2524.9805237888359 156.1241768701002 105.51247607776895 134.8086471715942 43.410898849368095 1707.0940723675303 234.37725309235975 204.13848222093657 114.56698206113651 304.68006114801392 409.11376972217113 205.30034596845508 226.73097043298185 215.79528285190463 336.36648765997961 68.861732574179769 89.132382251322269 127.09655229467899
leaf_count=6677 6541 4656 13157 113719 9770 15234 10088 11862 7449 10415 38775 25746 592115 13800 8253 11778 4584 360290 8611 6215 12345 43931 15248 9552 16910 42069 65673 8267 7930 17525
internal_value=0 0.0707277 -0.0536367 -0.0090521 0.0951444 0.103888 0.0898604 0.022895 0.0360688 0.101691 0.0105543 0.02554 -0.0657665 0.113488 0.0472441 0.0634707 -0.0568794 -0.0509007 0.122632 0.133328 0.0436422 0.0129075 0.121178 0.106584 0.0635516 -0.0222939 -0.00494424 0.0491415 0.0727773 -0.0242882
internal_weight=0 3836.1 6183.75 1322.55 2539.69 2366.7 1951.52 1296.41 680.53 1687.87 1154.31 951.368 4861.2 1433.18 662.707 557.195 642.021 2336.22 1277.05 1052.93 476.107 550.91 848.791 614.414 361.54 629.124 413.328 246.23 177.368 288.66
internal_count=1519185 253460 1265725 192421 105610 95840 89163 147850 74118 73929 135988 97213 1073304 63514 53942 45689 118303 481189 49714 39626 41033 67577 33411 24800 28688 120899 78830 23646 15379 43271
is_linear=0
shrinkage=0.0842295


Tree=6
num_leaves=31
num_cat=0
split_feature=156 12 149 150 90 83 125 116 54 16 85 147 15 71 130 147 17 9 12 85 13 60 15 140 1 33 67 101 67 145
split_gain=4293.28 477.253 448.712 388.372 445.358 400.34 347.631 187.336 158.976 149.582 138.39 107.988 109.77 106.252 101.254 99.447 98.3928 95.9133 92.6708 86.7006 70.7223 50.4329 45.7117 53.9964 45.4555 44.6765 38.9081 35.7281 32.1459 28.8139
threshold=0.16684319011004203 2731.1550000000007 0.23295328625881154 0.83179757781585562 0.092857142857142874 -4036.4098571428544 1.0000000180025095e-35 -0.74999999999999989 796.89499999999714 1.0000000180025095e-35 0.12857142857142853 0.36715955727750654 21817.475000000002 -0.107142857142857 30.250000000000004 0.066772301941516163 1.0000000180025095e-35 3.5000000000000004 2731.1550000000007 1.0000000180025095e-35 2.5000000000000004 -7.4999999999999991 4419.4650000000011 0.46747758471987805 202003.50000000003 716.04000000000008 -352.48385714286047 30.555212355212351 92.925214285715057 0.1001321455318495
decision_type=2 2 2 2 10 8 8 10 8 2 10 2 2 10 8 2 2 2 2 10 2 8 2 2 2 10 10 10 8 2
left_child=1 3 6 4 5 -1 7 -2 13 18 16 12 21 -7 -15 -5 20 -8 22 25 24 -9 23 -4 -3 26 -16 -25 -26 -28
right_child=2 10 9 15 -6 8 17 11 -10 -11 -12 -13 -14 14 19 -17 -18 -19 -20 -21 -22 -23 -24 27 28 -27 29 -29 -30 -31
leaf_value=0.17859065869950111 0.16555514279991401 -0.020157537022391939 -0.031386604887875057 0.062787236562683049 0.22588829525571971 0.11296877104433632 -0.064841513748111965 0.1284048077914067 0.0093628425568755714 -0.079255289688647951 0.10029311796569834 -0.020634287787424547 -0.032241875922298026 0.011737301292604876 0.080536547652901178 -0.025680557186742219 -0.065270426848398289 0.061173031990002014 -0.059517256778630831 0.11291836319803249 -0.03335999965697322 0.050112127984219879 -0.05360596981397607 -0.0078874054865325938 0.058439491758328722 0.10179187224002455 0.054055033635652949 0.06755877977458459 0.0099278535531598846 0.011798893573363785
leaf_weight=261.20409870473668 67.151936717331409 115.33293139142916 236.63154838280752 130.25091351149604 157.32421330967918 448.33328391890973 561.27641894249246 88.075362012721598 282.56675656419247 2350.8976051504724 104.59369956608862 287.10293584503233 88.033499050885439 208.10285711148754 277.19134477479383 292.77924491139129 146.19643475674093 46.393464043270797 1584.733023355715 322.70663873292506 190.68069446226582 173.0767702232115 205.40982990711927 88.653534520883113 251.08309243340045 172.5681642186828 399.79608389222994 89.474933200050145 157.82188851200044 160.42470342945307
leaf_count=4193 1572 11838 47353 5041 6383 9084 113719 6288 28831 596974 9062 43626 9259 12023 13610 18296 30626 4584 354634 7521 28733 13373 42256 16151 19919 7314 15600 15936 14413 10973
internal_value=0 0.0605343 -0.0519782 0.0765808 0.0883778 0.0798367 -0.00855658 0.0317544 0.0684817 -0.0644744 0.00880368 0.0176335 0.0490976 0.0768799 0.0663789 0.00155866 -0.00230891 -0.0552207 -0.0487149 0.0749114 0.0105663 0.0765169 -0.0211114 -0.00501854 0.0265436 0.0627675 0.0547256 0.0300096 0.0397158 0.0419546
internal_weight=0 4078.96 5866.91 3113.25 2690.22 2532.89 1311.11 703.441 2271.69 4555.8 965.709 636.289 349.186 1989.12 1540.79 423.03 861.115 607.67 2204.9 1332.69 714.919 261.152 620.17 414.76 524.238 1009.98 837.412 178.128 408.905 560.221
internal_count=1519185 253460 1265725 138869 115532 109149 192421 74118 104956 1073304 114591 72546 28920 76125 67041 23337 105529 118303 476330 55018 74903 19661 121696 79440 46170 47497 40183 32087 34332 26573
is_linear=0
shrinkage=0.0842295


Tree=7
num_leaves=31
num_cat=0
split_feature=161 141 149 83 116 16 55 30 124 83 16 85 80 9 79 151 147 66 151 1 59 5 124 10 84 13 39 66 138 93
split_gain=3639.51 494.152 353.857 307.014 281.864 225.371 177.241 165.27 156.63 152.661 137.304 135.762 119.09 102.607 96.9169 74.3515 74.2711 73.1172 72.3978 76.1768 68.2168 59.8434 57.2211 57.3186 54.1444 48.5962 50.3428 48.4463 46.9652 36.1725
threshold=0.20002093154294201 0.19921875951600754 0.19987076649004654 1.0000000180025095e-35 -0.74999999999999989 1.0000000180025095e-35 -10734.794999999998 1.0000000180025095e-35 10219.860000000002 -1908.0651428571498 1.0000000180025095e-35 0.12857142857142853 4.2750000000000012 3.5000000000000004 1.0000000180025095e-35 0.46756395499132503 0.36715955727750654 2078.6895833333356 0.50118443853471362 202003.50000000003 4.2500000000000009 -123.81499999999998 17240.355000000007 13705.775000000001 1.0000000180025095e-35 8.5000000000000018 -12.499999999999998 1873.8183333333352 0.49809443852205953 -0.44285714285714295
decision_type=2 2 2 8 10 2 8 8 10 10 2 10 10 2 10 2 2 10 2 2 10 2 8 2 10 2 8 8 2 10
left_child=1 3 5 4 -1 12 -6 18 9 -8 16 14 22 -7 15 17 25 20 19 -3 29 -21 23 -2 -17 26 -4 -23 -13 -11
right_child=2 7 10 -5 6 13 8 -9 -10 11 -12 28 -14 -15 -16 24 -18 -19 -20 21 -22 27 -24 -25 -26 -27 -28 -29 -30 -31
leaf_value=0.15825662540867041 0.058330482709547736 -0.048594588089677621 0.084203952210761615 -0.034080082371466036 0.14468640631294671 -0.060956586729212676 0.14904129169553024 0.077702609051769164 -0.0015997082981825978 0.076107241347323357 -0.0785107785825504 0.12338275381045269 0.11694706792184682 0.076148998690206179 -0.0012006143648579655 0.049315923122121991 -0.060805916851994907 0.010616780106919632 -0.061611191671875579 -0.018414823637438928 0.11706300990224511 0.060822368188731574 -0.052853310839767041 -0.014227465816525165 -0.048886145178387755 -0.04282195683102541 -0.014779688084220852 -0.0026098719248950782 0.073341487010116183 0.046096026143873717
leaf_weight=243.46894363220781 184.35305525548756 188.21684431284666 43.745717652607709 209.63623390789144 181.74285556352697 435.69173561781645 145.85969851724803 169.0979379771743 274.38498728303239 593.93636251287535 2225.5095962006599 260.99844715278596 95.425602902658284 42.502897277474403 232.58004308654927 83.061431580223143 1276.5650806687772 169.50721463467926 174.80642174533568 254.87515350268222 183.32071455381811 210.66118092974648 77.378711075987667 132.94444342469797 76.536444289144129 514.38398894807324 218.68097944604233 143.68519385904074 271.4464821619913 547.66193412104622
leaf_count=2604 14975 26578 7673 13403 6675 90141 3346 5692 18815 24659 609899 6642 4723 3691 21799 3861 303715 7202 39688 35640 9293 19938 9211 19279 10036 111836 40179 17041 7341 23610
internal_value=0 0.0489317 -0.0536125 0.0647285 0.0710737 -0.00763172 0.0640475 0.000847624 0.0588858 0.0653564 -0.0640177 0.0603105 0.0325075 -0.0487704 0.04971 0.0568687 -0.0483098 0.0627047 -0.0125194 -0.00175799 0.0693687 0.012712 0.0120915 0.0279294 0.00222233 -0.0277743 0.00172058 0.035101 0.0978711 0.0617099
internal_weight=0 4615.48 5247.18 3474.14 3264.51 968.296 3021.04 1141.34 2839.29 2564.91 4278.89 2419.05 490.102 478.195 1886.6 1654.02 2053.38 1494.43 972.245 797.438 1324.92 609.222 394.676 317.297 159.598 776.811 262.427 354.346 532.445 1141.6
internal_count=1519185 303863 1215322 159286 145883 142020 143279 144577 136604 117789 1073302 114443 48188 93832 100460 78661 463403 64764 138885 99197 57562 72619 43465 34254 13897 159688 47852 36979 13983 48269
is_linear=0
shrinkage=0.0842295


Tree=8
num_leaves=31
num_cat=0
split_feature=161 147 149 150 90 83 162 79 16 123 120 108 1 147 151 86 9 24 165 9 71 113 85 150 145 1 124 147 166 101
split_gain=3097.02 395.833 335.986 283.687 273.435 259.241 195.147 148.871 140.116 103.486 93.6927 92.8886 97.0209 89.8671 88.1959 83.617 79.8993 75.4603 65.5708 62.7118 58.7789 58.195 56.8631 48.2398 55.2933 42.3814 40.1458 53.0289 38.8595 42.3682
threshold=0.20002093154294201 0.33341187485397406 0.19987076649004654 0.83179757781585562 0.12142857142857151 -2151.6004999999795 0.5342846661414441 1.0000000180025095e-35 1.0000000180025095e-35 -2.3749999999999996 -1.0000000180025095e-35 1747.2758333333352 202003.50000000003 0.10028262737147402 0.50118443853471362 11.700000000000051 3.5000000000000004 74.500000000000014 0.30047733137388255 2.5000000000000004 -0.107142857142857 -674.94499999999982 0.12857142857142853 0.79780425664124366 0.26714538466595456 202001.50000000003 13750.820000000002 0.36715955727750654 0.39846443718392255 30.517441860465102
decision_type=2 2 2 2 10 8 2 8 2 8 10 10 2 2 2 10 2 8 2 2 10 8 10 2 2 2 10 2 2 10
left_child=1 3 6 4 5 -1 9 10 17 -2 -7 12 25 -5 18 20 -8 -4 22 23 -14 -19 -3 24 -11 -12 27 28 29 -23
right_child=2 14 8 13 -6 7 16 -9 -10 19 11 -13 15 -15 -16 -17 -18 21 -20 -21 -22 26 -24 -25 -26 -27 -28 -29 -30 -31
leaf_value=0.11860137943658841 0.12143106108316035 0.0086649928829677682 0.077435103028849081 0.039555551271570372 0.16153722877912347 0.11616003530153128 -0.061337288574716792 0.00028171949443671557 -0.077994872089305736 0.055054936139050666 0.059363006082386177 0.005759714314956089 0.10202312064005811 -0.033147851908621309 -0.064109206216555928 0.099457353737178358 0.061670267286850579 -0.060945046113982736 -0.038178302728550363 0.092747014366234587 0.047219399332866265 -0.012340402364636576 0.088497112773858952 -0.055766084184559285 -0.015981427193114583 0.0042430546940221614 -0.065043517170753046 -0.040589990059799456 -0.018545416926341689 0.0988265051909471
leaf_weight=424.91449369117618 71.165802909294143 459.06948085594922 34.233051419258118 198.86376581829973 189.00733551778831 170.09592853486538 387.73444444127381 397.99917998118326 2058.6997954249382 139.69405662314966 150.07891896297224 278.05942450184375 163.5047547891736 306.56672186939977 162.57726422557607 427.90431590541266 41.47035903390497 1134.6233066043351 188.10098143410869 59.806611803360283 920.59240104421042 42.82233051257208 73.424221687950194 85.653658597962931 175.28316321317106 290.58538203174248 188.7557978592813 365.30777127924375 135.95497032883577 56.302862203912809
leaf_count=8351 2927 45730 7336 9193 7065 995 85151 39909 609899 10071 6378 15790 3904 21641 38248 11523 3341 279701 31993 6183 43341 7033 5436 9556 24791 14366 43977 89230 27231 8895
internal_value=0 0.0428685 -0.0519499 0.0543505 0.0630726 0.0572997 -0.00720588 0.0479929 -0.0626528 0.0269028 0.0559023 0.0513075 0.0577935 -0.00454239 -0.00807137 0.0679294 -0.0494521 -0.0465217 0.00457163 0.0122924 0.055485 -0.0487275 0.0196728 0.000282063 0.0155236 0.0230155 -0.0311613 -0.0205091 0.010696 0.0508021
internal_weight=0 4801.34 4977.51 3918.17 3412.74 3223.73 960.808 2798.82 4016.7 531.603 2400.82 2230.73 1952.67 505.43 883.172 1512 429.205 1958 720.595 460.437 1084.1 1923.77 532.494 400.631 314.977 440.664 789.144 600.388 235.08 99.1252
internal_count=1519185 303863 1215322 182456 151622 144557 142020 136206 1073302 53528 96297 95302 79512 30834 121407 58768 88492 463403 83159 50601 47245 456067 51166 44418 34862 20744 176366 132389 43159 15928
is_linear=0
shrinkage=0.0842295


Tree=9
num_leaves=31
num_cat=0
split_feature=161 29 157 149 149 30 15 83 30 66 16 85 162 141 78 129 24 38 157 27 68 96 161 87 119 92 143 15 103 8
split_gain=2666.39 403.344 327.27 303.441 268.235 215.985 278.904 204.041 151.446 116.54 114.281 113.609 80.6865 73.3996 70.5621 70.106 62.0634 60.1853 53.4041 68.4334 47.3551 55.891 39.7944 36.3417 36.0333 39.2489 45.4982 36.0093 46.461 30.0688
threshold=0.23388990947523453 1.0000000180025095e-35 0.93297099994770261 0.19987076649004654 0.19987076649004654 6.5000000000000009 38969.995000000003 -4036.4098571428544 1.0000000180025095e-35 2078.6895833333356 1.0000000180025095e-35 0.12857142857142853 0.5342846661414441 0.19921875951600754 -1862.9475714285697 212.50000000000003 55.500000000000007 5.2500000000000009 0.96665208732842411 7.5000000000000009 -30.931857142857044 30.555212355212351 0.59975685111310362 205.09600000000003 1.0000000180025095e-35 1.0000000180025095e-35 0.099850871245604059 14288.165000000003 263.83500000000009 -1328.8649999999996
decision_type=2 2 2 2 2 10 2 8 10 8 2 10 2 2 8 8 8 10 2 2 8 10 2 8 10 10 2 2 10 2
left_child=1 2 3 5 8 6 7 -1 11 15 16 12 27 20 -11 -9 -6 24 22 -20 -5 -22 -18 -3 25 26 -17 28 -2 -8
right_child=4 23 -4 13 10 -7 29 9 -10 14 -12 -13 -14 -15 -16 17 18 -19 19 -21 21 -23 -24 -25 -26 -27 -28 -29 -30 -31
leaf_value=0.11450044749964922 -0.0065564011272357904 -0.059362290951221371 0.163897856297266 -0.019973473985630354 0.066083800530608167 0.1312276993023615 0.0050436150910950764 0.013167958682068394 0.1087172714715868 0.047175544251293243 -0.077495619593639278 0.10934256905879682 -0.058072910597292013 -0.021755041595681028 -0.026997045392040099 0.068861075169795921 -0.040266325236281493 0.096478046904544715 -0.05168159900203239 0.1236656102066795 0.010269846399965497 0.070877455958559613 -0.066512025959326967 0.025850331398614691 0.028549728102876617 0.072944386368247988 0.025106223490661689 -0.052076015588941815 0.072787400214656295 -0.043870735290608816
leaf_weight=343.50644452543929 229.19442103453912 323.65117715927772 151.29994299984537 151.15820213127881 33.464565227273852 218.93344487436116 149.73112040804699 278.33025482855737 69.632946898462251 150.61375466547906 1871.1912734252401 44.710954525740817 350.6175843172241 550.82302205008455 229.87265210598707 302.67662349529564 866.52695147856139 255.35902498848736 35.772356406087056 28.269172213040292 269.78120580571704 179.95373664377257 777.7053855471313 39.883569231722504 350.33807323779911 692.19216072373092 380.63691182387993 80.066447666147724 67.861870245775208 220.40450578043237
leaf_count=4783 26845 69386 10626 14770 6787 2617 6252 13915 2047 6622 599110 4706 79979 86707 15564 4675 209463 10018 9069 7085 23652 14436 204090 7138 16966 20868 11312 8768 5920 15009
internal_value=0 0.0355745 0.0419562 0.0380509 -0.0530647 0.0501712 0.0448796 0.0534352 -0.0102543 0.0454897 -0.0630428 -0.0209791 -0.0289858 0.000454055 0.00236383 0.0527517 -0.0475157 0.0583126 -0.0497411 0.0257201 0.0208126 0.0345209 -0.0526803 -0.0500136 0.0526656 0.0588078 0.0444876 -0.00194298 0.0115695 -0.0240834
internal_weight=0 5239.15 4875.61 4724.31 4455.01 3572.59 3353.66 2983.53 842.084 2640.02 3612.93 772.451 727.74 1151.72 380.486 2259.53 1741.74 1981.2 1708.27 64.0415 600.893 449.735 1644.23 363.535 1725.84 1375.51 683.314 377.123 297.056 370.136
internal_count=1519185 355316 278792 268166 1163869 128601 125984 104723 128265 99940 1035604 126218 121512 139565 22186 77754 436494 63839 429707 16154 52858 38088 413553 76524 53821 36855 15987 41533 32765 21261
is_linear=0
shrinkage=0.0842295


Tree=10
num_leaves=31
num_cat=0
split_feature=145 14 14 83 125 90 51 130 151 7 86 83 69 17 24 15 102 116 1 5 9 86 33 33 142 18 52 7 121 86
split_gain=2195.83 451.079 375.862 297.308 181.643 179.156 129.03 101.413 96.6455 85.1235 102.219 83.0301 90.9376 62.8908 62.671 69.1896 60.2245 57.2622 56.9523 54.9631 54.1712 52.0033 42.7805 45.9656 44.1633 36.1607 35.6231 35.3198 34.3225 34.3043
threshold=0.23375748977749103 5204.3450000000003 1933.3900000000001 1.0000000180025095e-35 1.0000000180025095e-35 0.10714285714285703 -1.4999999999999998 30.250000000000004 0.50118443853471362 7.5000000000000009 128.43671428571454 -4494.9645714285843 433.21375000000006 1.0000000180025095e-35 inf 14288.165000000003 207.66666666666654 -1.0000000180025095e-35 202006.00000000003 -600.75499999999988 3.5000000000000004 98.958857142857354 939.29999999999961 -128.83499999999898 0.33268437822372804 135.40000000000003 -241.84499999999997 7.5000000000000009 791.79125000000215 171.40171428571401
decision_type=2 2 2 8 8 10 8 8 2 2 10 10 10 2 8 2 8 10 2 2 2 10 10 10 2 2 10 2 8 8
left_child=1 3 4 5 9 6 -1 -8 19 10 17 -9 16 14 -3 18 -13 -2 -16 -4 -6 22 23 24 -18 27 -5 28 -21 -20
right_child=2 13 8 26 20 -7 7 11 -10 -11 -12 12 -14 -15 15 -17 21 -19 29 25 -22 -23 -24 -25 -26 -27 -28 -29 -30 -31
leaf_value=0.098989263549542197 0.088347598075212017 0.088388940256719395 -0.064359531710394977 -0.0067445187870569506 -0.060822625082971753 0.12163035482837871 0.0026010752267535964 0.087640724498360953 -0.077285423054860622 -0.027070422595807733 0.12601984995711374 0.0083819811650917651 0.0015566570711094941 -0.070902601862040018 -0.029863063937970759 -0.065637423209871773 0.071648431281538708 0.0073259459142117327 0.007835288069078232 0.033922295617155873 0.036812976456576989 0.077352462365009395 0.085460606664118241 0.024271133624504067 0.026509007195111733 -0.054642798259549576 -0.06645411691437221 -0.042834689960759446 -0.02708316318302148 0.076887660607192834
leaf_weight=305.60055463179015 72.676490496611223 44.262483590980992 766.08893259824254 135.73649850930087 410.31171814119443 241.29471329483204 410.37237664824352 322.38293363759294 1658.249498563353 235.46331819309853 73.283318352419883 236.93878958001733 337.61128821945749 135.63384753535502 307.01589968171902 153.05230238172226 436.97273167478852 416.82864472805522 313.66439371928573 127.61377052194439 44.709269141312689 482.57060967781581 168.68000282091089 641.7987208198756 237.26732452749275 325.78066508029588 148.37744603096507 225.44394210563041 134.27098907739855 60.960870542796329
leaf_count=3064 3340 5703 209878 10730 106555 7726 22296 9490 569748 27361 5652 13105 16806 44188 51988 33604 16592 44115 49267 26094 4584 10527 6226 26707 12502 83455 7739 53765 29521 6857
internal_value=0 0.0327725 -0.047922 0.0452006 -0.00875694 0.0513809 0.0466463 0.0417614 -0.0630835 0.0154532 0.0332445 0.0473721 0.0422648 -0.0175185 -0.00928066 -0.0144599 0.0484999 0.0193552 -0.00296878 -0.0481707 -0.0512292 0.0533317 0.0455243 0.0404056 0.0557637 -0.032918 -0.0379276 -0.0183949 0.00264417 0.0190718
internal_weight=0 5120.19 4490.72 4105.6 1253.27 3821.49 3580.2 3274.59 3237.45 798.252 562.788 2864.22 2541.84 1014.59 878.956 834.693 2204.23 489.505 681.641 1579.2 455.021 1967.29 1484.72 1316.04 674.24 813.109 284.114 487.329 261.885 374.625
internal_count=1519185 355117 1164068 163510 191607 145041 137315 134251 972461 80468 53107 111955 102465 191607 147419 141716 85659 47455 108112 402713 111139 72554 62027 55801 29094 192835 18469 109380 55615 56124
is_linear=0
shrinkage=0.0842295


Tree=11
num_leaves=31
num_cat=0
split_feature=156 157 17 78 149 36 1 150 83 30 16 58 29 150 149 31 84 93 4 112 35 52 140 138 97 154 116 9 142 73
split_gain=2016.46 481.366 318.054 223.29 207.266 141.737 109.775 103.321 102.717 101.626 96.0005 86.778 74.2931 71.7503 71.9505 68.9623 56.6894 48.0939 74.1871 44.3086 43.57 41.9573 41.152 45.6435 40.6758 36.9176 32.6397 32.5481 31.1192 30.6162
threshold=0.26666501814151661 0.96665208732842411 1.0000000180025095e-35 -1.0000000180025095e-35 0.19987076649004654 -1.0000000180025095e-35 202004.50000000003 0.89922615253935312 -4036.4098571428544 6.5000000000000009 1.0000000180025095e-35 1.0000000180025095e-35 255.74821984026903 0.83179757781585562 0.36588209551140255 310.05000000000001 24927.860000000004 -4.528571428571424 18209.120000000006 18281.810000000001 32.714999999999655 -80.379999999999981 0.46747758471987805 0.19990126199742955 -745.4166666666664 0.70031849674339564 -1.0000000180025095e-35 3.5000000000000004 0.59632706426863369 -23.121999999999947
decision_type=2 2 2 8 2 10 2 2 10 10 2 10 2 2 2 2 10 10 2 8 8 8 2 2 8 2 8 2 2 8
left_child=1 2 3 5 9 -1 26 8 -7 12 16 15 19 14 20 17 22 -10 -19 -2 24 -17 -6 -24 -8 -4 -5 -14 -18 -21
right_child=4 -3 25 6 10 7 13 -9 11 -11 -12 -13 27 -15 -16 21 28 18 -20 29 -22 -23 23 -25 -26 -27 -28 -29 -30 -31
leaf_value=0.11216901084137111 0.036034480829683725 0.20696689384478853 -0.056984077535988401 0.024102579302413992 -0.062084266250567607 0.085069718799889088 0.028537179661996599 -0.023945566920507286 0.069830356756118789 0.10144060908072219 -0.076440390358320204 0.096214025425015656 -0.061566420923920569 -0.037798855955245687 -0.020247253373031585 0.027312289599760849 0.084529055278893497 0.043080978566673846 -0.0027462280415968803 0.022503197771387026 0.001065357956573029 -0.020399308732476376 0.025806739989023796 -0.042392215454637103 0.066791653555718949 0.040423693834842823 -0.029085070598518274 0.022533939582442954 -0.032053911803531565 -0.045643068753839486
leaf_weight=195.44147933181375 170.74443360953592 103.37317555164918 362.75210853014141 95.797924211015925 839.38198315072805 346.23698721756227 457.77139680995606 178.80216469359584 313.47439833916724 51.919726626947522 1572.1465912412386 159.86908680619672 271.27908315276727 133.66731142369099 190.05509211495519 282.05784063157625 34.826450451277196 1213.1823093050625 315.86808089422993 71.66799377114512 199.77337093092501 243.78367267153226 80.732799002667889 505.93076521367766 346.43140209978446 29.877778533147648 562.46545377001166 37.114898819942027 30.443001632578671 134.6511751646176
leaf_count=1078 15571 8327 89496 3063 244980 6634 23129 12675 9778 1717 586172 7622 72160 12494 31635 22211 9186 34988 15542 6166 17429 32675 19284 130288 13982 5418 56933 2936 8587 17029
internal_value=0 0.0268538 0.0235452 0.0290294 -0.0522682 0.0426307 0.00677965 0.0381796 0.042044 -0.012177 -0.0619182 0.0361517 -0.0207829 0.0207235 0.0272748 0.0320974 -0.0466088 0.0397757 0.0336141 0.00429517 0.0362708 0.00519287 -0.0501222 -0.0330071 0.0450163 -0.0495717 -0.0213446 -0.051445 0.0301524 -0.0219715
internal_weight=0 5730.68 5627.31 5234.68 3800.84 3248.72 1985.96 3053.27 2874.47 737.377 3063.46 2528.24 685.458 1327.7 1194.03 2368.37 1491.31 1842.52 1529.05 377.064 1003.98 525.842 1426.05 586.664 804.203 392.63 658.263 308.394 65.2695 206.319
internal_count=1519185 405109 396782 301868 1114076 143203 158665 142125 129450 115579 998497 122816 113862 98669 86175 115194 412325 60308 50530 38766 54540 54886 394552 149572 37111 94914 59996 75096 17773 23195
is_linear=0
shrinkage=0.0842295


Tree=12
num_leaves=31
num_cat=0
split_feature=161 157 141 14 62 15 55 162 49 61 16 106 84 9 69 90 85 84 125 73 27 106 71 27 52 12 40 140 35 161
split_gain=1742.41 314.83 287.351 202.789 130.191 180.016 199.33 116.189 98.7252 77.0738 73.2244 66.2259 63.2327 60.6988 59.755 64.4658 51.6957 47.4965 43.5352 39.5942 58.965 38.025 34.5224 33.6073 32.1895 29.3594 28.3606 25.8632 25.6894 25.604
threshold=0.26661358249220807 0.96665208732842411 0.26639409625208754 4114.7400000000007 5.0000000000000009 21817.475000000002 -8824.4749999999985 0.5342846661414441 1.0000000180025095e-35 60.500000000000007 1.0000000180025095e-35 0.099999999999999867 24927.860000000004 3.5000000000000004 433.21375000000006 0.021428571428571453 0.12857142857142853 54655.515000000007 1.0000000180025095e-35 -827.1054285714298 10.500000000000002 0.042857142857142858 -0.107142857142857 4.5000000000000009 -1073.0349999999996 2731.1550000000007 43.500000000000007 0.39955128964504255 125.97500000000001 0.63294415422310413
decision_type=2 2 2 2 10 2 8 2 8 8 2 10 8 2 10 10 10 10 8 10 2 10 10 2 8 2 10 2 10 2
left_child=1 2 4 7 5 6 -1 12 9 26 17 18 16 -9 15 19 21 25 23 -11 22 29 -21 -4 -7 -5 -8 -25 -29 -2
right_child=3 -3 11 10 -6 24 8 13 -10 14 -12 -13 -14 -15 -16 -17 -18 -19 -20 20 -22 -23 -24 27 -26 -27 -28 28 -30 -31
leaf_value=0.11295296159385135 -0.0068679185203433125 0.15721409245719059 -0.041801305619533359 -0.029590621956192276 0.075540502966139456 0.015779190838462916 0.021652031842445438 -0.062420659187612575 -0.024879923336895704 0.060494412788835203 -0.07606759440201627 0.045355614385217506 0.093038098825652296 0.04206765871837001 -0.00095661914377073536 0.079118975997999594 0.073509588422575892 0.050648535087977987 -0.06291182791674424 0.056105243463345056 0.068030578063965175 0.049629644178856049 0.02049163238978928 -0.03511957373104873 -0.034753317136921931 -0.058442996241827978 -0.024635816378016949 0.018416355929997699 -0.031174432468140712 -0.055587399990429831
leaf_weight=204.37338298838586 249.21626361622475 123.12539355317131 254.83534734672867 341.05011413572356 409.71325475722551 118.2287738644518 166.81923569180071 359.5693756355904 238.95270491205156 374.84151634480804 1355.2351655990351 105.6588899907656 56.625380608253181 44.30314545170404 282.68345298152417 265.89706220431253 57.95675081666559 33.628901827149093 174.9501937427558 221.38795096846297 260.36789612844586 61.927796914475039 1511.6346152955666 146.01401750394143 367.19950979016721 939.4559942393098 214.86723836022429 302.90950925787911 98.115918739698827 110.44586749025621
leaf_count=3363 34005 8306 43532 87733 3989 6949 9764 107760 35411 7960 547204 2258 7274 4074 8974 10438 5930 9474 56364 6323 10412 1638 68639 24919 31994 292941 14710 35771 14955 16121
internal_value=0 0.023953 0.0210842 -0.0504825 0.0302061 0.0258122 0.0320728 -0.0168393 0.0274 0.0311873 -0.0623303 -0.0179909 0.00886125 -0.0509587 0.0358449 0.0397942 -0.00107844 -0.0481634 -0.0248428 0.035379 0.0306562 -0.0113322 0.0250412 -0.016537 -0.0224458 -0.0507585 -0.00440533 -0.00476779 0.00628335 -0.0218288
internal_weight=0 5842.58 5719.45 3609.41 4636.97 4227.25 3741.83 940.045 3537.45 3298.5 2669.37 1082.48 536.172 403.873 2916.81 2634.13 479.547 1314.14 976.825 2368.23 1993.39 421.59 1733.02 801.875 485.428 1280.51 381.686 547.039 401.025 359.662
internal_count=1519185 405031 396725 1114154 218926 214937 175994 176802 172631 137220 937352 177799 64968 111834 112746 103772 57694 390148 175541 93334 85374 51764 74962 119177 38943 380674 24474 75645 50726 50126
is_linear=0
shrinkage=0.0842295


Tree=13
num_leaves=31
num_cat=0
split_feature=156 17 24 149 149 83 58 36 134 35 93 4 16 15 83 15 30 22 84 1 19 9 10 112 145 138 9 52 1 52
split_gain=1520.85 250.384 196.047 182.386 167.277 152.79 142.787 136.862 98.5666 89.9237 77.2318 85.2977 71.7408 67.6088 115.233 65.8144 84.8394 56.1693 44.9712 42.2782 47.1451 41.8126 41.6895 40.2039 39.463 38.8516 36.417 34.6959 30.835 28.9147
threshold=0.26666501814151661 11700.005000000003 22.500000000000004 0.36588209551140255 0.26620113575212706 1.0000000180025095e-35 1.0000000180025095e-35 -1.0000000180025095e-35 505.22142857142904 9.9599999999999813 -4.528571428571424 26516.600000000002 1.0000000180025095e-35 21817.475000000002 -3638.1101428571442 14288.165000000003 8.0000000000000018 341.50000000000006 38062.915833333354 202003.50000000003 1311.3150000000003 2.5000000000000004 9797.5750000000025 12023.235000000002 0.066541942668611007 0.53131083385926614 3.5000000000000004 -1.0000000180025095e-35 202008.50000000003 -241.84499999999997
decision_type=2 2 10 2 2 8 10 10 8 10 10 2 2 2 10 2 8 8 10 2 2 2 2 10 2 2 2 8 2 10
left_child=1 3 4 5 8 6 7 -1 15 10 25 13 18 14 -12 16 22 -16 -6 27 -21 -3 -2 -22 -5 -9 -10 -19 -26 -7
right_child=2 21 -4 24 12 29 -8 9 26 -11 11 -13 -14 -15 17 -17 -18 19 -20 20 23 -23 -24 -25 28 -27 -28 -29 -30 -31
leaf_value=0.099980282342617882 0.0325443430485753 -0.059961092644546271 0.21070303551564598 0.018371316367369925 -0.050488996371792494 -0.0031233329608561906 0.088739360345821541 0.041456232229092657 -0.06445132840070486 -0.0061069934545958911 0.099692741587268 -0.012745999723761428 -0.07580569815313111 -0.016951005507898822 0.0015403693298151604 -0.051858217774474746 0.11487825201067184 0.033233822381641791 0.033401637549548994 0.03010224684210502 0.079363409526138726 0.054476382044242079 -0.023628116370160619 0.036054781029850588 -0.043472447673910883 0.083300772956785993 0.019239585598865433 -0.014860153049515146 0.0020894148880436616 -0.060288053906286859
leaf_weight=192.88322350755334 183.21000084257685 293.69848290341906 20.520101879956201 172.17221112595871 1206.6963927787729 120.86114942771383 321.64789094543085 394.54492130805738 306.64080151868984 500.05318092578091 181.55937083112076 351.16585742984898 1258.2492113665212 190.76650061551481 405.62929555471055 121.83984182006679 56.080099856480956 253.00967986485921 47.104994841851294 863.07619709242135 350.31132450024597 24.544634649530053 191.93820176250301 268.72696375264786 323.59613190824166 261.92614692915231 41.931299100862816 183.67918460653163 156.27582238800824 130.6200086933095
leaf_count=965 17352 81463 1829 16879 377895 8766 10518 10575 98054 38852 2969 22586 547979 13922 21188 14874 3908 7901 12788 31485 7299 4395 35718 10559 60890 8529 3679 11951 27068 6349
internal_value=0 0.0215479 -0.0488659 0.0256618 -0.0504262 0.0311564 0.0345656 0.0306029 -0.0193041 0.0274202 0.031946 0.0263017 -0.0615967 0.0313864 0.0350661 0.00280489 0.0182495 0.0300181 -0.0473372 0.0360382 0.0428248 -0.0511351 0.00380466 0.060563 -0.0162228 0.0581518 -0.0543838 0.0130046 -0.0286347 -0.0328148
internal_weight=0 5940.75 3434.21 5622.51 3413.69 4970.46 4718.98 4397.33 901.64 4204.45 3704.4 3047.92 2512.05 2696.76 2505.99 553.068 431.228 2324.43 1253.8 1918.8 1482.11 318.243 375.148 619.038 652.044 656.471 348.572 436.689 479.872 251.481
internal_count=1519185 405109 1114076 319251 1112247 214414 199299 188781 173585 187816 148964 129860 938662 107274 93352 71852 56978 90383 390683 69195 49343 85858 53070 17858 104837 19104 101733 19852 87958 15115
is_linear=0
shrinkage=0.0842295


Tree=14
num_leaves=31
num_cat=0
split_feature=28 29 149 83 14 116 66 16 35 131 55 9 85 64 27 85 52 93 133 5 64 145 137 17 27 27 85 98 80 52
split_gain=1328.52 285.643 179.523 135.119 132.939 126.785 95.0995 80.723 75.4748 71.9565 67.7179 51.1203 50.9388 47.3535 51.3509 51.0193 47.114 45.8774 42.4242 41.3232 44.4951 39.8534 37.3892 35.9102 33.228 32.7822 36.7485 32.3994 29.2175 29.0123
threshold=66.500000000000014 255.74821984026903 0.36588209551140255 1.0000000180025095e-35 848.07000000000005 -0.74999999999999989 2078.6895833333356 1.0000000180025095e-35 -1.0000000180025095e-35 146.25000000000054 -10734.794999999998 3.5000000000000004 0.042857142857142858 33.083333333333357 3.5000000000000004 0.12857142857142853 -1474.6249999999998 -4.528571428571424 -883.54897932816539 -600.75499999999988 33.083333333333357 0.066541942668611007 0.89970380998725064 11700.005000000003 4.5000000000000009 4.5000000000000009 1.0000000180025095e-35 30.555212355212351 6.2750000000000012 -241.84499999999997
decision_type=2 2 2 8 2 10 10 2 10 10 8 2 10 10 2 10 8 10 8 2 8 2 2 2 2 2 10 10 8 10
left_child=1 2 3 5 9 -1 8 18 -7 12 -10 -3 23 -12 16 22 -15 -8 -6 -20 27 28 -16 -2 -19 -23 -27 -21 -4 -5
right_child=4 11 21 29 7 6 17 -9 10 -11 13 -13 -14 14 15 -17 -18 24 19 20 -22 25 -24 -25 -26 26 -28 -29 -30 -31
leaf_value=0.076060285402846123 -0.0079466948308456846 -0.058417666767093909 -0.029343148100178722 -0.0025594087410674279 0.061604883199733083 0.087904461264670511 0.031874968736592089 -0.0746955757432224 0.078750207806936992 0.093164175684692332 0.049220731441482174 0.058927411188027447 0.068867136480623217 0.043007917227656463 0.018454846209726126 0.053489671012027916 -0.010285697534461794 -0.04315984683346754 -0.062073920306584526 -0.022516703574492671 -0.038970484266367934 -0.054897365326596843 0.062154771357171852 -0.055844940846515929 0.0014629469882637559 -0.023139923321098054 0.054211280678008289 0.091861720527415383 0.041350385457746136 -0.059278086966474589
leaf_weight=404.67966559273191 240.77679609693587 382.81874807854183 62.516992118442431 123.89880973123945 26.485243623843417 164.83628836856224 210.73265229398385 1211.5306287272833 188.92278184485622 41.903423548210412 567.56094464962371 28.284594552824274 40.273403738392517 153.02230204059742 1623.3962993125897 466.72613460686989 509.6508316618856 186.519373082323 581.74923690292053 36.550789302447811 510.62015114934184 199.26732269953936 151.90058003272861 206.10144086251967 324.12610753276385 314.39920513494872 50.585624843137339 33.834920588647947 123.24597157654352 132.30544055835344
leaf_count=3725 24940 121964 5141 9204 6605 8800 9191 562961 5333 1828 20879 4533 3325 4037 74249 10094 31216 17362 200720 9479 148783 44730 6606 56217 24159 66078 7679 7969 14489 6889
internal_value=0 0.0175625 0.0222479 0.027796 -0.0509708 0.0308819 0.0268614 -0.0593933 0.0321505 -0.0127505 0.0296403 -0.0503441 -0.0218609 0.0269683 0.0226203 0.0287088 0.00202069 -0.0011906 -0.0438043 -0.0462053 -0.0303164 -0.0162801 0.022194 -0.0300375 -0.0148361 -0.0274206 -0.0124193 0.0324658 0.0175591 -0.0318493
internal_weight=0 6369.4 5958.29 5208.28 2929.83 4952.07 4547.39 2400.77 3826.02 529.055 3661.18 411.103 487.152 3472.26 2904.7 2242.02 662.673 721.378 1189.24 1162.76 581.006 750.015 1775.3 446.878 510.645 564.252 364.985 70.3857 185.763 256.204
internal_count=1519185 496358 369861 231744 1022827 215651 211926 936517 161214 86310 152414 126497 84482 147081 126202 90949 35253 50712 373556 366951 166231 138117 80855 81157 41521 118487 73757 17448 19630 16093
is_linear=0
shrinkage=0.0842295


Tree=15
num_leaves=31
num_cat=0
split_feature=28 157 125 14 24 16 55 30 49 15 55 7 14 90 140 9 13 39 102 73 35 145 92 165 73 8 144 154 52 73
split_gain=1161.46 250.587 224.917 152.082 151.483 113.633 104.396 111.344 90.676 69.7124 104.793 72.1146 66.2415 63.0886 50.5226 42.8093 44.666 42.1948 34.7161 34.3601 32.2239 30.2113 27.3966 31.9734 28.0161 27.382 27.32 26.1797 23.8111 21.9565
threshold=66.500000000000014 0.96665208732842411 1.0000000180025095e-35 3054.8500000000008 23.500000000000004 1.0000000180025095e-35 1.0000000180025095e-35 6.5000000000000009 1503.5966326530602 10836.530000000002 -3992.3250000000048 7.5000000000000009 9618.8350000000009 0.021428571428571453 0.46747758471987805 3.5000000000000004 1.0000000180025095e-35 -15.499999999999998 389.41666666666657 45.948142857142606 3.0100000000000002 0.066541942668611007 9.8666666666666671 0.16642076356643051 -827.1054285714298 -16.504999999999995 0.89896767899539709 0.70031849674339564 -2842.6999999999994 45.948142857142606
decision_type=2 2 10 2 10 2 8 10 10 2 10 2 2 10 2 2 2 8 8 10 8 2 10 2 10 2 2 2 8 10
left_child=1 2 3 6 5 8 7 9 12 10 -1 13 17 18 21 -7 -17 -2 -12 22 28 -5 24 -24 -20 -13 -19 -4 -16 -11
right_child=4 -3 27 14 -6 15 -8 -9 -10 29 11 25 -14 -15 20 16 -18 26 19 -21 -22 -23 23 -25 -26 -27 -28 -29 -30 -31
leaf_value=0.074494370643793675 0.033858375290988195 0.12217400267118202 -0.057922481194269036 0.0089249045005019914 0.18336228593313375 -0.072323199978870864 -0.027328634148576232 0.079686382746562701 0.081625249856370791 0.0044212713748687897 0.0026827050153002087 0.01134011317105426 -0.052545447705018726 0.064385986609472562 0.06048951549094813 0.067178121837190255 -0.059459957177349664 -0.036242222461224813 0.046779941057627131 0.0057265660784161483 -0.029362962221781152 -0.043192875014435778 0.068615183922422052 0.021787567247971377 0.019737546421080703 -0.027375452819431281 0.021222199099758306 0.039513934127392444 0.007070256890940793 -0.036078491697038924
leaf_weight=306.97241895436309 103.0155412114691 153.46697775204666 331.31867236294784 101.17583154537715 19.720665556378663 1261.5014397446066 266.91682785283774 266.57491899374872 46.300944734364748 322.77424654178321 446.75007930700667 297.2518820296973 859.11488012550399 307.67251169681549 67.18344239750877 32.48727514129132 50.435896376147866 342.46091858414002 378.8534570496995 387.5241208083462 160.33345498354174 358.54397023306228 282.72233242006041 163.13574494840577 961.8500672057271 229.80158936162479 70.837628400186077 20.791395229054615 498.0871675896924 134.56257658661343
leaf_count=3636 13217 10996 112301 11080 1301 597480 20833 2412 8411 18227 18660 10560 303819 8011 6156 2088 22197 62022 4786 13154 30509 78706 10114 9657 28951 18983 12292 5169 66015 7442
internal_value=0 0.0158328 0.0132385 0.0171166 -0.0492555 -0.0509139 0.0238475 0.0268922 -0.0343128 0.0235571 0.0273315 0.0231419 -0.0382156 0.0283039 -0.00987572 -0.0684697 -0.00984625 -0.0143716 0.024068 0.0284625 0.00396584 -0.0317227 0.0333941 0.0514814 0.0273791 -0.00554033 -0.0263931 -0.0521691 0.0134192 -0.00749501
internal_weight=0 6444.26 6290.8 5938.69 2785.88 2766.15 4753.36 4486.45 1421.73 4219.87 3762.53 3455.56 1375.43 2928.51 1185.32 1344.42 82.9232 516.314 2620.84 2174.09 725.604 459.72 1786.56 445.858 1340.7 527.053 413.299 352.11 565.271 457.337
internal_count=1519185 496358 485362 367892 1022827 1021526 175426 154593 399761 152181 126512 122876 391350 93333 192466 621765 24285 87531 85322 66662 102680 89786 53508 19771 33737 29543 74314 117470 72171 25669
is_linear=0
shrinkage=0.0842295


Tree=16
num_leaves=31
num_cat=0
split_feature=28 29 157 24 141 16 52 166 36 59 49 135 147 15 55 106 154 9 92 2 9 150 150 60 127 139 73 163 81 136
split_gain=1015.59 213.12 196.799 129.755 128.914 111.925 88.3661 83.4139 81.0159 73.0786 67.4605 65.4964 54.1376 51.6463 64.9389 46.7647 46.1292 45.7822 38.6565 40.3806 34.2396 34.0742 33.0802 41.7984 31.8406 30.7181 33.4111 30.597 30.2433 29.4765
threshold=66.500000000000014 255.74821984026903 0.96665208732842411 11.500000000000002 0.33235482227197655 1.0000000180025095e-35 235.43500000000003 0.53281583222184314 -1.0000000180025095e-35 15.750000000000002 1503.5966326530602 2816.1900000000005 0.33341187485397406 25817.065000000006 -6054.3300000000045 0.042857142857142858 0.79997399557566118 3.5000000000000004 1.1833333333333351 1.0000000180025095e-35 3.5000000000000004 0.83179757781585562 0.7645575731051556 -9.4999999999999982 193.88250000000002 0.43434070435375011 -516.88085714285796 0.86700467097847367 -1.0000000180025095e-35 719.55000000000052
decision_type=2 2 2 10 2 2 8 2 10 10 10 10 2 2 10 10 2 2 10 2 2 2 2 8 10 2 10 2 10 10
left_child=1 2 4 5 6 7 8 10 -1 11 12 13 22 14 -10 -6 -11 -3 25 -20 -7 -8 23 -2 -14 26 -16 -22 -21 -13
right_child=3 17 -4 -5 15 20 21 -9 9 16 -12 29 24 -15 18 -17 -18 -19 19 28 27 -23 -24 -25 -26 -27 -28 -29 -30 -31
leaf_value=0.077928939834370353 0.097416289777247117 -0.055674190630989565 0.11193373058982711 0.11107015008573806 -0.022678289196463964 -0.071569315142291604 0.003472709106694144 -0.052874865098736748 0.068521103646656423 0.037633775280800863 0.11191060072407688 -0.013591160480634358 -0.042885005551441681 -0.0093783117991926724 0.045985045151740456 0.04393350007362723 0.10480843534053828 0.054075842169551476 0.055910144626213784 0.043239899496331106 -0.048899104240074522 -0.043309313219876612 -0.038048416519028121 0.00608446651634872 0.041684088865160542 -0.0074062465460298845 0.011622468565343901 0.064293542865340697 0.010611338071630467 0.03547880820669632
leaf_weight=200.67551024910063 52.990741293644533 347.760610176716 154.52663947688416 36.098589398432523 719.08271633833647 1170.7986299913609 803.36271104833577 715.96149542275816 257.96214388578665 198.17729304207023 30.118161926278844 511.86769813671708 365.9905275136698 285.11550291487947 285.36269375658594 83.450373490341008 114.38779581314884 29.232690701261163 423.70794889889657 341.33711631828919 56.16649777290877 128.06580255029257 57.993706082459539 108.01574060949497 34.568749975180253 347.44925320579205 676.9996447567828 24.260116464225575 492.09125689871144 104.5980931018712
leaf_count=984 6291 121964 7619 4164 126889 596134 43372 250067 2833 14329 3907 54965 102550 18260 3999 1555 7452 4533 11029 11977 21139 9630 10016 16305 9178 8061 19615 3076 19562 7730
internal_value=0 0.0143036 0.018085 -0.047531 0.0156573 -0.0497189 0.0205318 -0.033045 0.0256926 0.0230973 -0.011192 0.019816 -0.0171763 0.0247876 0.028236 -0.0157517 0.0622173 -0.047164 0.0241876 0.0347382 -0.0679174 -0.00295954 0.0164968 0.0361438 -0.0355866 0.0140612 0.0218118 -0.0147553 0.0239746 -0.00526527
internal_weight=0 6505.21 6128.22 2652.96 5973.69 2616.86 5171.16 1365.64 4239.73 4039.06 649.678 3726.49 619.559 3110.03 2824.91 802.533 312.565 376.993 2566.95 1257.14 1251.23 931.429 219 161.006 400.559 1309.81 962.362 80.4266 833.428 616.466
internal_count=1519185 496358 369861 1022827 362242 1018663 233798 398314 180796 179812 148247 158031 144340 95336 77076 128444 21781 126497 74243 42568 620349 53002 32612 22596 111728 31675 23614 24215 31539 62695
is_linear=0
shrinkage=0.0842295


Tree=17
num_leaves=31
num_cat=0
split_feature=145 149 157 149 150 62 151 73 22 59 27 107 27 113 125 40 27 166 112 27 69 92 76 90 18 117 40 35 27 140
split_gain=893.194 213.033 176.503 172.088 97.5769 82.9317 72.1098 69.0227 70.111 73.6028 65.5819 53.6984 47.2565 53.4913 45.1732 41.9116 38.5025 39.1167 37.427 37.5931 34.0921 32.7684 32.3115 29.1685 29.113 26.8761 24.5852 24.4049 24.0252 23.0189
threshold=0.30044216586458711 0.19987076649004654 0.96665208732842411 0.39898758005333057 0.89922615253935312 6.5000000000000009 0.50118443853471362 45.948142857142606 341.50000000000006 15.750000000000002 2.5000000000000004 40.583333333333357 1.5000000000000002 444.16000000000003 1.0000000180025095e-35 78.500000000000014 3.5000000000000004 0.29986647971306007 20095.340000000004 9.5000000000000018 433.21375000000006 1.0000000180025095e-35 282.21416666666659 1.0000000180025095e-35 71.535000000000011 -1453.0949999999998 43.500000000000007 0.24500000000000002 4.5000000000000009 0.39955128964504255
decision_type=2 2 2 2 2 10 2 8 8 10 2 8 2 10 8 10 2 2 10 2 10 10 10 10 2 10 8 10 2 2
left_child=2 5 3 4 7 14 15 8 -1 12 -6 -5 -10 16 18 24 26 21 19 -2 23 -18 -13 28 29 -11 -14 -23 -9 -3
right_child=1 6 -4 11 10 -7 -8 20 9 25 -12 22 13 -15 -16 -17 17 -19 -20 -21 -22 27 -24 -25 -26 -27 -28 -29 -30 -31
leaf_value=-0.0024597162164819095 0.002716149357161021 -0.050896431650431916 0.10074497686010708 0.079107288122754402 0.031412245647479763 0.10865137956745269 -0.07326637368657142 -0.023127415435595267 0.059061234277754088 0.044034696885461147 -0.042348227695385793 0.0012546342305267007 0.025483294499001722 -0.012231750742506984 -0.041802423916443177 0.074079595910612223 0.022139215394475872 -0.0016892266376118362 -0.022745353105482105 0.069101233240778215 -0.038722672424142644 0.052153257732937594 -0.039462879731698722 0.046165292129681554 -0.059371501384480475 0.097074903182023761 -0.013586494394941738 0.023275361031042378 0.011334700391193778 -0.017282575801366256
leaf_weight=519.83655229385477 232.53591788955964 250.40542816754896 165.23283196543343 33.885207472951151 120.15662329143379 41.850456392858177 961.21429975365754 209.09819798264652 296.10976521857083 125.37009751517326 296.66800793050788 184.09349442867097 221.85220915207174 266.29241473972797 262.99415509705432 21.756546889082529 710.58652780135162 214.32564011274371 270.42287562135607 81.811775739770383 133.4901040692348 862.39112419344019 555.46403594105504 116.74884867412038 482.12583296291996 147.54032965318765 235.62979061948135 273.45791474368889 457.61379533004947 341.86148965836037
leaf_count=31303 22458 91921 12826 6181 6398 1341 542924 15300 10188 6081 27476 28047 8239 8814 93230 7027 14854 16906 32665 6642 8133 23658 172886 4667 175637 8733 10747 10952 24032 88919
internal_value=0 -0.0415351 0.0148685 0.0124959 0.0180025 -0.00709593 -0.0564268 0.0214036 0.0263229 0.0307846 -0.0210855 -0.0245767 0.0270705 0.0236686 -0.0128099 -0.0416602 0.0274649 0.0323721 0.000229206 0.0199935 0.000623442 0.0363258 -0.0293273 0.00732744 -0.0440039 0.0727092 0.00536008 0.0452008 0.000526486 -0.0314942
internal_weight=0 2946.98 6145.84 5980.61 5207.17 889.615 2057.36 4790.34 3873.39 3353.56 416.825 773.443 3080.65 2784.54 847.765 1096.15 2518.24 2060.76 584.771 314.348 916.951 1846.44 739.558 783.461 1074.39 272.91 457.482 1135.85 666.712 592.267
internal_count=1519185 1062764 456421 443595 236481 156336 906428 202607 150475 119172 33874 207114 104358 94170 154995 363504 85356 66370 61765 29100 52132 49464 200933 43999 356477 14814 18986 34610 39332 180840
is_linear=0
shrinkage=0.0842295


Tree=18
num_leaves=31
num_cat=0
split_feature=28 29 30 145 36 108 137 39 78 7 77 90 9 101 71 83 8 9 85 83 29 49 8 56 6 44 101 101 68 42
split_gain=788.698 162.063 126.966 121.329 112.455 111.832 94.6447 77.9188 75.439 66.9845 63.1714 57.3579 45.7669 44.69 44.5535 45.9829 44.154 41.1785 38.9129 37.7262 34.9226 76.717 33.2304 29.1677 28.8388 28.6115 26.6415 25.7511 35.4742 32.9058
threshold=66.500000000000014 255.74821984026903 8.0000000000000018 0.30044216586458711 -1.0000000180025095e-35 538.26166666666666 0.96681358228848013 -15.499999999999998 -9585.063857142859 7.5000000000000009 -0.066857142857142685 1.0000000180025095e-35 3.5000000000000004 30.403488372093005 -0.107142857142857 -4036.4098571428544 -1.0000000180025095e-35 3.5000000000000004 0.12857142857142853 1.0000000180025095e-35 441.00151785714303 1503.5966326530602 -16.504999999999995 -1909.6199999999997 600.93000000000018 -4678.079999999999 30.517441860465102 30.555212355212351 -5.7821428571428592 784.42500000000007
decision_type=2 2 10 2 8 8 2 8 8 2 10 10 2 10 10 10 2 2 10 10 2 10 2 8 2 8 10 10 10 8
left_child=1 2 4 7 -1 6 9 13 -7 10 -6 14 20 -2 -12 -16 -14 -3 25 23 21 -5 -11 -10 27 -17 -27 -25 -29 -30
right_child=3 17 -4 12 5 8 -8 -9 19 22 11 -13 16 -15 15 18 -18 -19 -20 -21 -22 -23 -24 24 -26 26 -28 28 29 -31
leaf_value=0.068643510448046924 -0.010776169288811395 -0.052934550597519059 0.096730161928750377 -0.053324965402383684 -0.026233757966071702 0.033751028593721609 0.083922881800331597 -0.029598558642937037 0.032106349232218293 0.0082178694566820802 0.04789108129356321 0.058781348916503703 0.063722589792654161 0.079864252074215172 0.059111099075570335 0.04050452776941358 -0.041973187120306385 0.050356380981448894 0.032884696926204722 -0.058648495434676762 -0.072116595311230575 0.066995149354921096 -0.029886565483228881 -0.019989364010464594 -0.046301306216732306 -0.0092940755258405661 0.013285621628452343 -0.02416188319807646 0.049022493742905682 -0.0020822155391577507
leaf_weight=249.17718650400639 71.47536804061383 318.35062565957196 131.94652480143122 755.15840146783739 186.7092287777923 285.50608521758113 152.38609182753135 534.91883353609592 110.2344800765859 378.71268300048541 360.62653006613255 306.60709837300237 41.601956313010305 83.882621647790074 163.84691665205173 158.67016337590758 86.017062456347048 29.959545447956771 521.93343120929785 120.17627609497868 819.36727064964361 39.565955897793174 284.2398031790508 637.89715487498324 161.95281166757923 687.39873800612986 804.72508307371754 195.30162565421779 159.37088909384329 203.56093904364388
leaf_count=1258 15928 121964 1660 282687 1108 16852 5202 167177 9588 18472 9968 10885 12222 15196 5148 4238 31411 4533 10666 7384 489146 9060 28603 65563 38762 40331 41451 21598 12490 18634
internal_value=0 0.0118699 0.0149808 -0.0442319 0.0132209 0.0108722 0.0188174 -0.0143476 -0.00611128 0.0162427 0.0213049 0.0242598 -0.0560756 0.0381634 0.0203355 0.0160826 -0.00751789 -0.0440501 0.0128378 -0.0132759 -0.0599148 -0.0473347 -0.00811935 -0.00956231 -0.0129445 0.00649954 0.0028835 -0.0084281 0.00478303 0.0203589
internal_weight=0 6609.29 6260.98 2431.99 6129.03 5879.86 4005.86 690.277 1874 3853.47 3190.52 3003.81 1741.71 155.358 2697.2 2336.57 127.619 348.31 2172.73 1588.49 1614.09 794.724 662.952 1468.32 1358.08 1650.79 1492.12 1196.13 558.233 362.932
internal_count=1519185 496358 369861 1022827 368201 366943 176072 198301 190871 170870 123795 122687 824526 31124 111802 101834 43633 126497 96686 174019 780893 291747 47075 166635 157047 86020 81782 118285 52722 31124
is_linear=0
shrinkage=0.0842295


Tree=19
num_leaves=31
num_cat=0
split_feature=161 29 30 155 10 36 15 55 136 35 142 130 50 137 9 148 15 1 143 85 92 64 151 31 39 108 9 133 52 1
split_gain=688.441 170.398 109.619 103.634 93.9955 72.7462 76.3489 84.123 62.9703 61.3561 57.6608 56.2977 54.3617 51.957 50.7967 47.7095 44.3808 40.501 45.5781 39.9052 37.6996 34.3312 31.678 30.8174 37.7511 29.8734 27.6842 28.2745 25.9812 39.7273
threshold=0.36642819773674856 255.74821984026903 8.0000000000000018 0.43412476789903004 5072.0750000000007 -1.0000000180025095e-35 21817.475000000002 -3992.3250000000048 6394.0499999999856 -1.0000000180025095e-35 0.53089075043224809 30.250000000000004 -376.04749999999996 0.93341515525702368 3.5000000000000004 0.16682639984240152 1.0000000180025095e-35 202010.50000000003 0.13289180714228352 0.12857142857142853 2.5416666666666656 33.083333333333357 0.50118443853471362 2062.7100000000005 -15.499999999999998 177.64500000000001 3.5000000000000004 -427.49716555183949 235.43500000000003 202002.50000000003
decision_type=2 2 10 2 2 8 2 8 10 8 2 8 10 2 2 2 2 2 2 10 10 10 2 2 8 10 2 8 8 2
left_child=1 2 3 5 8 -1 7 -7 16 -9 19 -11 -13 17 -3 26 23 18 25 -5 -19 -20 -17 24 -2 -14 27 -6 29 -8
right_child=4 14 -4 10 15 6 28 9 -10 11 -12 12 13 -15 -16 22 -18 20 21 -21 -22 -23 -24 -25 -26 -27 -28 -29 -30 -31
leaf_value=0.062233711083021788 0.090480077362800101 -0.053623592076914611 0.086544425746856085 -0.010261142980487897 0.051282359795665415 0.054892855649465909 0.044879975798734116 0.060964256241448724 0.081487816137843977 -0.014926457210716094 -0.047946683284957346 -0.013894305111771673 0.04106753374869198 0.060485546689838611 0.049817629157202115 -0.046912374115981238 -0.055934670031991512 0.014894611006838079 0.033054330376952039 0.046913728907925098 0.070054201935310201 0.00054297207497581686 -0.0721419532546414 -0.03516664293062273 -0.0016944873961802433 0.0072686866389963219 0.050245642774500082 -0.044220249699596849 -0.052787985333799275 -0.021107297163275526
leaf_weight=231.99191898852587 41.606858629500493 355.66278287745081 141.81379258842207 542.05778644629754 25.498505296185613 388.40635441825725 82.49433128000237 188.28909681364894 45.497592515428551 492.28810535988305 262.55814927408937 398.44068893382791 532.10465640109032 201.63591235375497 37.203411443391815 672.08230053191073 174.34326714940835 171.53953159367666 270.43892098707147 103.07434191717766 180.30641605472192 1557.7891278326279 743.8542110392591 118.74110045318957 130.07711853913497 284.84336718602572 35.344328838400543 159.99471866956446 113.4435824729735 300.56665529671591
leaf_count=1129 5662 150896 1745 68212 6870 7832 5952 12163 8594 36993 48802 31791 8102 7967 5436 274574 58831 5083 10920 7687 9531 89705 489244 43331 29396 11501 2975 43039 10249 24973
internal_value=0 0.0100267 0.01331 0.0116621 -0.0446473 0.0160926 0.0140192 0.0173605 -0.0130831 0.0139526 -0.0146695 0.011788 0.0154441 0.0190986 -0.043828 -0.0544874 -0.022341 0.0163142 0.0127431 -0.00112617 0.0431616 0.00535218 -0.0601666 -0.00217456 0.0206436 0.029283 -0.0180743 -0.0310921 -0.017382 -0.00689657
internal_weight=0 6836.95 6444.08 6302.27 2147.04 5394.58 5162.59 4666.08 510.266 4277.68 907.69 4089.39 3597.1 3198.66 392.866 1636.77 464.768 2997.02 2645.18 645.132 351.846 1828.23 1415.94 290.425 171.684 816.948 220.838 185.493 496.505 383.061
internal_count=1519185 556669 400337 398592 962516 273891 272762 231588 145814 223756 124701 211593 174600 142809 156332 816702 137220 134842 120228 75899 14614 100625 763818 78389 35058 19603 52884 49909 41174 30925
is_linear=0
shrinkage=0.0842295


Tree=20
num_leaves=31
num_cat=0
split_feature=149 29 157 151 9 71 15 147 116 147 111 93 101 128 73 92 140 5 59 142 15 1 42 73 145 80 41 101 42 7
split_gain=607.709 211.968 169.275 125.886 84.8388 82.352 80.1925 76.6591 75.7758 61.6929 58.8112 45.7436 48.4743 42.7962 44.3574 37.8806 55.2398 46.5874 33.9655 30.6986 29.8408 28.498 25.0161 24.8604 24.4221 20.8995 32.5452 19.3458 20.1215 19.2486
threshold=0.36588209551140255 255.74821984026903 0.96665208732842411 0.50118443853471362 3.5000000000000004 0.042857142857142858 156138.73000000001 0.23374089297820053 -0.74999999999999989 0.53379023776284862 -3086.8137499999998 -11.814285714285699 30.517441860465102 1.0000000180025095e-35 45.948142857142606 1.0000000180025095e-35 0.59982753373237319 634.7650000000001 15.750000000000002 0.49745781456003907 7517.1200000000008 202010.50000000003 220.21500000000003 -827.1054285714298 0.066541942668611007 11.041666666666652 8331.720000000003 30.517441860465102 177.88500000000002 6.5000000000000009
decision_type=2 2 2 2 2 10 2 2 8 2 8 10 10 10 8 10 2 2 10 2 2 2 8 10 2 10 10 8 8 2
left_child=1 2 5 7 -3 6 8 11 -1 10 -10 -2 -13 14 15 23 -17 18 21 22 25 -18 29 -12 -16 -14 -27 -11 -29 -9
right_child=3 4 -4 -5 -6 -7 -8 19 9 27 13 12 20 -15 24 16 17 -19 -20 -21 -22 -23 -24 -25 -26 26 -28 28 -30 -31
leaf_value=0.048589584176548697 0.090627300268306024 -0.051556425156216272 0.099413870811982413 -0.069810097577960667 0.044926989561473625 -0.031461419128776556 -0.036526242510961593 0.076838903905945499 0.050081151463668906 -0.040757044975623671 0.026302327155444335 -0.042136621701472414 0.0046771879511366904 -0.018377387636508986 0.018427334121692653 -0.0059915257660872051 0.028702911140451336 -0.0020470115229196798 0.073059075275377333 -0.056099936885264358 -0.041239898203711545 0.064550138876612623 -0.033631481208124578 -0.00015232753612913044 -0.013194541462402941 0.099206322015473955 0.0041575009976451893 0.027431004062938635 -0.019367642207101261 -0.018454608699838466
leaf_weight=468.237855258747 35.288687706342898 502.49181957787368 161.29041424521711 733.94417055055965 74.205530784092844 294.50069682137109 212.71312824788038 27.590245048282668 334.67161959037185 154.4817972733872 365.60471198952291 190.89151457406115 157.24600381264463 280.68606327590533 262.49976371962111 303.46383817866445 1104.8921002923744 232.01479946891777 178.01751808449626 497.78949023771565 61.61912033194676 183.46252374560572 355.50318529910874 811.18158758140635 509.77694957552012 53.236278078751639 49.157123476848938 97.144917906494811 198.10011071560439 33.055929225753061
leaf_count=4650 8459 234086 6609 501952 8720 28190 12765 7189 11339 26675 5114 40872 19191 12574 9503 23817 43004 11070 7865 203392 17545 5963 131900 26999 33003 10283 13180 10595 33297 9384
internal_value=0 0.00968651 0.0142632 -0.0413489 -0.0391416 0.0119709 0.0142161 -0.0270549 0.0161842 0.0131592 0.0160908 -0.00212874 -0.00851991 0.0134025 0.0156603 0.0200594 0.0271093 0.0330237 0.0385727 -0.0419854 0.0114551 0.0338076 -0.0251019 0.00806662 -0.00244615 0.023961 0.0535752 -0.016606 -0.00396941 0.024898
internal_weight=0 6729.44 6152.74 2195.32 576.697 5991.45 5696.95 1461.38 5484.24 5016 4566.27 547.439 512.15 4231.6 3950.91 3178.64 2001.85 1698.39 1466.37 913.939 321.259 1288.35 416.149 1176.79 772.277 259.639 102.393 449.727 295.245 60.6462
internal_count=1519185 555838 313032 963347 242806 306423 278233 461395 265468 260818 190251 109530 101071 178912 166338 123832 91719 67902 56832 351865 60199 48967 148473 32113 42506 42654 23463 70567 43892 16573
is_linear=0
shrinkage=0.0842295


Tree=21
num_leaves=31
num_cat=0
split_feature=6 16 157 148 134 15 1 58 55 19 79 9 57 12 66 101 131 137 129 67 23 91 2 156 78 166 3 102 85 68
split_gain=536.262 169.89 117.702 106.083 73.9317 65.1921 97.3606 76.3776 68.6487 63.6485 52.7003 47.2525 39.6718 35.9943 35.2943 31.3837 30.2611 28.5266 25.2043 27.7254 29.5608 24.2162 24.1473 22.9288 22.6231 22.2462 21.6076 20.8432 19.499 19.8807
threshold=323.74500000000006 1.0000000180025095e-35 0.96665208732842411 0.16682639984240152 377.80413157894753 10836.530000000002 202001.50000000003 1.2500000000000002 -3992.3250000000048 1208.6150000000002 1.0000000180025095e-35 3.5000000000000004 -7126.5049999999992 242.84500000000003 2310.1929166666655 30.517441860465102 4992.9750000000058 0.96681358228848013 314.50000000000006 -1449.4126428571496 -1383.9999999999998 2.5785714285714305 1.0000000180025095e-35 0.59968423665827653 1.0000000180025095e-35 0.19942737358340504 65.500000000000014 2179.8333333333353 0.12857142857142853 -5.7821428571428592
decision_type=2 2 2 2 8 2 2 10 8 2 10 2 8 2 10 10 10 2 8 8 10 10 2 2 10 2 2 10 10 10
left_child=1 2 5 11 13 7 -7 8 -1 16 12 15 -10 28 18 -2 25 23 -14 20 -20 -21 -8 26 -23 -3 -15 -16 29 -5
right_child=3 9 -4 4 -6 6 22 -9 10 -11 -12 -13 14 17 27 -17 -18 -19 19 21 -22 24 -24 -25 -26 -27 -28 -29 -30 -31
leaf_value=0.048114194318387482 -0.035702013094050383 -0.029567788295531538 0.082147646839056829 -0.040867027028104866 -0.070377487422104076 0.058901829644709157 -0.00052369318066451567 0.057906181107223342 0.052379961400018306 0.12893990858472812 -0.014267160335202074 0.063732917134974115 -0.0035793241735247888 -0.042032027083646638 -0.031246260907645235 0.0060181814461513208 0.064082421655073579 0.040308972211767893 0.053676823528847104 0.010707431063413469 0.0074466450821958569 0.060366542505438839 -0.033169415140077207 -0.060145532457523819 0.0094243324289148105 -0.06802323055160478 -0.0032000590926177636 0.011993066614635176 0.063322477640260832 0.0172343114451756
leaf_weight=358.28407463035546 244.60595937911421 203.57696757162921 172.5122957933927 85.434157520998269 626.44883481343277 123.51312717306428 243.54340398614295 280.38100758637302 175.94202226528432 15.384312235633841 563.97251788922586 62.421318219858222 489.55084398481995 450.46488898934331 206.04760219715536 268.15667964098975 17.242662903969176 29.590254873852246 271.23623213497922 2145.1856567293871 153.7531318035908 142.86248209164478 472.83560806512833 367.40037061518524 109.06313730310649 224.33218119083904 131.2915076862555 128.36695584165864 28.148912303498946 81.7734364871867
leaf_count=6730 42608 59657 7713 23697 458848 7175 14587 12977 12761 2208 68429 5177 20436 154705 7606 42860 2960 11529 9609 71036 10010 7413 51277 178903 7781 139339 43588 9739 5207 22620
internal_value=0 0.00981337 0.0135751 -0.0369516 -0.0470114 0.011558 -0.0101633 0.0151888 0.0126643 -0.0394986 0.0097684 -0.00546054 0.0133151 -0.0345442 0.01143 -0.0138838 -0.0453197 -0.041133 0.0140634 0.0171239 0.0369516 0.0136086 -0.022071 -0.043672 0.0383127 -0.0497281 -0.0332684 -0.0146486 -0.00153398 -0.0124524
internal_weight=0 6497.59 6037.05 2375.74 1800.55 5864.54 839.892 5024.65 4744.26 460.536 4385.98 575.184 3822.01 1174.1 3646.07 512.763 445.152 978.747 3311.65 2822.1 424.989 2397.11 716.379 949.157 251.926 427.909 581.756 334.415 195.357 167.208
internal_count=1519185 529443 325279 989742 899097 317566 73039 244527 231550 204164 224820 90645 156391 440249 143630 85468 201956 388725 126285 105849 19619 86230 65864 377196 15194 198996 198293 17345 51524 46317
is_linear=0
shrinkage=0.0842295


Tree=22
num_leaves=31
num_cat=0
split_feature=29 149 157 30 2 2 9 143 78 147 157 137 101 60 143 93 138 119 101 148 67 113 142 65 137 142 19 67 85 15
split_gain=475.612 231.644 112.653 76.6212 76.2201 97.6398 73.9327 81.7342 65.76 55.8989 52.0894 57.3099 34.3678 50.1127 34.5449 31.8888 31.623 31.0654 29.5156 26.4078 25.5192 24.7397 26.9557 23.9604 23.6674 27.9116 22.1759 25.1774 21.0895 20.8153
threshold=255.74821984026903 0.432310590420864 0.96665208732842411 8.0000000000000018 1.0000000180025095e-35 0.75000000000000011 3.5000000000000004 0.19987333662196202 1572.6358571428602 0.23374089297820053 0.33306372218368602 0.93341515525702368 30.555212355212351 -9.4999999999999982 0.16648752476611103 -11.814285714285699 0.23245098969739852 1.0000000180025095e-35 30.517441860465102 0.16682639984240152 -105.57771428571348 -1031.4849999999999 0.19903860719144353 -43.439714285714295 0.96681358228848013 0.39833591025739706 1311.3150000000003 -797.45385714285783 0.042857142857142858 7517.1200000000008
decision_type=2 2 2 10 2 2 2 2 8 2 2 2 8 8 2 10 2 10 10 2 8 10 2 8 2 2 2 10 10 2
left_child=1 2 3 4 12 -6 19 -8 10 15 11 16 14 -14 -1 -3 -7 -18 -17 -2 -15 -11 -23 -10 25 26 27 -12 -25 -20
right_child=6 9 -4 -5 5 8 7 -9 23 21 24 -13 13 20 -16 18 17 -19 29 -21 -22 22 -24 28 -26 -27 -28 -29 -30 -31
leaf_value=0.019631777597112928 -0.036686882236196261 0.073412324183363867 0.075022116090394456 0.067538670922464128 -0.036606991080725113 0.04823357801803136 0.1379781457266383 -0.030322198197410062 -0.046503445189868972 -0.05631702220471517 0.030966951224705601 0.074911082432014761 0.063904444049999509 0.033851226590967808 -0.012673794035459485 -0.040938377706002879 0.021087250881001905 -0.014454264668320262 0.0166264705555507 -0.067664462789162674 0.0112091331558365 0.0256813426730375 -0.036583130339582728 -0.017210199538499255 -0.036560544732641982 -0.014485874834844712 0.031299769002291138 -0.0098070363504725016 0.041671222042772411 -0.043939539324210672
leaf_weight=557.325813246076 260.21633347368333 33.848560139071196 191.3894522812916 156.91372984275222 455.96601057995576 188.84974592074286 27.815417155390605 77.545161366229877 181.05721358186565 418.72013542812783 151.42937583127059 138.99122482072562 215.45525732787792 594.32758489856496 405.83094460144639 153.89987806836143 557.55329678370617 253.94053345522843 217.03350667050108 781.86519460764248 870.2737038169289 59.53172880038619 287.81421924894676 302.68946616398171 116.41425077966414 417.57305270910729 283.73122177517507 369.87170608143788 50.331631964305416 49.426255656639114
leaf_count=10164 97739 7842 7930 1866 30309 7303 4697 22567 25300 197782 7925 5401 8122 21899 22110 37107 28370 18817 37907 602008 32775 19599 115270 50041 4659 39794 13148 19166 5882 15686
internal_value=0 0.00500745 0.0113652 0.00942165 0.00792951 -0.000281993 -0.0531307 0.0141095 0.00521621 -0.0286494 0.0109933 0.0242314 0.0187046 0.0259767 0.00601966 -0.00523719 0.0171897 0.00996525 -0.0115703 -0.0599291 0.0203972 -0.0425307 -0.0259116 -0.0215919 -0.000270643 0.00318481 0.0123507 0.00203714 -0.00881524 0.00539194
internal_weight=0 7680.19 6459.92 6268.53 6111.61 3468.4 1147.44 105.361 3012.43 1220.27 2478.35 1139.33 2643.21 1680.06 963.157 454.208 1000.34 811.494 420.36 1042.08 1464.6 766.066 347.346 534.078 1339.02 1222.61 805.032 521.301 353.021 266.46
internal_count=1519185 792174 360981 353051 351185 256115 727011 27264 225806 431193 144583 59891 95070 62796 32274 98542 54490 47187 90700 699747 54674 332651 134869 81223 84692 80033 40239 27091 55923 53593
is_linear=0
shrinkage=0.0842295


Tree=23
num_leaves=31
num_cat=0
split_feature=162 155 83 137 74 24 79 31 56 148 7 84 71 103 58 1 130 31 86 1 55 1 85 9 143 79 5 86 52 41
split_gain=427.536 206.338 78.9364 85.2 258.001 104.797 87.0343 65.1111 52.0153 49.3586 47.978 52.4619 45.3101 44.8739 44.0934 40.9701 34.8955 34.5355 34.0517 30.5672 48.6017 34.3171 30.0445 28.8223 28.6491 23.6335 21.8564 21.4159 20.1394 17.6763
threshold=0.5342846661414441 0.5338158035204611 1.0000000180025095e-35 0.96681358228848013 -1586.7874999999997 23.500000000000004 1.0000000180025095e-35 33795.450000000004 -1909.6199999999997 0.16682639984240152 7.5000000000000009 38062.915833333354 0.042857142857142858 2877.2250000000004 1.2500000000000002 202003.50000000003 30.250000000000004 87.750000000000014 128.43671428571454 202003.50000000003 -7314.4974999999986 202001.50000000003 0.092857142857142874 3.5000000000000004 0.066938369677367007 -1.7357142857142847 -70.984999999999985 2.8410882112525757e-13 -241.84499999999997 2777.6000000000008
decision_type=2 2 10 2 10 10 8 2 8 2 2 10 10 8 10 2 8 2 10 2 8 2 10 2 2 10 2 8 8 8
left_child=1 2 3 5 -5 6 8 9 13 24 11 18 14 -1 17 -9 -8 19 23 21 -21 -10 -22 -3 -2 -19 -27 -18 -4 -29
right_child=7 10 28 4 -6 -7 16 15 12 -11 -12 -13 -14 -15 -16 -17 27 25 -20 20 22 -23 -24 -25 -26 26 -28 29 -30 -31
leaf_value=0.093726687230507352 0.060822914746330184 -0.033270314233346678 -0.009893823246632889 -0.020014653741743819 0.13745639253747008 0.099565478648380487 -0.052594032793578854 0.15732334037915324 0.023908631795846885 -0.068144013155284275 -0.050424700669566475 0.090118290906335191 -0.02851644844631647 0.017106123159870083 0.047773282392222033 -0.034834548751771527 -0.018384263077907147 0.030897131648257848 0.025654384439092234 0.055655701003457889 0.010583984037693818 -0.012695285803562027 0.033791156564710143 0.053817216187274058 -0.034957601411380518 -0.022846049960950316 0.0036010644802348811 0.060389399131001442 -0.058219636979609038 0.0015739377465837615
leaf_weight=101.9527066644514 24.216732256347314 499.13628003757913 110.6605966797797 152.85421392065473 142.75352368340828 90.742907314794138 149.83627618954051 16.608018108410764 282.1366450318601 732.35040644614492 449.70561488170642 32.204387426609173 198.47970831021667 115.84985249373131 239.52883290522732 14.965033424436113 507.16304468805902 129.50544151628856 97.333785417024046 236.27226056915242 1840.21708973567 510.50722969602793 504.21702521364205 28.501078398432583 260.32578993006609 383.63920369523112 525.16978690493852 43.187014204682782 136.83051985502243 225.76673233020119
leaf_count=8316 3713 125896 9646 4721 10168 1465 33233 5245 8477 595555 174744 6148 20215 5986 11559 9789 93618 18725 17402 5997 61471 18973 7395 6192 93212 64566 40320 3662 14938 37838
internal_value=0 0.00443798 0.0100605 0.0118711 0.0560305 0.00972551 0.00836529 -0.0528784 0.0127041 -0.056577 -0.0292259 -0.0147196 0.0108956 0.052972 0.0125775 0.0662441 -0.0153798 0.0106665 -0.0201218 0.0148011 0.0192447 0.00033365 0.0155751 -0.0285662 -0.026806 -0.00276614 -0.00756316 -0.00819521 -0.0366117 0.0110182
internal_weight=0 7734.15 6627.27 6379.78 295.608 6084.17 5993.43 1048.47 5067.48 1016.89 1106.88 657.176 4849.67 217.803 4651.19 31.5731 925.953 4411.66 624.971 3373.35 2580.71 792.644 2344.43 527.637 284.543 1038.31 908.809 776.117 247.491 268.954
internal_count=1519185 811671 481289 456705 14889 441816 440351 707514 272000 692480 330382 155638 257698 14302 237483 15034 168351 225924 149490 102313 74863 27450 68866 132088 96925 123611 104886 135118 24584 41500
is_linear=0
shrinkage=0.0842295


Tree=24
num_leaves=31
num_cat=0
split_feature=162 155 118 157 35 24 15 58 127 55 142 57 148 133 79 38 127 117 119 7 67 25 52 69 135 27 153 39 34 83
split_gain=378.967 176.125 131.132 85.6625 78.6373 70.0901 77.4232 60.157 51.9725 47.3949 44.5065 42.8971 35.7676 34.079 33.5207 31.8728 29.0028 27.7363 26.2972 24.9974 24.7919 33.3233 24.0373 23.2816 23.2252 22.5062 20.936 32.2312 19.7344 18.5547
threshold=0.5342846661414441 0.5338158035204611 0.75000000000000011 0.96665208732842411 3.0100000000000002 23.500000000000004 10836.530000000002 1.0000000180025095e-35 680.72499999999957 -3992.3250000000048 0.53089075043224809 -14416.629999999999 0.16682639984240152 -526.29545681063348 0.23571428571428601 17.250000000000004 481.24250000000006 -1453.0949999999998 191.77499999999904 6.5000000000000009 -1449.4126428571496 3851.5000000000005 235.43500000000003 -27.975416666666646 9607.0350000000017 1.5000000000000002 0.59845367074611111 -15.499999999999998 -1.0000000180025095e-35 1.0000000180025095e-35
decision_type=2 2 10 2 10 10 2 10 10 8 2 8 2 8 10 10 10 10 10 2 8 8 8 10 10 2 2 8 10 10
left_child=1 3 12 4 5 6 7 9 24 -1 13 23 29 -3 15 18 26 -9 20 -19 21 -13 25 -11 -6 -8 27 -15 -17 -2
right_child=2 10 -4 -5 8 -7 22 17 -10 11 -12 14 -14 16 -16 28 -18 19 -20 -21 -22 -23 -24 -25 -26 -27 -28 -29 -30 -31
leaf_value=0.041527220328497393 -0.01842061392849768 0.073334731152941118 0.20552519282272519 0.06161362659815784 -0.01480193888971891 0.078407742323722038 0.034247806753060987 0.02121423975513315 0.048942326486967121 0.096267270207591363 -0.048651048757343586 0.0029830233485002061 -0.065013456729496516 0.057278223456249687 -0.020190425893217862 0.073876902154511162 0.041059413570145184 0.096320873286934686 -0.012844035290291713 0.037461244189866343 0.0070348861551476956 0.053524258850310952 -0.042314080265567801 0.02358799368152149 -0.049928784875078056 -0.013695036893470212 -0.047158199889590365 -0.021005509938060711 0.019951893342355746 -0.072358781087555224
leaf_weight=332.94920389167964 222.70450223144144 30.441747269127518 13.916437542298807 213.4670480156783 657.5577754896367 107.7512659773929 80.940277137095109 172.8730534730712 80.563413851778023 57.592636138550006 428.78481994569302 171.35737085947767 701.25604877423029 41.916916464571841 299.63780194008723 81.041294063441455 53.916264856699854 102.87366949999705 407.93026424676646 101.89269724790938 2574.4202549365582 201.24734612077009 178.46819535607938 68.414521679631434 167.57037744135596 490.10701553430408 181.48625664482825 339.73587587371003 118.62111518101301 56.783747596782632
leaf_count=6526 89853 5075 1378 12377 62478 1774 5737 6829 7075 10442 174948 8721 609057 7751 56501 5157 9323 3929 42613 9682 93909 5988 21132 4050 57757 47602 61405 71880 11010 7226
internal_value=0 0.00401363 -0.0512155 0.00911742 0.00738105 0.0111376 0.00980524 0.0138218 -0.0156309 0.0109994 -0.027603 0.0084457 -0.0548586 -0.0136646 0.00686463 0.00914525 -0.0179566 0.0460579 0.00719952 0.067032 0.00997397 0.0302808 -0.0153322 0.0568067 -0.0219356 -0.00689962 -0.0236069 -0.0124076 0.0418396 -0.0293793
internal_weight=0 7743.56 994.661 6667.28 6453.81 5548.12 5440.37 4690.85 905.692 4313.21 1076.28 3980.26 980.744 647.497 3854.26 3554.62 617.055 377.639 3354.96 204.766 2947.02 372.605 749.515 126.007 825.128 571.047 563.139 381.653 199.662 279.488
internal_count=1519185 811671 707514 481289 468912 341602 339828 265357 127310 244917 330382 238391 706136 155434 223899 167398 150359 20440 151231 13611 108618 14709 74471 14492 120235 53339 141036 79631 16167 97079
is_linear=0
shrinkage=0.0842295


Tree=25
num_leaves=31
num_cat=0
split_feature=162 12 118 15 157 24 30 113 2 130 101 127 55 78 68 38 119 148 14 102 32 108 157 57 93 53 2 83 106 57
split_gain=335.546 155.536 103.401 88.3358 127.318 117.488 60.274 57.8444 44.9582 42.5935 39.5335 38.3708 37.6645 48.288 46.8092 39.9944 40.4295 35.1466 29.7204 29.2052 30.0529 26.6399 23.2026 22.2904 21.5906 20.3509 19.5914 17.6539 29.1673 18.8432
threshold=0.5342846661414441 21613.030000000002 0.75000000000000011 10836.530000000002 0.96665208732842411 22.500000000000004 8.0000000000000018 -674.94499999999982 1.0000000180025095e-35 30.250000000000004 30.555212355212351 680.72499999999957 -3992.3250000000048 -24842.261428571346 -239.87249999999997 10.250000000000002 1.0000000180025095e-35 0.16682639984240152 8474.3950000000023 3791.4166666666656 382.45000000000005 177.64500000000001 0.89930700994244361 1.0000000180025095e-35 -11.814285714285699 -3448.3599999999992 1.0000000180025095e-35 5852.2714285714255 0.27142857142857152 3159.0100000000007
decision_type=2 2 10 2 2 10 10 10 2 8 8 10 8 8 8 10 10 2 2 10 10 8 2 10 8 8 2 10 10 10
left_child=1 3 17 4 6 8 9 -3 -5 18 -9 22 -11 -14 26 16 19 27 -1 20 -16 -10 -12 -17 -23 -21 -15 28 29 -2
right_child=2 7 -4 5 -6 -7 -8 10 21 12 11 -13 13 14 15 23 -18 -19 -20 25 -22 24 -24 -25 -26 -27 -28 -29 -30 -31
leaf_value=-0.0028909737278817859 -0.04244079698758324 -0.048786299605944834 0.16310308824493272 0.0049765537683788517 0.083561528135650195 0.098827568279192035 0.06978275307322844 -0.031515047239734507 -0.011373210510123594 0.039148477554293973 -0.0077733514695275197 0.086892085859626794 0.055553242284592963 0.0038566691803214323 0.011980317291650382 0.023809046387278553 -0.010282110755053288 -0.06371057815374058 -0.052087842594564435 0.059036752358193799 -0.017987352870811265 -0.013187339164943425 0.060249269670928036 0.068246753143991604 -0.05899499697264618 0.019325942503991857 -0.048277025138156376 -0.075745753292993906 0.068863936440217405 0.019180500160535796
